- -1.193029 0.088447 -0.658456 -0.030217 0.109450 -0.595528 -0.173176 -0.396011 -0.067313 -0.463030 0.979964 -0.636783 0.303431 -1.302251 -0.442454 0.361401 0.470077 -0.467330 -0.035494 0.039928 0.076577 -0.295827 0.936586 0.239844 -0.026415 -0.146918 0.131872 -0.343889 -0.807870 0.310388 -0.382921 0.159352 0.277811 0.043695 -0.038969 -0.170420 -0.877106 -0.212630 -0.196038 0.523102 1.162709 -0.703472 0.467298 -0.022742 -0.614401 -0.603153 -0.129574 -0.343026 -1.712696 0.440743
you -0.143287 0.065581 -0.781140 0.002028 -0.548356 -0.202181 0.495661 -0.877108 0.330928 -0.056278 -0.270297 0.074417 -0.188462 -0.500609 0.733337 0.148880 -0.420409 0.144570 -0.008434 0.502664 -0.602495 -0.232098 0.370903 0.667783 -0.129367 -0.071570 -0.064424 -0.468255 -0.486153 -0.262666 -0.367957 0.289056 0.619817 -0.396218 0.547381 0.072113 -1.032225 0.402649 -0.244007 0.002908 0.481679 -0.417068 0.284706 0.005293 -0.181381 0.496042 -0.605324 -0.402320 -0.654869 0.925633
I -0.142002 0.025305 -0.772990 -0.364435 -0.465661 -0.152801 0.110126 -0.900420 0.487096 0.136808 -0.019028 0.063427 0.169531 0.109598 0.340075 0.336763 -1.080855 0.419647 -0.323794 -0.331601 -0.223674 -0.435142 0.580105 0.807025 -0.064456 -0.070345 0.113896 0.150776 -0.288722 -0.778083 0.162064 0.273222 1.000952 0.101666 0.447547 0.665456 -0.834238 -0.116780 -0.259107 -0.152070 -0.349744 -0.077250 0.444140 -0.059160 -0.048877 0.176434 -0.793308 -0.191823 -0.256009 0.789366
the -0.156087 -0.574286 -0.948154 -0.178975 -0.878152 -0.131317 -0.175272 -0.232257 0.109406 0.664428 0.056225 0.408002 -0.014638 -0.589130 -0.035668 0.720627 0.121042 -0.411593 0.348490 0.076147 0.069011 -0.128098 -0.047188 -0.720993 0.316731 -0.371526 -0.479158 -0.444405 0.048687 0.197511 -0.401627 -0.098881 0.660897 0.179365 0.415087 -0.197948 -0.109193 -0.534193 -0.004965 0.316391 -0.070368 -0.360312 0.001045 -0.667059 -0.520387 -0.170000 0.096702 -0.277565 -0.007051 0.674318
a -0.050878 -0.359043 -0.419067 -0.187808 -1.350923 -0.229250 -0.024427 -0.217735 0.915763 0.344153 0.308715 0.132553 -0.016467 -0.215924 0.057317 1.057659 0.114386 -0.339527 -0.135365 0.277238 -0.615317 -0.345172 -0.071173 -0.767896 -0.295225 -0.352663 -0.882292 -0.281743 -0.050962 0.151508 -0.138931 0.213763 0.436049 0.296929 0.543388 -0.796342 -0.429834 -0.195048 -0.289009 -0.164432 0.515290 -0.094381 -0.506889 -0.734388 -0.647932 -0.050837 0.770114 -0.341577 -0.538091 0.694778
to -0.243077 -0.298369 -0.741976 -0.106470 -0.426385 0.013624 0.314137 -0.183218 0.475279 0.475729 -0.188463 0.133817 -0.221697 -0.138775 0.526968 0.121227 -0.667786 0.032351 0.173528 0.327314 -0.161798 -0.446607 0.236232 0.426073 0.535857 -0.237804 -0.380944 -0.002695 -0.269954 -0.499738 -0.552742 0.291237 0.607043 0.222590 0.548695 0.203069 -0.276805 -0.011364 -0.131885 -0.178641 -0.144278 -0.043727 0.199070 -0.442643 -0.057751 0.195555 -0.651385 -0.377451 -0.086862 0.838574
Oh, -0.725821 -0.097517 -0.509930 -0.047093 0.153329 -0.366523 0.065875 -0.341252 0.189153 -0.324406 0.442027 -0.613973 0.229796 -0.331690 -0.279862 0.208565 -0.187689 -0.227683 -0.271060 -0.044694 0.043916 -0.225942 0.641505 0.649797 -0.030390 -0.147130 0.467573 -0.020423 -0.285540 -0.178178 0.031794 0.286600 0.238911 -0.055074 -0.003385 0.287037 -0.753865 -0.291493 -0.163684 0.181459 0.695346 -0.403430 0.468160 0.007540 -0.453246 -0.188406 -0.296229 -0.262418 -0.940820 0.223219
and -0.088687 -0.333778 -0.394438 -0.071328 -0.505802 -0.128783 -0.230086 -0.195428 -0.099146 0.557696 -0.198976 0.471983 -0.059427 -0.459101 0.305723 0.256998 -0.129130 -0.083934 0.342322 0.261355 -0.163465 -0.219156 0.239245 -0.190790 0.648515 -0.224828 -0.345098 -0.207883 -0.118819 -0.086683 -0.230074 0.312045 0.475383 0.044770 0.625887 0.035376 -0.046168 -0.004233 0.009879 0.045564 -0.029084 -0.150244 0.093673 -0.028392 -0.282631 -0.107453 -0.069214 -0.162233 -0.037649 0.652907
of -0.035660 -0.529507 -0.330806 -0.178461 -0.852874 0.100810 -0.312740 0.044271 0.470728 0.620811 0.139150 0.244616 0.129357 -0.484430 0.042703 0.780092 0.129435 -0.306576 0.165597 -0.000553 -0.090958 -0.036637 0.413187 -0.456186 0.354329 -0.395666 -0.424917 -0.147662 -0.087086 -0.027653 -0.042644 0.125919 0.228993 0.064260 0.318311 -0.276237 -0.003020 0.053206 -0.230271 0.167668 0.166355 0.014386 -0.255223 -0.234568 -0.820254 -0.137685 0.365557 -0.195482 -0.365338 0.611620
me 0.171965 -0.256207 -0.369799 -0.245854 -0.578156 0.058639 -0.011032 -0.241319 0.232450 0.355911 -0.051038 0.137830 -0.054068 -0.389276 0.557047 0.052691 -0.448968 -0.105544 0.235358 0.135120 -0.449919 0.080452 0.366306 0.047565 0.077329 0.235571 -0.469463 -0.213711 -0.117212 -0.151288 -0.099553 0.273991 0.598402 0.022862 0.571647 -0.092365 -0.614682 0.803541 -0.003979 0.077764 0.540425 -0.501147 -0.026110 0.113651 0.235253 0.298046 -0.290208 -0.545025 -0.309829 0.915414
You -0.288460 0.151879 -0.563821 -0.094786 -0.278578 -0.194637 -0.038017 -0.593277 0.373073 -0.001261 0.004467 -0.042418 0.157386 -0.249881 0.436327 0.147684 -0.463152 0.024738 -0.121289 0.036781 -0.257113 -0.340258 0.696565 0.533803 -0.007801 0.103567 -0.003171 -0.054867 -0.373447 -0.446956 0.000610 0.263221 0.454410 -0.004646 0.374142 0.183906 -0.675522 0.052189 -0.170521 -0.110164 0.253863 -0.114770 0.348514 0.010295 -0.083154 0.197625 -0.439321 -0.173495 -0.491549 0.559719
I'm -0.344372 -0.396463 -0.861185 -0.062893 -0.257806 -0.093746 0.385686 -0.303031 0.622503 0.198710 0.318947 -0.352294 -0.160857 0.041900 -0.133119 0.233134 -0.271469 0.144987 -0.136038 0.167393 0.161736 -0.513071 0.098441 0.297929 0.108098 -0.198290 0.220267 -0.143166 -0.331738 -0.483864 -0.062368 -0.048206 0.300464 0.119259 0.188195 0.414079 -0.123310 -0.131768 -0.207460 -0.206480 -0.096348 -0.168612 0.309680 -0.226349 -0.626276 -0.031205 -0.406917 -0.077416 -0.483952 0.441975
that -0.048483 -0.438928 -0.577116 -0.118050 -0.624614 -0.043829 0.097314 -0.375365 0.527830 0.332869 0.149774 -0.004719 -0.035337 -0.395183 0.284287 0.558456 -0.117737 -0.149529 -0.000740 0.204035 -0.183941 -0.377750 0.230765 -0.101272 0.128305 -0.190116 -0.250798 -0.238827 -0.241863 -0.176679 -0.144623 0.219165 0.620151 0.030821 0.477356 -0.011411 -0.316580 0.238211 -0.170127 0.016287 0.196838 -0.288760 0.023899 -0.323227 -0.564213 0.186907 -0.138986 -0.224398 -0.391331 0.863820
in -0.257634 -0.282731 -0.680638 -0.149411 -0.573598 -0.188278 -0.090771 -0.238825 0.228949 0.353184 0.052587 0.234468 -0.011007 -0.386172 0.078335 0.452603 0.068196 -0.219102 0.190647 0.178430 -0.073418 -0.207417 0.052097 -0.281848 0.234350 -0.176780 -0.379788 -0.321892 -0.082376 -0.021169 -0.402302 0.024523 0.490081 0.241914 0.372921 -0.147304 -0.161602 -0.309652 0.053996 0.059779 -0.038492 -0.208677 0.060643 -0.485403 -0.320424 -0.142422 -0.013445 -0.200986 -0.205337 0.500224
it -0.004257 -0.124742 -0.495046 0.091798 -0.227547 -0.260732 -0.212852 -0.322463 -0.257049 0.224311 -0.223343 0.388875 -0.063095 -0.628347 0.118122 0.188013 0.089843 -0.368224 0.124799 0.393343 -0.151133 -0.195442 0.164615 -0.263046 0.309361 -0.131151 -0.378412 -0.343180 -0.046692 -0.087781 -0.333426 0.123194 0.490366 -0.187558 0.540722 -0.142370 -0.054381 0.152521 0.160868 0.168269 0.072437 -0.207514 0.085924 -0.074702 -0.172436 -0.059368 -0.091838 -0.137254 -0.220339 0.533617
for -0.050647 -0.326788 -0.848438 -0.075883 -0.602992 -0.108686 0.098024 -0.338112 0.088058 0.500165 -0.067823 0.259885 -0.010106 -0.360537 -0.075481 0.422211 -0.272811 0.016012 0.210641 0.317326 -0.071901 -0.373423 0.133824 -0.208836 0.250272 -0.450649 -0.322473 -0.251192 -0.182491 -0.213520 -0.232765 0.100203 0.497690 0.085633 0.477393 0.063548 -0.163912 -0.359054 -0.089362 0.060134 -0.114026 -0.046680 0.082190 -0.433699 -0.462938 0.004689 -0.100509 -0.323163 -0.335883 0.632592
don't -0.173900 0.015193 -0.538442 -0.019487 -0.180004 -0.113465 0.196534 -0.475362 0.416808 0.040587 -0.079766 -0.121405 -0.037390 0.189873 0.395301 0.161974 -0.560955 0.096564 -0.027678 0.108369 -0.287468 -0.223766 0.595391 0.728839 -0.161430 0.039517 0.112668 -0.121564 -0.254220 -0.540941 -0.006469 0.439977 0.428348 0.041548 0.443270 0.330098 -0.653361 0.111069 -0.191373 -0.135378 0.023942 -0.148028 0.467154 -0.018907 0.033945 0.366219 -0.653911 -0.002873 -0.205241 0.715552
get -0.279892 -0.310660 -0.261063 -0.119353 -0.597076 -0.126852 -0.265463 -0.300975 0.268543 0.321226 0.003132 0.037884 0.018597 -0.707814 0.327651 0.387724 0.004575 -0.286938 0.052885 0.121765 -0.190756 -0.171564 0.582075 0.001312 0.521287 -0.033119 -0.133166 -0.176752 -0.294181 -0.071964 -0.211657 0.299851 0.503517 0.036827 0.391133 -0.004822 -0.262841 0.406333 -0.090887 0.007451 0.393201 -0.247153 -0.048300 0.030179 -0.560031 0.018998 0.023621 -0.186035 -0.461074 0.697626
And 0.005124 -0.230625 -0.636229 -0.126967 -0.582092 -0.121625 0.176098 -0.310895 0.472183 0.379544 0.093309 0.074059 -0.153399 0.048692 0.071689 0.348617 -0.286892 0.165846 0.154469 0.155441 0.000999 -0.339690 0.163481 -0.013091 0.083079 -0.125539 -0.019847 -0.150032 -0.201968 -0.268963 -0.273666 0.072175 0.422997 0.246940 0.279679 0.130487 -0.243514 -0.246515 -0.151977 -0.077729 -0.295160 -0.187684 0.201848 -0.433489 -0.179259 0.072150 -0.377835 -0.096343 -0.147376 0.617610
with -0.069102 -0.462773 -0.448014 -0.020630 -0.391313 0.043578 0.069213 -0.127885 0.385667 0.410333 0.102623 0.038126 -0.017927 -0.473545 0.207542 0.277584 -0.106416 -0.087225 0.134046 0.116077 0.168248 -0.275595 0.270149 -0.157307 0.384676 -0.276376 -0.231126 -0.046981 -0.182071 -0.111617 -0.235696 0.127511 0.478322 0.030949 0.270555 0.166624 0.126664 0.275608 -0.105182 0.180928 0.037281 -0.124698 -0.119339 -0.242182 -0.491816 0.151784 -0.178242 -0.155729 -0.321118 0.710448
do 0.022725 0.110628 -0.574370 0.164656 -0.409323 -0.203890 0.403709 -0.697233 0.266062 -0.179857 -0.225389 0.077236 -0.272289 -0.256678 0.163629 0.299592 -0.053974 -0.132279 -0.140458 0.426132 -0.347314 -0.333354 0.036523 0.115406 -0.222043 -0.137479 -0.063952 -0.321995 -0.194602 0.001746 -0.456128 0.035241 0.510707 -0.313207 0.253574 -0.028278 -0.343546 0.261482 -0.042587 0.069395 0.236870 -0.151022 0.035786 -0.321134 -0.212824 0.458056 -0.219586 -0.031050 -0.404925 0.576149
my -0.168469 -0.112800 -0.143172 -0.034826 0.010240 0.089522 -0.007930 0.110426 -0.024837 0.206389 0.073063 0.101687 0.032451 -0.128786 -0.246648 0.165622 0.019870 0.159676 0.185954 -0.293831 0.299322 -0.222438 -0.090232 -0.164761 0.256452 -0.350462 -0.157693 -0.055856 -0.242660 -0.123082 -0.064477 0.041341 0.269571 0.111757 0.107624 -0.126921 0.083981 0.002577 -0.180785 0.016197 -0.195653 -0.017009 0.213577 -0.479509 0.085240 -0.153123 -0.429189 0.140888 0.165020 0.315463
I'll -0.274795 -0.216167 -0.211621 -0.095709 -0.377159 -0.103408 -0.156927 -0.177191 0.017513 0.248846 0.000770 0.024792 -0.004158 -0.674620 0.307538 0.137124 -0.031887 -0.155099 0.157836 0.263771 -0.226933 -0.130759 0.393812 0.050151 0.464486 -0.085026 -0.109905 -0.215780 -0.250816 -0.057604 -0.194313 0.265883 0.376022 -0.043741 0.429772 -0.006851 -0.311666 0.215903 -0.060391 0.029457 0.429499 -0.237912 0.048837 0.113356 -0.358583 -0.019111 -0.049353 -0.299197 -0.359648 0.506024
all -0.079584 -0.258651 -0.565293 -0.188950 -0.488365 0.033719 -0.070746 -0.220784 0.001187 0.360687 0.085620 0.033844 -0.033727 -0.439834 -0.138848 0.266212 -0.149628 -0.030333 0.226784 0.105621 -0.125996 -0.079139 0.158177 0.025690 0.187068 -0.317502 -0.181933 -0.277245 -0.098478 -0.132776 -0.107937 -0.021593 0.353703 0.045791 0.300427 -0.007186 -0.228581 -0.054670 -0.093188 0.138094 0.222107 -0.146450 0.070673 -0.050304 -0.299997 -0.145804 -0.075935 -0.334157 -0.307398 0.381011
your -0.168386 -0.102682 -0.145698 0.012489 -0.172883 0.055293 -0.051705 0.023018 0.006218 0.218926 0.100025 0.133891 0.015877 -0.271068 -0.155549 0.220011 -0.000857 0.081664 0.217061 -0.033048 0.040570 -0.209100 0.142604 -0.121208 0.194549 -0.350037 -0.181038 -0.095613 -0.356464 -0.062457 -0.118308 0.088472 0.133252 0.118370 0.094376 -0.189021 0.028126 0.047278 -0.179074 -0.070606 0.141374 -0.008284 0.064020 -0.227226 -0.261669 -0.167316 -0.087999 0.043995 -0.126245 0.289593
be -0.135745 -0.374762 -0.460650 -0.104629 -0.345743 -0.003879 0.099283 -0.003433 0.330921 0.364554 0.077471 0.023816 -0.011626 -0.127008 0.069422 0.331485 -0.125169 -0.090059 0.114052 0.176865 -0.125682 -0.240196 0.071150 -0.082737 0.192702 -0.256445 -0.286234 -0.168670 -0.030885 -0.214285 -0.250222 0.171561 0.282598 0.139363 0.384938 0.024897 -0.083439 -0.155625 -0.088156 -0.020167 -0.051896 -0.109944 -0.035910 -0.334986 -0.325872 -0.075037 -0.008402 -0.150829 -0.196627 0.437247
Well, -0.181183 -0.130396 -0.352324 -0.021642 -0.145760 -0.095690 -0.012312 -0.253044 -0.080247 0.071736 0.128054 -0.039362 0.024322 -0.456868 -0.012440 0.166841 0.023741 -0.058343 -0.004073 0.068840 0.016337 -0.139633 0.187905 0.074322 0.069104 -0.235124 0.029268 -0.221252 -0.202882 -0.039666 -0.063383 0.072843 0.291635 -0.184813 0.171216 0.007594 -0.259422 0.054282 -0.123579 0.124772 0.197860 -0.204263 0.165902 0.047277 -0.295617 -0.125190 -0.147730 -0.165732 -0.322728 0.337863
you. -0.256528 -0.145829 -0.627729 -0.130114 -0.272443 -0.120171 0.114530 -0.266363 0.241181 0.163518 0.208181 -0.100052 0.133902 -0.295506 -0.021947 0.272672 -0.289524 0.049019 0.036473 0.070411 -0.045760 -0.321728 0.410051 0.201561 0.076250 -0.252691 -0.067466 -0.101550 -0.315710 -0.256517 -0.119515 0.151411 0.344645 0.117262 0.282584 0.159677 -0.359193 -0.238646 -0.192361 0.086681 0.201553 -0.136322 0.191343 -0.235998 -0.349456 -0.007241 -0.206114 -0.291741 -0.618530 0.465855
gonna -0.193780 -0.504144 -0.854352 -0.080111 -0.497846 -0.076121 0.396303 -0.275264 0.793478 0.365870 0.204406 -0.229023 -0.291053 0.086945 0.057831 0.287967 -0.229195 0.068838 -0.034768 0.341036 0.091544 -0.467184 -0.028997 0.076330 0.179240 -0.100066 0.090580 -0.170304 -0.218301 -0.481043 -0.277028 -0.081029 0.348798 0.187965 0.263352 0.259390 -0.002282 -0.114197 -0.104680 -0.244613 -0.181631 -0.195438 0.159341 -0.442172 -0.551050 0.100774 -0.368155 -0.089292 -0.280289 0.519403
on -0.080460 -0.408368 -0.338573 -0.116013 -0.621368 -0.041981 -0.199381 -0.114984 0.154152 0.465108 0.043116 0.249395 -0.028540 -0.467822 0.190113 0.485753 0.045546 -0.240032 0.238647 0.120939 -0.051215 -0.160441 0.168287 -0.315341 0.416610 -0.227310 -0.352054 -0.232885 -0.128534 0.031263 -0.262233 0.102441 0.402010 0.140418 0.310191 -0.132601 -0.015680 0.037341 -0.092826 0.020290 0.020837 -0.186310 -0.056359 -0.306603 -0.458606 -0.111509 0.093694 -0.144838 -0.103526 0.579171
this 0.021591 -0.187214 -0.516950 0.038348 -0.367344 -0.168853 0.118408 -0.344206 0.201674 0.208298 -0.118913 0.154380 -0.105007 -0.208054 0.093426 0.315307 -0.113723 -0.098295 0.024000 0.291097 -0.092085 -0.289034 0.059718 -0.106845 0.082023 -0.225217 -0.150364 -0.204939 -0.104953 -0.110288 -0.256493 0.121679 0.426310 -0.021816 0.295075 0.063624 -0.052387 0.010204 -0.005525 0.068424 -0.089216 -0.087508 0.028716 -0.256769 -0.259379 0.138092 -0.149220 0.006734 -0.165698 0.520427
know -0.030981 0.005354 -0.733120 -0.002107 -0.285801 -0.069387 0.338145 -0.556799 0.459811 0.128445 -0.192230 0.041007 -0.219315 0.258586 0.352048 0.149206 -0.558650 0.207151 -0.099547 0.186134 -0.214326 -0.341019 0.244677 0.527216 -0.126349 -0.048930 0.153550 -0.177565 -0.233629 -0.583180 -0.079255 0.173310 0.485199 0.043348 0.428003 0.403761 -0.399266 0.016378 -0.159184 -0.245264 -0.289930 -0.024823 0.432175 -0.169895 -0.073068 0.403496 -0.627020 -0.004852 -0.037185 0.594472
out 0.056771 -0.559288 -0.146407 -0.025485 -0.564979 0.165159 -0.247666 0.128188 0.282652 0.602114 -0.011228 0.280877 0.057618 -0.610704 0.245589 0.452089 0.142218 -0.231566 0.253667 0.014011 0.073457 -0.031088 0.278381 -0.444928 0.534525 -0.301097 -0.443773 -0.113239 0.001394 0.057818 -0.125175 0.147203 0.282034 -0.046741 0.366376 -0.154441 0.259543 0.435927 -0.157904 0.202832 0.144490 0.003377 -0.351130 -0.069484 -0.634103 0.012165 0.184894 -0.160955 -0.160139 0.653344
what -0.016978 0.016761 -0.520129 -0.005465 -0.186397 -0.099234 0.342799 -0.449765 0.385149 0.038043 -0.059407 -0.054435 -0.182903 0.246002 0.205471 0.045661 -0.463602 0.304235 -0.188024 0.163618 -0.104392 -0.262917 0.225648 0.495058 -0.202866 -0.115566 0.285955 -0.152437 -0.264927 -0.474327 -0.023564 0.132892 0.269522 0.028085 0.272728 0.282048 -0.418897 -0.094131 -0.247975 -0.201350 -0.149990 -0.078005 0.442457 -0.098622 -0.039476 0.301817 -0.518906 -0.028153 -0.133684 0.414138
go -0.043001 -0.322968 -0.125582 -0.092190 -0.463467 0.024050 -0.254535 -0.109381 0.042678 0.421359 -0.039202 0.164135 0.007414 -0.562560 0.218086 0.286916 -0.024009 -0.132928 0.175101 0.063656 -0.045439 -0.071562 0.348837 -0.128936 0.490688 -0.169756 -0.174879 -0.098757 -0.083534 -0.017405 -0.154893 0.165158 0.333879 -0.018908 0.282081 -0.001781 -0.035153 0.324038 -0.114987 0.039682 0.168701 -0.074526 -0.081267 0.035444 -0.398352 -0.044050 -0.013503 -0.182795 -0.176754 0.557416
is 0.067041 -0.127156 -0.401594 0.085516 -0.300939 -0.143653 0.179613 -0.173632 0.115304 0.165083 -0.092702 0.165823 -0.105904 -0.019105 -0.101912 0.309757 -0.056333 -0.025967 -0.046287 0.190846 -0.013290 -0.314207 -0.089256 -0.314740 -0.047344 -0.369054 -0.132987 -0.208639 -0.091106 -0.045533 -0.138795 0.072375 0.255313 -0.044035 0.240620 -0.121398 0.022290 -0.172210 -0.150380 -0.015281 -0.156816 -0.026287 0.027697 -0.407076 -0.191480 0.044054 -0.080840 0.111179 0.031052 0.345462
But 0.039161 -0.013943 -0.299909 0.008802 -0.273051 0.014140 0.032608 -0.106063 0.059394 0.150337 -0.127088 0.123815 -0.142878 0.090146 -0.004031 0.110848 -0.212199 0.029499 0.033471 0.024080 -0.029382 -0.097400 0.062003 -0.071375 0.107819 -0.133233 -0.144896 -0.080026 -0.097093 -0.085778 -0.230579 0.043388 0.258220 0.089246 0.227430 0.028961 -0.051789 -0.157449 -0.011467 -0.084743 -0.328525 -0.005561 0.092038 -0.285503 0.038203 -0.002565 -0.141594 0.066427 0.184082 0.285314
you're -0.079956 -0.250283 -0.522503 -0.055452 -0.291496 -0.143519 0.225407 -0.298805 0.442869 0.167317 0.151694 -0.161137 -0.074437 0.111580 0.007763 0.214344 -0.196421 0.074266 -0.047327 0.161456 0.033693 -0.251125 0.097903 0.142398 -0.047191 -0.061979 0.142856 -0.071484 -0.085657 -0.280387 -0.081871 0.025959 0.229808 0.159579 0.165642 0.176144 -0.203258 -0.216315 -0.107459 -0.114566 -0.062170 -0.212297 0.224013 -0.255212 -0.230234 0.121232 -0.239893 -0.092816 -0.220507 0.326083
What 0.117017 0.086145 -0.339330 0.180794 -0.327764 -0.202248 0.374491 -0.465275 0.132074 -0.182814 -0.162374 0.079450 -0.248173 -0.172276 0.016051 0.268088 0.080335 -0.161055 -0.194250 0.435106 -0.285546 -0.265690 -0.068325 -0.119902 -0.273838 -0.173903 -0.046369 -0.263070 -0.072986 0.100057 -0.353761 -0.006885 0.238723 -0.375839 0.108130 -0.173389 -0.161262 0.189828 -0.056312 0.076241 0.214976 -0.091109 -0.075965 -0.303541 -0.182720 0.312706 -0.025830 0.032181 -0.302607 0.383305
got -0.194218 -0.088520 -0.453440 -0.081803 -0.455625 -0.090030 0.043741 -0.235540 0.170331 0.210875 0.039215 0.107702 0.074546 -0.299708 0.201650 0.346230 -0.098819 -0.122503 0.013656 0.126293 -0.081067 -0.221513 0.126596 -0.163531 0.037581 -0.208609 -0.282626 -0.209308 -0.218146 0.061092 -0.126054 -0.011438 0.277364 -0.051756 0.145675 -0.160216 -0.251529 -0.197630 -0.153043 -0.094809 0.144537 0.005986 0.025836 -0.331570 -0.208324 0.038554 0.074840 -0.208406 -0.183754 0.344837
like 0.020480 -0.258871 -0.462019 -0.126209 -0.500875 0.045378 0.186675 -0.321208 0.453542 0.209042 0.100827 -0.015387 -0.000536 -0.142414 0.260406 0.421076 -0.258918 -0.038407 -0.011382 0.177925 -0.308702 -0.245753 0.141347 0.032702 -0.113675 -0.113396 -0.296152 -0.202047 -0.165897 -0.165147 -0.105718 0.178732 0.470645 -0.003120 0.399520 -0.086612 -0.433674 0.268723 -0.137028 -0.030538 0.219485 -0.160358 -0.006398 -0.267600 -0.287606 0.238217 -0.137205 -0.288436 -0.354908 0.685379
can 0.038291 -0.072064 -0.356060 -0.093537 -0.378402 -0.033579 0.108860 -0.345500 0.308187 0.146748 -0.122317 0.038909 -0.082826 -0.048469 0.293254 0.191254 -0.319274 0.106858 -0.024729 0.056682 -0.223417 -0.194893 0.121682 0.168141 0.056936 -0.085242 -0.054526 -0.067288 -0.162364 -0.191753 -0.131958 0.157454 0.390952 0.013375 0.319478 0.109740 -0.335618 0.102247 -0.145269 -0.081485 -0.042905 -0.107596 0.046329 -0.032647 -0.134269 0.167349 -0.221299 -0.083089 -0.098701 0.478008
it. -0.176432 0.000141 -0.228581 -0.000618 -0.137773 -0.048614 -0.057803 -0.289839 0.312745 0.060368 0.161161 -0.109367 0.110515 0.021999 0.162114 0.058951 -0.240445 0.158327 -0.122227 0.011049 0.060793 -0.233444 0.436241 0.311905 0.050262 0.102082 0.148254 0.110417 -0.219734 -0.303219 0.106646 0.122942 0.353576 0.039961 0.041243 0.293877 -0.118207 0.053683 -0.017661 -0.016339 -0.098502 -0.024219 0.171495 0.036850 -0.135650 0.104021 -0.383146 0.051758 -0.158762 0.331565
are -0.098816 0.044140 -0.314898 0.091770 -0.124604 -0.168094 0.364002 -0.273176 0.003537 -0.239436 -0.015217 -0.135118 -0.180625 -0.085501 -0.160379 0.128196 0.080186 -0.087692 -0.192826 0.266112 -0.063264 -0.182864 -0.102698 0.059895 -0.248009 -0.117516 0.221341 -0.220206 -0.083062 0.138204 -0.198362 -0.093434 0.061904 -0.270256 -0.046078 -0.055042 -0.107227 -0.007851 -0.024603 0.143046 0.272562 -0.171296 0.061445 -0.134998 -0.235161 0.130629 -0.024052 0.022561 -0.243107 0.180683
at 0.083258 -0.271075 -0.185485 -0.148041 -0.501667 0.088794 -0.179508 -0.053396 0.211457 0.350389 0.029737 0.081391 -0.028467 -0.417311 0.154561 0.312473 0.104329 -0.249634 0.179243 -0.016375 -0.199378 0.005572 0.096284 -0.333819 0.132066 0.002128 -0.327639 -0.177288 -0.051377 0.111649 -0.020492 0.060776 0.420160 0.136764 0.305693 -0.199051 -0.172825 0.399159 0.004516 0.052694 0.294422 -0.253470 -0.136488 -0.115990 -0.209763 0.052718 0.154623 -0.279792 -0.172195 0.482039
have 0.004711 -0.179776 -0.600420 -0.145753 -0.536353 -0.066823 0.179056 -0.336353 0.420929 0.309178 -0.091364 0.082011 -0.093732 -0.018239 0.334218 0.236355 -0.397261 0.034538 0.084012 0.204879 -0.189239 -0.235431 0.146396 0.122477 0.053123 -0.101615 -0.103934 -0.111516 -0.098849 -0.286610 -0.219906 0.085768 0.410005 0.127622 0.314035 0.040620 -0.352605 -0.009474 -0.091923 -0.131741 -0.081345 -0.163311 0.093523 -0.261332 -0.102767 0.207832 -0.278815 -0.199725 -0.119935 0.541884
me. -0.155684 -0.201782 -0.624198 -0.086846 -0.220752 0.020322 0.223585 -0.237594 0.300500 0.308077 -0.028370 0.003485 -0.053534 -0.115380 0.135134 0.129692 -0.422555 0.068201 0.062468 0.158067 0.013513 -0.315693 0.195240 0.233212 0.232875 -0.146356 -0.108819 -0.007509 -0.180103 -0.372258 -0.194521 0.065420 0.378363 0.085621 0.247763 0.232362 -0.154372 -0.105700 -0.083859 -0.065726 -0.161414 0.010054 0.167177 -0.261381 -0.179287 0.086805 -0.384539 -0.232622 -0.222357 0.451863
All -0.361399 0.025937 0.015633 -0.154905 0.120017 -0.038277 -0.376321 0.031821 -0.406802 -0.022582 0.327745 -0.328489 0.111084 -0.802340 -0.452151 -0.049514 0.392372 -0.261944 0.198671 -0.180761 0.077723 0.362278 0.356067 0.143505 0.128402 -0.098621 0.143802 -0.178897 -0.023489 0.282012 -0.017672 -0.126183 -0.039862 0.009700 -0.144923 -0.056355 -0.156781 0.118916 0.014514 0.493665 0.802851 -0.251729 0.096030 0.460703 -0.087971 -0.416117 0.027704 -0.243369 -0.543584 -0.140231
Come -0.439663 0.100107 0.614057 -0.113519 0.002545 -0.147353 -0.521154 0.060762 -0.320600 -0.292177 0.046027 -0.211885 0.192690 -0.568956 -0.232216 0.094747 0.552238 -0.525490 -0.229742 -0.154000 -0.068921 0.407354 0.446267 -0.136741 0.301944 0.290057 0.201206 -0.081713 0.011014 0.477583 -0.128940 0.015651 -0.318808 0.168326 -0.400894 -0.286416 0.030998 0.199400 0.145764 0.094230 0.417285 -0.111197 -0.250681 0.268498 -0.160789 -0.331016 0.661019 -0.017204 -0.414058 -0.428872
see -0.160932 -0.024492 -0.490874 -0.063613 -0.237836 -0.144883 0.239045 -0.324782 0.333375 0.035142 0.053111 -0.059737 -0.064155 -0.055444 0.201079 0.130010 -0.364616 0.151729 -0.047301 0.132183 -0.170205 -0.278195 0.268884 0.372561 -0.040895 -0.130460 -0.000845 -0.130116 -0.297597 -0.304218 -0.137138 0.167207 0.283928 0.089297 0.331627 0.087292 -0.481450 -0.101931 -0.242643 -0.107897 0.146812 -0.164760 0.267640 -0.175602 -0.108447 0.140543 -0.337403 -0.195591 -0.371023 0.451609
ain't -0.058938 -0.053747 -0.318730 -0.094395 -0.247798 -0.086826 0.001987 -0.241482 0.259258 0.128032 0.021429 0.108180 0.045499 0.006723 0.112216 0.207301 -0.195959 -0.004163 -0.099642 -0.013439 -0.013947 -0.225061 0.091560 -0.100921 -0.014902 -0.104522 -0.149521 -0.021304 -0.089099 -0.186498 -0.025066 0.036227 0.274424 0.012662 0.205815 0.016835 -0.108661 -0.170100 -0.057756 -0.064358 -0.123888 0.008784 0.053337 -0.288281 -0.088071 0.012596 -0.125263 -0.055744 0.007739 0.262297
little -0.019734 -0.043461 -0.112205 -0.092960 -0.403858 -0.065034 -0.002808 -0.066101 0.189548 0.083559 0.157065 0.035367 0.064788 -0.126510 0.010023 0.291298 0.050271 -0.048394 -0.008163 0.008115 -0.264667 -0.117819 0.014248 -0.173083 -0.068806 -0.058241 -0.279195 -0.073184 -0.042097 0.065730 0.034753 0.040479 0.119568 0.095758 0.137983 -0.233950 -0.140513 -0.125008 -0.130949 -0.010041 0.206562 -0.036908 -0.138807 -0.165270 -0.193339 -0.025339 0.353060 -0.120021 -0.150771 0.144890
Eddie. -0.278959 0.200829 -0.067908 -0.004317 0.407034 -0.155150 0.060782 -0.186482 -0.026670 -0.399780 0.324277 -0.378934 0.229298 -0.006255 -0.122710 -0.068025 -0.163633 0.053736 -0.142072 -0.138857 0.015839 -0.010203 0.372326 0.509709 -0.339768 0.107583 0.378528 0.159245 -0.150892 0.053466 0.157882 0.109580 -0.065130 -0.078028 -0.256168 0.287611 -0.473740 -0.262005 -0.010136 0.247533 0.316481 -0.122384 0.270833 0.176067 -0.005663 -0.075112 -0.178681 -0.104207 -0.593282 -0.142784
just -0.037365 -0.197363 -0.351951 -0.128222 -0.365435 -0.031359 0.027216 -0.140637 0.288682 0.151738 0.160517 -0.034364 0.038526 -0.120656 -0.022225 0.299773 -0.114302 -0.044972 -0.011094 0.099746 -0.169884 -0.173490 0.030275 -0.143539 -0.104751 -0.114474 -0.217622 -0.137163 -0.076080 -0.129607 -0.062895 0.029894 0.216088 0.156636 0.276984 -0.133928 -0.289970 -0.083882 -0.120997 -0.092842 0.100944 -0.155501 -0.028971 -0.219379 -0.198134 0.013140 0.049358 -0.207018 -0.302785 0.312546
not -0.285377 -0.240883 -0.640066 -0.070514 -0.180378 -0.060965 0.308365 -0.188482 0.543730 0.162469 0.202832 -0.214716 -0.149846 0.144104 -0.053870 0.165276 -0.264362 0.120373 -0.115826 0.131905 0.111459 -0.395313 0.033053 0.218049 0.072783 -0.055301 0.093621 -0.029984 -0.212554 -0.434090 -0.080193 -0.079881 0.238190 0.151797 0.135426 0.281629 -0.027888 -0.181963 -0.127798 -0.201072 -0.134718 -0.083526 0.212058 -0.268412 -0.335949 0.012855 -0.348543 -0.043013 -0.255797 0.304888
you? -0.338464 0.069209 -0.183158 0.036770 0.126243 -0.187822 0.192760 -0.156171 -0.098218 -0.378908 0.206496 -0.315283 0.012569 -0.311886 -0.088187 0.063165 0.076799 -0.144870 -0.189571 0.146677 -0.052300 -0.063834 0.220999 0.241352 -0.245007 -0.049392 0.208814 -0.163895 -0.231849 0.170271 -0.055091 0.060438 0.068034 -0.246995 -0.051042 -0.052794 -0.404699 0.121169 -0.051456 0.240257 0.582380 -0.330155 0.168153 0.047268 -0.201576 -0.013626 -0.094401 -0.102571 -0.530316 0.179761
we 0.061119 -0.081046 -0.408131 0.045970 -0.398277 -0.139351 0.216113 -0.383285 0.232817 0.083405 -0.246683 0.094678 -0.293463 0.014805 0.084548 0.182741 -0.097924 -0.064940 -0.034157 0.199316 -0.080098 -0.206475 -0.069531 -0.014375 0.014131 -0.078547 0.073127 -0.137838 -0.037562 -0.021833 -0.315620 -0.044252 0.304074 -0.091453 0.196742 0.108119 -0.036115 -0.024011 0.013088 -0.051948 -0.075482 -0.079092 -0.011588 -0.286657 -0.162045 0.262933 -0.092802 0.054940 0.053490 0.334335
Yes, -0.391562 0.213755 -0.001607 0.065187 0.322206 -0.024297 -0.077758 0.105243 -0.095708 -0.357488 0.444536 -0.283484 0.042641 -0.281466 -0.120884 -0.029600 0.373600 -0.051397 0.071396 0.009293 0.038243 -0.054164 0.130196 0.170484 -0.009362 0.034694 0.005863 -0.073847 -0.362301 0.156240 -0.191076 -0.112865 -0.235808 -0.040675 -0.141525 -0.143431 -0.239020 -0.100894 -0.108097 0.119266 0.337989 -0.220310 0.148017 0.172642 -0.007918 -0.273915 -0.028112 0.068048 -0.433207 -0.141785
That's -0.212066 -0.138173 -0.210417 -0.043297 -0.213879 -0.026388 -0.111935 -0.045217 0.196527 0.079047 0.315474 -0.107417 0.046878 -0.064727 -0.085059 0.235193 0.109977 -0.071835 -0.056073 0.033434 0.108796 -0.091150 0.137903 -0.136569 0.011869 -0.021595 -0.031918 -0.015141 -0.100040 -0.037174 0.030074 -0.081916 0.122962 0.126121 -0.047642 -0.097495 0.002483 -0.098794 -0.022749 0.033978 -0.003700 -0.111026 0.030228 -0.188579 -0.240707 -0.093651 -0.000431 -0.053092 -0.156339 0.108295
let 0.042155 -0.020319 -0.317034 -0.175810 -0.208515 -0.013166 0.102178 -0.330175 0.139012 0.049234 -0.018328 -0.030289 -0.001915 -0.265200 0.430600 -0.034257 -0.411504 -0.052145 0.034555 0.045961 -0.316853 0.003927 0.306173 0.246248 -0.025966 0.233639 -0.188186 -0.167396 -0.141530 -0.241442 -0.076734 0.163968 0.461082 -0.063747 0.380742 0.060973 -0.598875 0.538957 -0.050615 -0.001598 0.426300 -0.374601 0.136977 0.079618 0.181546 0.180726 -0.389943 -0.360058 -0.307507 0.599819
will -0.204856 -0.056886 -0.234529 -0.011638 -0.058796 -0.123533 0.140347 -0.169160 0.036736 -0.136394 0.084004 -0.136294 -0.003045 -0.317126 0.172012 0.110168 -0.024938 -0.078990 -0.089179 0.184969 -0.151543 -0.080753 0.237580 0.224454 -0.070430 -0.055068 0.039020 -0.177854 -0.227239 0.004687 -0.053575 0.149736 0.207136 -0.168538 0.166341 -0.013229 -0.399225 0.197255 -0.078717 0.107032 0.368338 -0.275708 0.130719 0.014163 -0.229252 0.036513 -0.145720 -0.159095 -0.398548 0.326943
It's -0.290831 0.035797 -0.153112 -0.023936 -0.040506 -0.149921 -0.053177 0.003490 0.065871 -0.083229 0.245459 -0.138652 0.045723 -0.191147 -0.225470 0.200675 0.186194 -0.165609 -0.039632 -0.031865 -0.026243 -0.146792 0.025579 -0.237782 -0.132584 -0.115297 -0.092163 -0.043046 -0.163201 0.081635 -0.094816 0.017235 0.005690 0.112971 0.004715 -0.221116 -0.167460 -0.162084 -0.084959 0.020069 0.224173 -0.118331 0.033049 -0.173673 -0.199142 -0.218525 0.129164 -0.057961 -0.335597 0.088892
Mr. -0.041902 0.175255 0.438609 0.170853 0.290101 -0.185979 -0.054999 -0.012491 -0.296410 -0.050342 0.091773 -0.121516 0.112032 -0.107327 -0.002683 -0.428354 0.114845 0.242541 0.031062 -0.047020 -0.028336 0.326359 0.069003 0.308391 -0.099261 0.122967 -0.013539 0.178441 0.082933 0.368815 0.092131 0.122404 -0.159233 -0.060904 -0.225435 0.209572 0.013646 0.116780 0.347081 0.309627 0.393965 -0.061063 0.052122 0.569761 0.379719 -0.059096 0.041480 -0.121467 -0.166578 -0.275195
Queenie. -0.339581 0.164346 -0.043409 -0.096321 0.076379 -0.181772 -0.121078 -0.272495 0.030550 -0.230582 0.172096 -0.211536 0.235437 -0.171503 -0.086900 0.040061 -0.186200 -0.038894 -0.208213 -0.120723 -0.063723 -0.008964 0.496745 0.435647 -0.026947 0.122593 0.241794 0.102194 -0.148620 -0.079661 0.078552 0.125144 0.057453 0.009249 -0.084310 0.147625 -0.433472 -0.080614 -0.074511 0.049212 0.324210 -0.083761 0.181792 0.193168 -0.080037 -0.121871 -0.111472 -0.112666 -0.489699 0.021606
can't -0.187154 0.097231 -0.186666 -0.060322 -0.104608 -0.106616 -0.094200 -0.385218 0.200660 -0.073858 0.034823 -0.089664 0.175998 -0.176183 0.217839 0.080503 -0.271496 0.041151 -0.178354 -0.071145 -0.124647 -0.162076 0.467648 0.443006 0.044114 0.098974 0.123147 0.056696 -0.197552 -0.269192 0.044867 0.178393 0.309285 -0.055965 0.132473 0.203198 -0.390749 0.114153 -0.057738 -0.031581 0.144327 -0.067648 0.177428 0.131892 -0.110588 0.078663 -0.254070 -0.061612 -0.308648 0.269926
give 0.005112 -0.326742 -0.336129 -0.014840 -0.542120 -0.054722 0.002083 -0.126853 0.172780 0.259623 -0.090013 0.217342 -0.064749 -0.415447 0.247107 0.295049 0.000308 -0.167253 0.140498 0.312498 -0.267147 -0.080902 0.026165 -0.285929 0.155619 -0.061737 -0.359918 -0.333091 -0.083786 0.022426 -0.102889 0.114904 0.350948 -0.050143 0.395281 -0.238044 -0.200691 0.195928 -0.035220 0.005197 0.301777 -0.257326 -0.106282 -0.186800 -0.262989 0.109609 0.053136 -0.263832 -0.177846 0.510734
but 0.021231 0.007711 -0.166989 -0.110209 -0.213476 -0.089161 0.067363 -0.155641 0.180133 0.046765 0.093859 0.013084 0.021239 0.145901 0.001892 0.135722 -0.175273 0.130119 -0.126858 -0.101664 -0.136215 -0.105542 -0.004289 0.150585 -0.034111 -0.093231 -0.072098 0.051969 -0.035432 -0.135601 0.095796 -0.000337 0.248008 0.033585 0.113296 0.077235 -0.185570 -0.113682 -0.092559 -0.009110 0.050600 -0.070193 0.031400 -0.113717 -0.084647 0.032442 0.051082 -0.143715 -0.071151 0.098683
right. -0.323375 0.016150 -0.094177 -0.133894 0.071101 -0.024971 -0.247612 -0.026942 -0.322193 -0.008064 0.299893 -0.308019 0.085159 -0.653637 -0.379921 -0.066418 0.229855 -0.163995 0.172206 -0.092583 0.024947 0.272582 0.299121 0.216784 0.077398 -0.124479 0.149264 -0.172205 -0.051537 0.177301 -0.018224 -0.102880 -0.000374 -0.016110 -0.088945 0.006591 -0.220377 0.004574 -0.004254 0.404099 0.646265 -0.208605 0.121254 0.383247 -0.114448 -0.349049 0.000733 -0.271997 -0.516705 -0.109746
Say, 0.053134 -0.017035 -0.072941 0.025926 -0.222216 -0.059826 0.090537 -0.067707 0.055793 -0.029858 -0.055077 0.038282 -0.014317 0.023212 0.099733 0.142805 0.006589 -0.061736 -0.042776 0.065190 -0.088348 -0.006018 -0.100846 -0.078085 -0.093143 -0.080353 -0.062342 -0.127137 0.005534 0.106602 -0.038666 -0.039680 0.038217 0.008934 0.013668 -0.113250 -0.021443 -0.038647 -0.026411 -0.083069 0.016062 0.004031 -0.065070 -0.158548 -0.052084 0.093315 0.104421 -0.063694 0.053485 0.045601
me, 0.056584 -0.066521 0.021365 0.033858 -0.004995 -0.105515 0.004191 -0.074188 -0.111693 0.168803 -0.082147 0.083882 -0.025873 -0.092865 0.205388 -0.240449 -0.121039 0.097551 0.121307 0.138005 -0.181740 0.123460 0.093491 0.215301 0.078693 0.102787 -0.193683 0.043142 0.044077 0.112121 -0.030944 0.208254 0.094898 -0.058079 0.169364 0.123549 -0.161123 0.153733 0.171455 0.142887 0.182657 -0.135995 0.075215 0.299547 0.258999 0.144713 -0.066267 -0.231456 -0.087394 0.208271
you, 0.012140 0.255385 0.151667 -0.129041 0.182543 -0.078139 -0.068123 -0.184857 -0.004381 -0.093619 0.001909 0.043357 0.247962 0.292354 0.005205 -0.132659 -0.398176 0.351007 -0.141766 -0.254368 -0.061113 0.039950 0.230682 0.384306 -0.166703 0.225743 0.234420 0.304166 0.025875 -0.161478 0.194840 0.122316 0.057031 0.040682 -0.101261 0.398888 -0.237937 -0.203451 0.006827 0.088115 -0.178647 0.112625 0.143596 0.318158 0.250636 -0.029752 -0.224213 0.014066 -0.068878 -0.067436
Don't -0.159290 -0.015445 -0.280606 0.052029 0.016224 -0.047503 0.156618 -0.142760 0.170223 -0.073114 0.111168 -0.143959 -0.009871 -0.100233 0.082281 0.084682 -0.030525 -0.099372 0.027364 0.105959 -0.122485 -0.084297 0.095631 0.180215 -0.170197 0.004218 -0.094030 -0.127770 -0.089208 -0.026059 -0.153837 0.086466 0.152743 -0.003275 0.105403 -0.000850 -0.273584 0.092418 -0.033423 0.056938 0.250078 -0.090026 0.106704 -0.076708 -0.029921 0.114932 -0.174243 -0.094387 -0.296347 0.255938
Hank. -0.414294 0.058357 -0.078017 0.065087 0.387715 -0.206816 0.004845 -0.008910 -0.062732 -0.288812 0.308463 -0.426137 0.157442 -0.080703 -0.205953 -0.081908 0.071425 -0.177608 -0.075141 -0.092343 0.126512 -0.015124 0.281894 0.308870 -0.146654 0.092448 0.229579 0.039985 -0.084381 0.035574 0.045703 0.099155 -0.127227 -0.015987 -0.149319 0.086846 -0.293610 -0.166189 -0.021628 0.146296 0.382783 -0.177640 0.259141 0.183393 -0.004548 -0.146063 -0.150835 -0.032546 -0.409937 -0.058816
I've -0.143392 -0.005277 -0.307780 -0.034158 -0.154459 -0.055182 0.095770 -0.117806 -0.047064 0.115794 -0.062197 0.038617 0.053126 -0.150434 0.089034 0.100390 -0.110184 -0.046530 0.045354 0.088406 0.019413 -0.129888 0.028650 -0.047638 0.033507 -0.143480 -0.097033 -0.135422 -0.140841 0.078663 -0.094943 -0.066822 0.104348 -0.085530 -0.005269 -0.035287 -0.116278 -0.196783 -0.079916 -0.085295 0.066633 0.064682 0.070493 -0.196635 -0.038285 0.017794 -0.000571 -0.140685 -0.053211 0.098405
You're -0.085133 0.075545 -0.121367 0.000222 0.213968 0.047174 0.194445 0.063726 0.242833 -0.129189 0.182940 -0.190091 -0.114559 0.027796 0.049946 -0.207971 0.029520 0.058530 0.005994 0.047972 0.140869 -0.123648 -0.112228 0.220358 -0.041711 0.182767 0.078531 0.133480 -0.115435 -0.141101 -0.018227 -0.276074 -0.196046 0.036601 -0.114178 0.067113 0.080607 -0.111323 -0.028110 -0.127950 -0.086287 0.078850 0.014987 0.026352 0.000172 -0.019515 -0.128338 0.044239 -0.146047 -0.247079
about 0.025724 -0.035267 -0.366184 -0.011482 -0.178440 -0.031686 0.184382 -0.245181 0.107514 0.042604 -0.005423 -0.016494 -0.062240 -0.081148 0.009427 0.134122 -0.177559 0.047226 -0.044103 0.140402 -0.126115 -0.245880 0.052278 0.142371 -0.067524 -0.148580 0.023027 -0.123430 -0.142028 -0.157628 -0.029437 0.068827 0.255985 -0.053613 0.177409 0.092549 -0.152076 0.012079 -0.069978 -0.010520 -0.000748 -0.025118 0.131051 -0.085181 -0.149061 0.158493 -0.148401 -0.054581 -0.201847 0.246614
as 0.143370 0.011096 0.079038 -0.091806 -0.130816 0.020709 0.058972 0.086017 0.121849 -0.094088 -0.092065 -0.138375 -0.088906 0.231283 -0.026485 0.125947 0.106832 0.027188 -0.193269 -0.080092 -0.148754 -0.011176 -0.453866 -0.394981 -0.218775 0.069949 -0.139449 0.095511 0.147240 0.192087 -0.060714 -0.023546 -0.045937 0.175914 0.044740 -0.266639 -0.045801 -0.059155 -0.122806 -0.106574 -0.153008 -0.036113 -0.218141 -0.031472 -0.010154 -0.026167 0.178917 0.044612 0.191328 0.077545
if 0.071887 0.053819 -0.206862 -0.002784 -0.157453 -0.078782 0.204306 -0.316857 0.183712 -0.074534 -0.084853 0.029747 -0.080222 0.074230 0.254654 0.034173 -0.291369 0.167684 -0.136764 0.083246 -0.166213 -0.108348 0.034955 0.278153 -0.146905 -0.043450 0.083605 -0.100472 -0.132817 -0.222711 0.007937 0.094656 0.198920 -0.115914 0.190048 0.100474 -0.309403 0.063941 -0.142648 -0.134601 -0.036074 -0.033453 0.131674 -0.003200 -0.001478 0.178983 -0.225067 -0.053590 -0.051644 0.247196
so -0.046818 -0.107319 -0.058263 -0.060074 0.082218 0.039514 0.000817 0.042674 -0.043500 0.004938 0.059178 -0.059768 0.011561 0.058380 -0.105273 0.031391 -0.046224 0.041487 0.002760 -0.042504 0.097969 -0.003592 -0.052248 0.049515 0.068220 0.042185 0.060435 0.087045 0.115344 -0.053915 0.007033 -0.022732 0.094528 0.031410 -0.150248 0.166563 0.055563 -0.087283 0.017219 0.027183 -0.131387 0.002279 0.127026 -0.068589 -0.054723 -0.061048 -0.123611 -0.048878 0.052820 -0.022639
Queenie, -0.236327 0.051343 -0.143300 -0.040391 0.146676 -0.113341 0.082899 -0.148954 0.044737 -0.190823 0.086532 -0.198673 0.099529 -0.058340 0.006669 -0.008726 -0.174210 -0.031403 -0.115881 0.016431 -0.047825 -0.048456 0.319032 0.386403 -0.079218 0.038865 0.145230 -0.027924 -0.142942 -0.178350 0.017718 0.133062 0.074904 -0.059807 0.063307 0.102299 -0.376434 0.010865 -0.075367 -0.003082 0.232211 -0.172567 0.189160 0.060950 -0.056487 -0.004191 -0.243733 -0.090321 -0.352182 0.136569
her 0.156838 -0.104132 -0.095635 -0.072312 -0.161577 0.105727 0.012380 0.017858 0.005367 0.231028 -0.177454 0.223668 -0.069929 0.142578 0.097721 -0.017192 -0.287774 0.097309 0.054278 -0.036172 -0.018044 -0.064284 -0.085153 -0.082508 0.160639 -0.078694 -0.171597 0.071856 0.073900 -0.198408 0.019824 0.060537 0.182949 0.067623 0.186408 0.136976 0.075828 -0.107264 0.034342 -0.095387 -0.346902 0.092210 -0.023831 -0.107516 0.074851 0.047649 -0.089752 -0.049965 0.283042 0.135042
over 0.051768 -0.117482 -0.266515 0.000299 -0.179580 -0.051321 -0.187473 -0.048589 -0.202522 0.229671 -0.141066 0.245544 -0.001687 -0.311992 -0.051393 0.139553 0.119505 -0.215052 0.175403 0.204868 -0.007456 -0.046552 -0.033360 -0.254357 0.258609 -0.172411 -0.268822 -0.173865 0.069136 -0.032233 -0.164222 0.002114 0.175977 0.006069 0.257656 -0.095447 0.125819 -0.072974 0.135231 0.081843 -0.078238 -0.028420 -0.035572 -0.105315 -0.128271 -0.113456 0.111331 -0.068156 0.002823 0.165136
that. 0.043205 0.022925 -0.348666 -0.011818 -0.264101 0.004533 0.092456 -0.298495 0.222125 0.061849 -0.103924 0.040660 -0.099684 -0.110078 0.238557 0.164011 -0.129735 -0.048202 0.008175 0.112883 -0.182598 -0.129168 0.134239 0.078334 -0.067599 -0.000154 -0.078443 -0.177369 -0.122125 -0.113255 -0.135737 0.044237 0.376105 0.005214 0.222325 0.059632 -0.223579 0.273262 -0.022930 -0.066522 0.023943 -0.065243 0.086617 -0.118060 -0.080725 0.272584 -0.169655 -0.103163 -0.158142 0.371228
them 0.070851 -0.148492 0.012475 -0.062527 -0.194905 0.060867 -0.187020 0.117332 -0.002946 0.279313 -0.074129 0.271855 -0.050082 -0.049784 0.077978 0.128973 -0.027133 -0.066034 0.191718 -0.007041 -0.038612 0.061291 -0.040165 -0.153048 0.261642 -0.094609 -0.190787 0.009636 0.050413 -0.033811 0.018413 0.044038 0.029056 0.102102 0.114464 -0.027295 0.146035 -0.031159 0.032601 0.006656 -0.101090 0.018828 -0.049038 -0.031287 -0.058789 -0.082134 0.124912 -0.021032 0.151923 0.075556
want -0.049598 -0.024408 -0.406708 -0.117731 -0.228947 -0.008702 0.206837 -0.364242 0.312671 0.121604 -0.128006 0.035052 -0.081497 0.142370 0.366168 0.073413 -0.566349 0.205554 -0.016717 0.033862 -0.152721 -0.214711 0.283513 0.479454 0.024272 -0.053404 0.020357 0.018349 -0.167670 -0.413514 -0.067601 0.229012 0.429694 0.063513 0.311478 0.304787 -0.383890 0.087960 -0.140888 -0.112438 -0.151620 -0.061957 0.248309 -0.114971 0.091040 0.273384 -0.540606 -0.118968 -0.059968 0.538545
The 0.037516 0.058702 0.120022 0.097870 0.152748 0.018448 0.095215 0.116352 -0.232578 -0.097292 0.043881 0.070877 0.076526 0.023385 -0.066867 -0.051066 0.165218 -0.014793 0.088830 -0.007689 0.010702 0.097903 -0.127244 -0.108317 -0.105469 0.038997 0.034682 -0.055440 0.132895 0.146218 0.064352 -0.059900 -0.179195 -0.081074 -0.086781 -0.052583 0.193222 -0.217344 -0.000201 0.105751 -0.032441 0.106772 -0.068189 0.005870 0.053509 0.003995 0.204158 0.081267 0.174688 -0.232885
take -0.019959 -0.138543 -0.138485 -0.105644 -0.252564 0.047372 0.035506 -0.067760 0.205529 0.182027 -0.045503 0.002393 -0.099899 -0.101250 0.202226 0.103596 -0.154492 -0.014637 0.109360 0.136290 -0.173053 -0.082463 0.037836 0.008496 0.143413 -0.034214 -0.128895 -0.043738 -0.084030 -0.091150 -0.125720 0.109424 0.186650 0.094842 0.215686 -0.027334 -0.114474 0.147438 -0.063817 -0.091413 0.126514 -0.065234 -0.022180 -0.093396 -0.075844 0.075804 -0.076162 -0.108370 -0.009737 0.250449
Hank, -0.272011 -0.074903 -0.264713 -0.009682 -0.003301 -0.175433 0.062599 -0.218903 0.024099 -0.102769 0.093565 -0.184507 0.011798 -0.230410 -0.004845 0.079889 0.001601 -0.091859 -0.054604 0.075375 -0.008335 -0.090399 0.251364 0.235807 0.013185 -0.042932 0.173277 -0.066331 -0.132493 -0.026821 -0.054795 0.105839 0.118094 -0.064667 0.047992 0.111084 -0.327839 -0.047470 -0.055285 0.070434 0.280145 -0.260686 0.193365 0.035978 -0.195265 -0.000903 -0.113765 -0.101090 -0.349414 0.160636
was 0.201482 -0.118329 -0.166583 -0.014040 -0.277827 0.029842 0.024093 -0.089928 0.051134 0.260693 -0.180990 0.267293 -0.116187 0.191606 -0.005504 0.143221 -0.207443 0.061893 0.021515 0.001015 -0.013680 -0.070283 -0.106266 -0.155484 0.092183 -0.107990 -0.174545 0.021897 0.107338 -0.138317 -0.044413 -0.022459 0.228570 0.022776 0.184039 0.075890 0.130506 -0.135317 0.036203 -0.064044 -0.465393 0.104589 -0.055271 -0.248441 0.068074 0.054306 -0.077627 0.055418 0.310930 0.182795
No, -0.306987 0.025630 -0.144282 0.009196 0.266267 -0.114688 0.031275 -0.034614 -0.009146 -0.170134 0.322449 -0.307259 0.093836 -0.186338 -0.196397 -0.041901 0.067565 -0.037159 -0.023815 -0.065512 0.108026 -0.114026 0.139347 0.199376 -0.011235 0.001810 0.175145 -0.025032 -0.202806 -0.010205 -0.009109 -0.004340 0.021363 0.039051 -0.084329 0.119756 -0.166207 -0.017806 -0.045407 0.073822 0.236480 -0.169810 0.180476 0.112558 -0.113245 -0.188040 -0.149147 -0.009167 -0.417668 0.017204
from 0.158120 0.013725 -0.006355 0.038211 -0.033806 0.067869 0.118846 -0.081678 0.028735 0.034008 -0.167092 0.144954 -0.061475 0.063226 0.259417 -0.099269 -0.098910 0.088119 0.015341 0.106096 -0.120772 0.036761 -0.116208 0.071930 -0.017219 0.021735 -0.040424 -0.009215 0.001873 -0.063047 0.040026 0.019147 -0.018229 -0.154212 0.082499 0.019927 -0.020036 0.113305 0.017276 -0.041465 -0.112333 0.047379 -0.059079 0.045807 0.058755 0.168003 -0.029829 -0.010818 0.129654 0.025860
tell 0.214638 -0.029837 -0.082454 -0.157463 -0.178923 0.098369 0.086353 -0.090834 0.101258 0.185961 -0.232446 0.207456 -0.071209 0.145780 0.390132 -0.178352 -0.452068 0.139807 0.078050 0.074075 -0.228985 0.121982 0.058488 0.196859 0.000603 0.187723 -0.178002 0.044845 0.068028 -0.192939 -0.035464 0.166345 0.216599 -0.047468 0.225332 0.107595 -0.284856 0.328119 -0.032619 -0.033126 -0.014229 -0.089881 0.030366 0.163040 0.345107 0.268815 -0.258098 -0.213359 0.112825 0.369796
that's 0.000672 0.135164 0.083481 0.051884 0.168891 -0.011712 0.049661 0.002319 -0.095141 -0.212789 0.149380 -0.150215 -0.066763 0.054691 -0.119437 -0.201096 0.078731 0.159525 -0.068154 0.006679 0.032066 0.051330 -0.039276 0.176905 -0.187310 0.008375 0.317952 -0.094981 -0.182772 0.013939 0.014881 -0.083092 -0.168889 -0.029662 -0.107765 -0.001036 -0.120744 -0.055219 -0.092222 0.005233 0.047243 -0.053902 0.177937 0.119871 0.074882 -0.043372 -0.047115 0.040511 -0.072397 -0.211801
when 0.102742 -0.111251 -0.253893 -0.045683 -0.336864 0.008286 0.106792 -0.196809 0.140035 0.242562 -0.125445 0.166048 -0.131991 0.046026 0.168563 0.140642 -0.112715 0.110410 0.148209 0.084830 -0.030881 -0.073658 -0.004839 0.024661 0.066542 -0.050576 -0.035919 -0.130473 -0.064138 -0.130273 -0.127138 0.018498 0.246414 0.029228 0.181655 -0.006668 -0.102694 0.070972 -0.075216 -0.036754 -0.157105 -0.119527 0.059006 -0.196221 0.054194 0.154582 -0.273799 -0.007626 0.124573 0.347092
won't 0.059875 0.072934 -0.134864 -0.096587 -0.005137 0.032594 0.110946 -0.235771 0.064219 -0.006308 -0.073456 -0.014527 0.029225 -0.060191 0.372742 -0.123822 -0.437493 0.077300 -0.028647 -0.045474 -0.178809 0.003829 0.237731 0.328817 0.006171 0.188704 -0.047846 -0.000852 -0.088224 -0.248309 0.020874 0.110313 0.293216 -0.076571 0.215013 0.172801 -0.390697 0.368107 -0.034811 -0.052017 0.164287 -0.156913 0.136313 0.115230 0.205034 0.153830 -0.368366 -0.210058 -0.099045 0.346504
Hello, -0.398582 0.297521 0.194520 0.092600 0.666138 -0.182727 -0.046119 0.036870 -0.296041 -0.590466 0.449179 -0.497454 0.240095 -0.169435 -0.331769 -0.157346 0.212988 -0.147347 -0.106877 -0.171976 0.134839 0.129251 0.341905 0.316548 -0.345680 0.134690 0.458251 0.132183 -0.165673 0.319310 0.169395 0.014219 -0.357562 -0.123982 -0.505264 0.091985 -0.284691 -0.230715 0.058804 0.339306 0.487594 -0.123237 0.191446 0.219710 -0.028385 -0.257419 0.064481 -0.032530 -0.667301 -0.460077
an 0.004378 -0.121853 -0.069051 -0.021635 -0.143737 0.067067 -0.050526 0.090186 0.112181 0.099792 0.127494 0.015449 0.048005 -0.007867 -0.049290 0.169390 0.086634 -0.032556 0.044113 0.011377 0.054678 -0.050891 -0.071534 -0.227301 0.003611 -0.069932 -0.133078 -0.108265 -0.024116 0.018420 -0.007411 -0.108675 -0.045718 0.091417 0.026214 -0.143392 0.053185 -0.073115 -0.062964 -0.069285 -0.066465 0.015922 -0.071580 -0.161228 -0.116917 -0.047189 0.103827 -0.044920 -0.022866 0.008865
go. -0.106053 0.168799 -0.039518 -0.127685 0.108920 -0.059690 0.014134 -0.248927 -0.081822 -0.215876 0.010268 -0.154720 0.087668 -0.305525 0.238589 -0.178301 -0.213962 -0.055715 -0.083231 -0.018636 -0.190634 0.099611 0.372617 0.340461 -0.042939 0.289270 0.042150 -0.068167 -0.167415 -0.107348 -0.010662 0.117307 0.174301 -0.113660 0.089290 0.046176 -0.531669 0.426667 0.002063 0.031287 0.462677 -0.334449 0.135304 0.241914 0.233021 0.072750 -0.290229 -0.237037 -0.360323 0.213520
good -0.069544 -0.010567 -0.027618 -0.036382 -0.227993 -0.088184 0.007686 0.095611 0.203225 -0.059122 0.114713 -0.100819 -0.009259 0.023716 -0.203507 0.273314 0.212127 -0.138016 -0.140747 -0.013723 -0.152711 -0.116918 -0.286592 -0.416115 -0.208106 -0.124077 -0.240409 -0.006548 0.029257 0.172318 -0.097210 -0.003909 -0.052266 0.175716 0.062486 -0.361428 -0.059108 -0.129083 -0.134553 -0.057822 0.162149 -0.027809 -0.198829 -0.223517 -0.211141 -0.105229 0.333627 -0.032640 -0.145976 0.070219
never -0.005642 0.043986 -0.148746 -0.084258 -0.108003 -0.000434 0.027165 -0.208452 0.104261 0.064797 -0.104449 0.090544 0.010677 0.101265 0.190708 0.013608 -0.325595 0.150400 -0.087319 -0.103263 -0.049066 -0.110389 0.078236 0.175331 0.009794 -0.042883 -0.033563 0.040269 -0.072541 -0.236757 0.105570 0.068498 0.228067 -0.028762 0.169619 0.145575 -0.185613 -0.021190 -0.061854 -0.098475 -0.130413 0.078146 0.131694 -0.049473 0.083772 0.117917 -0.176079 -0.032880 0.110783 0.157287
Eddie, -0.221116 0.090267 -0.064524 0.024071 0.226978 -0.123344 0.119955 -0.129677 -0.001549 -0.305068 0.148436 -0.343803 0.065538 -0.052286 -0.052022 -0.062608 -0.060456 -0.051321 -0.138582 0.044662 -0.030309 0.030568 0.232943 0.367545 -0.154084 0.059171 0.280287 0.029382 -0.093352 -0.033945 0.035685 0.099231 -0.038729 -0.132386 -0.113247 0.110466 -0.354637 -0.007791 -0.020668 0.088475 0.365853 -0.203087 0.187490 0.103030 -0.029393 0.007017 -0.158927 -0.099627 -0.368504 -0.041129
Now, -0.208382 0.053175 -0.028803 0.027438 0.115262 -0.112926 -0.039665 -0.007240 0.013946 -0.116354 0.064513 -0.113390 0.033677 -0.080384 -0.009341 0.021546 0.027379 -0.099561 -0.041218 0.019012 -0.002072 -0.032425 0.207224 0.149609 0.011570 0.031557 0.082574 -0.060422 -0.126374 -0.075070 -0.033746 0.104410 0.023524 0.014135 0.053366 0.018896 -0.110023 0.010706 -0.004168 -0.015829 0.080883 -0.080797 0.124049 0.013862 -0.066135 -0.064892 -0.099159 0.069350 -0.188096 0.068699
here. -0.149254 0.052759 0.124722 0.000397 0.059466 -0.063474 -0.173992 -0.018495 -0.116316 -0.148416 0.010692 -0.082359 0.127594 -0.154682 -0.042297 0.019386 0.135344 -0.175200 -0.067623 -0.077144 -0.007223 0.091190 0.199258 0.092261 0.016313 0.099706 0.076299 0.001767 0.040000 0.080798 0.031097 0.052442 -0.066388 -0.065331 -0.066054 -0.014982 -0.031500 0.077113 0.043986 0.073785 0.177062 -0.032085 -0.001403 0.178541 -0.032969 -0.068788 0.123396 0.025891 -0.160272 -0.111289
it's -0.155888 0.036124 -0.141363 -0.045448 -0.049953 -0.114570 -0.021786 -0.053131 0.111160 -0.102128 0.126177 -0.078889 0.049698 -0.048712 -0.100473 0.101512 0.005428 -0.082311 -0.128073 -0.022928 -0.025009 -0.084876 0.027043 0.020119 -0.090516 -0.046625 -0.005057 -0.033122 -0.034463 -0.069785 -0.035024 0.001895 0.053198 0.078135 0.039093 -0.050054 -0.194315 -0.156935 -0.033499 -0.027855 0.095589 -0.097742 0.076544 -0.134100 -0.077105 -0.049319 0.027940 -0.064071 -0.173358 0.015384
they 0.170648 0.004536 -0.015358 0.006148 -0.007049 0.089447 0.020063 -0.035428 0.056296 0.098272 -0.165105 0.084617 -0.108309 0.327135 0.140424 -0.087838 -0.169552 0.179133 0.058399 0.020480 0.002418 0.035207 0.041787 0.181011 -0.025111 0.044364 0.158545 -0.021988 0.035657 -0.200160 0.080133 0.019723 -0.009145 0.085583 0.070867 0.096940 0.000536 -0.002535 -0.061611 -0.107633 -0.213390 0.048935 0.163282 0.061867 0.208548 0.147635 -0.212401 0.099274 0.253969 0.020658
on, -0.251672 0.204655 0.690713 -0.063199 0.172001 -0.062483 -0.402426 0.173033 -0.342370 -0.300162 0.022906 -0.167532 0.138474 -0.286616 -0.218917 -0.065639 0.452304 -0.333348 -0.204209 -0.139770 -0.027822 0.386001 0.191787 -0.140858 0.171846 0.292605 0.193478 0.030076 0.088932 0.395923 -0.026415 -0.050620 -0.422664 0.115551 -0.460921 -0.249079 0.119039 0.118938 0.135085 -0.001221 0.259398 -0.024580 -0.237085 0.242978 0.016284 -0.262276 0.569152 0.050358 -0.143175 -0.546114
say -0.036038 0.068055 -0.211316 -0.032310 -0.039593 -0.035495 0.063151 -0.214948 0.109395 -0.057032 -0.020133 -0.050215 -0.019451 0.021813 0.137927 -0.003641 -0.249834 0.110972 -0.094976 0.013642 -0.076119 -0.124423 0.168110 0.339857 -0.007522 -0.017514 0.128668 -0.025189 -0.125691 -0.251068 -0.017811 0.068557 0.222629 0.014752 0.163322 0.158583 -0.256339 0.010174 -0.067809 -0.047006 -0.026551 -0.043971 0.210669 0.024904 0.036080 0.079950 -0.288167 -0.051129 -0.062267 0.185131
she 0.261308 -0.022291 0.105979 0.062276 0.028643 0.113941 0.117402 0.034176 0.036591 0.049767 -0.159895 0.097092 -0.111234 0.214290 0.055664 -0.086943 -0.055876 0.089318 0.011130 0.064756 0.072943 0.004266 -0.167673 -0.061751 -0.011932 0.006429 0.031775 0.073350 0.140943 -0.083886 0.028081 -0.036824 -0.112168 -0.060674 -0.020561 0.063744 0.198703 0.056327 0.026112 -0.046187 -0.236260 0.097119 -0.082884 -0.041198 0.124321 0.155410 -0.016187 0.031451 0.225053 -0.057876
Get -0.169550 -0.111929 0.132183 0.000079 0.036138 -0.070534 -0.251642 0.192902 -0.160041 0.027450 0.105557 -0.022616 0.096873 -0.279726 -0.161294 0.085100 0.288203 -0.241390 0.092795 -0.078042 0.113000 0.102295 0.126472 -0.216894 0.175479 -0.008616 -0.050725 -0.034247 0.003078 0.225633 -0.074323 0.013184 -0.116193 0.088571 -0.094090 -0.120156 0.148465 -0.004135 0.033075 0.146214 0.144470 -0.039288 -0.075296 0.040689 -0.160550 -0.224613 0.231240 -0.011747 -0.155788 -0.084339
Uncle -0.207125 0.343883 0.437036 0.149275 0.635253 -0.095621 -0.069883 0.236054 -0.425407 -0.416235 0.235065 -0.343541 0.016472 -0.059909 -0.348104 -0.315968 0.282118 -0.153708 0.037907 -0.153682 0.158404 0.211737 0.011149 -0.018957 -0.230949 0.158914 0.448763 0.161426 -0.027357 0.269965 0.169724 -0.043464 -0.495470 -0.108242 -0.470370 -0.069616 0.027834 -0.079434 0.069015 0.131316 0.281102 0.090962 0.025066 0.206641 0.157286 -0.247388 0.181372 0.035293 -0.217823 -0.552392
Yeah, -0.111522 0.001682 -0.056831 -0.035957 0.003613 -0.069300 -0.041331 -0.069742 -0.123843 -0.020257 0.022622 0.016936 0.058362 -0.152733 -0.020046 0.022215 0.000537 0.000908 0.052809 0.019001 -0.007122 -0.032305 0.094753 0.059358 0.076469 -0.079870 -0.024736 -0.040743 -0.074213 0.021996 0.009244 0.073490 0.040241 -0.044817 0.093855 -0.004005 -0.121388 -0.030019 -0.028898 0.047607 0.135911 -0.080978 0.052296 0.071312 -0.061140 -0.093182 0.005873 -0.045489 -0.128616 0.024693
come -0.293420 0.035983 0.130196 -0.035282 0.074720 -0.130083 -0.158359 -0.010568 -0.138013 -0.216100 0.000146 -0.145703 0.121994 -0.185582 -0.084859 0.015515 0.154730 -0.227487 -0.089952 -0.053054 -0.025101 0.082301 0.189254 0.106117 0.084479 0.102042 0.111881 -0.038239 0.006926 0.112968 -0.078997 0.067930 -0.071530 0.041000 -0.111441 -0.061282 -0.085523 -0.008375 0.047853 0.033351 0.226036 -0.079170 0.022668 0.088270 -0.038125 -0.152011 0.157523 -0.032579 -0.227758 -0.183427
it? 0.020879 0.129528 -0.089584 0.083677 -0.027784 -0.120018 0.145338 -0.202158 0.048855 -0.133218 -0.000957 0.016674 -0.000692 0.029974 0.015139 0.065216 -0.035675 0.020330 -0.139121 0.116609 -0.052694 -0.133725 0.019968 0.005129 -0.187818 -0.113668 0.044880 -0.097996 -0.091773 -0.011243 -0.003051 0.055980 0.067648 -0.165103 0.025743 -0.028010 -0.133630 -0.053330 -0.107984 -0.009265 0.010311 -0.006850 0.060354 -0.070026 -0.020487 0.054215 -0.089658 0.063729 -0.064814 0.081827
me? 0.048369 0.072250 -0.046018 0.069705 0.150654 0.087206 0.164157 -0.122634 0.068943 -0.078975 -0.162896 0.028460 -0.018241 0.009350 0.207861 -0.205589 -0.185635 0.128706 -0.001952 0.089854 -0.033504 -0.053269 0.003996 0.307297 -0.011269 0.062657 0.095219 0.098620 -0.034457 -0.176600 0.042992 0.020675 -0.047310 -0.147018 -0.000386 0.132297 -0.103764 0.055059 -0.012112 -0.063317 -0.019773 0.054813 0.054249 0.091867 0.025554 0.174387 -0.208767 -0.068259 -0.011835 -0.007198
on. -0.354068 0.124308 0.534373 -0.055152 0.215196 -0.123048 -0.369417 0.117663 -0.355228 -0.340087 0.028931 -0.215340 0.162026 -0.295413 -0.285805 -0.042727 0.413384 -0.331899 -0.180750 -0.176524 0.052020 0.314410 0.247375 -0.037645 0.157809 0.219811 0.300518 0.003863 0.063921 0.367955 -0.039841 -0.033403 -0.360752 0.101736 -0.417266 -0.131371 0.140580 0.077180 0.122838 0.066457 0.238739 -0.015026 -0.149186 0.280465 -0.067145 -0.288840 0.476396 0.074729 -0.243703 -0.552027
right 0.099402 -0.228846 -0.001213 -0.017234 -0.099161 0.113540 -0.077919 0.190416 -0.017506 0.246361 -0.034461 0.113419 -0.008674 -0.017334 -0.074704 0.095116 0.122752 -0.085014 0.158145 -0.006315 0.120161 0.056663 -0.164355 -0.281730 0.151748 -0.093664 -0.135232 -0.043360 0.176627 0.039180 -0.053464 -0.054347 -0.050545 0.051791 -0.018675 -0.043011 0.282176 -0.088256 0.058284 0.069393 -0.171588 0.064819 -0.152346 -0.128721 -0.133374 -0.055620 0.173955 0.018963 0.214151 -0.042876
up -0.088872 -0.149623 -0.278689 -0.053592 -0.240678 -0.039814 0.057669 -0.126966 0.148948 0.161138 -0.095532 0.073547 -0.071302 -0.167091 0.158623 0.118181 -0.064425 -0.037058 0.070461 0.118318 -0.063788 -0.129286 0.087374 0.036844 0.173395 -0.084856 -0.119473 -0.082485 -0.094734 -0.079615 -0.162199 0.072316 0.198197 -0.019324 0.189072 0.057652 -0.100003 0.033121 -0.048561 -0.023301 0.026834 -0.063045 -0.000374 -0.079105 -0.175431 0.053348 -0.098875 -0.085849 -0.105817 0.299288
It 0.050521 -0.084336 -0.033857 -0.037111 -0.069070 0.056747 0.013516 0.068731 0.090462 0.151813 -0.035215 0.118008 0.010663 0.063455 0.030852 0.004139 -0.066585 0.014605 0.023533 0.012523 0.007139 -0.079239 -0.060506 -0.175856 0.054934 -0.073568 -0.179894 0.025981 0.019334 -0.067272 -0.045263 0.003284 0.024486 0.060719 0.070587 -0.055177 0.152192 -0.051790 0.028093 -0.048986 -0.142039 0.054588 -0.096610 -0.170582 0.030543 0.005220 0.011740 -0.029771 0.115753 0.037475
he 0.029614 -0.087403 0.001692 0.017878 -0.076911 0.014399 -0.004250 0.137024 -0.005712 0.054338 0.006057 0.044295 -0.005498 -0.021692 -0.106153 0.104161 0.111048 -0.048164 0.010480 -0.010492 0.082735 -0.005942 -0.105825 -0.330405 0.004355 -0.090947 -0.129748 -0.033334 0.063790 0.133356 -0.027368 -0.055505 -0.019302 0.008724 0.019959 -0.123117 0.171688 -0.055972 -0.001352 0.031857 -0.074520 0.023872 -0.126154 -0.176262 -0.104962 -0.037719 0.158741 0.042001 0.069567 -0.026387
her. -0.000053 -0.109420 -0.166497 0.024070 -0.103203 0.005071 0.081090 0.015224 0.011120 0.084205 -0.034996 0.057188 -0.064101 -0.064906 0.029524 0.043547 -0.051924 -0.022873 0.046273 0.104285 -0.023338 -0.086033 -0.029261 -0.052559 0.077688 -0.084803 -0.143776 -0.053741 -0.040579 -0.035272 -0.051544 -0.006321 0.130901 -0.003110 0.123206 0.001005 -0.005633 -0.073784 -0.008838 0.010502 -0.063986 -0.009505 -0.035633 -0.165801 -0.072139 0.033185 -0.055183 -0.074065 0.003590 0.134465
more 0.180571 0.018594 0.096914 -0.018917 -0.115057 0.098514 -0.008394 0.115784 -0.017325 0.125016 -0.103849 0.159260 -0.010797 0.171518 0.059010 -0.022989 0.023332 0.041018 0.053851 0.048980 -0.018661 0.058831 -0.198320 -0.170245 0.025012 -0.027007 -0.100930 0.045287 0.159806 0.042646 0.033026 -0.082653 -0.120434 0.034235 -0.037161 -0.081229 0.203676 -0.128676 0.068835 -0.066344 -0.234887 0.192534 -0.125920 -0.066492 0.085745 0.016759 0.161866 0.042157 0.263731 -0.148837
How -0.098758 0.241573 0.013862 0.138476 0.184885 -0.128133 0.194860 -0.174998 -0.163097 -0.417836 0.016461 -0.212151 -0.064119 -0.070683 -0.177055 -0.076166 0.128515 -0.049461 -0.193047 0.103706 -0.054052 -0.046197 -0.029074 0.183989 -0.256678 0.018951 0.285117 -0.067556 -0.105023 0.198356 -0.069500 -0.050981 -0.102581 -0.226371 -0.188447 -0.028513 -0.118725 0.055224 0.013879 0.126897 0.276879 -0.078558 0.092053 0.126148 -0.018611 0.075209 0.015933 0.086212 -0.257194 -0.111217
We -0.015945 0.001178 -0.000199 -0.000974 -0.044377 0.013673 -0.069451 0.055179 -0.000691 0.006629 0.017417 0.024487 0.004335 0.003692 -0.032306 0.096948 0.105286 -0.092558 0.041002 -0.007534 0.019371 0.021465 -0.076236 -0.149181 -0.032560 -0.004990 -0.101164 -0.022161 0.020437 0.065223 0.002508 -0.022379 -0.045020 0.056312 -0.001847 -0.127865 0.029647 -0.093332 -0.004004 0.003430 -0.018460 -0.001047 -0.023362 -0.063536 0.002315 -0.046645 0.107002 0.035021 0.064438 -0.018716
Why, -0.179959 0.040008 -0.030184 -0.013396 0.147666 -0.055233 0.011173 0.006593 -0.080722 -0.157005 0.120300 -0.090049 0.065231 -0.125423 -0.096295 -0.020264 0.082740 -0.048722 -0.044731 -0.029656 0.084212 0.033392 0.082834 0.050425 -0.068816 -0.030484 0.098647 -0.039051 -0.056962 0.063222 -0.007960 -0.039454 -0.018286 -0.065600 -0.046445 -0.004279 -0.149205 -0.092703 -0.002141 0.081175 0.147520 -0.100886 0.085411 -0.019457 -0.034639 -0.063840 -0.015050 -0.035378 -0.141113 -0.070940
his 0.283328 0.039683 0.182013 0.030903 -0.177806 0.085680 -0.024208 0.226223 0.060634 0.071321 -0.063726 0.063154 -0.106507 0.364433 -0.129531 -0.000949 0.050585 0.036719 0.012818 -0.055552 0.055218 0.100091 -0.229385 -0.388270 -0.063212 0.007722 -0.087318 0.057185 0.122829 0.181931 -0.038592 -0.073255 -0.141463 0.113156 -0.056703 -0.137345 0.242092 -0.184326 0.042905 -0.101966 -0.325556 0.093223 -0.130060 -0.136309 0.133817 -0.064791 0.261931 0.183632 0.397996 -0.137119
one 0.147889 -0.109529 0.014836 -0.035255 -0.250976 0.115887 -0.106786 0.178793 0.104576 0.232574 0.009808 0.158633 0.000163 0.049535 -0.055509 0.190422 0.123855 -0.033903 0.136843 0.055742 0.012356 0.003534 -0.102238 -0.347140 0.076561 -0.168136 -0.190317 0.023194 0.046036 0.023659 -0.007373 -0.073270 -0.086827 0.067151 0.023289 -0.188478 0.195165 -0.106786 -0.007425 0.004367 -0.153908 0.121096 -0.185331 -0.129334 -0.133236 -0.067860 0.204992 0.035139 0.118130 0.017612
sir. -0.386866 0.253399 0.135566 0.091830 0.449713 -0.012970 -0.127670 0.202753 -0.157703 -0.400093 0.507252 -0.327248 0.088300 -0.216514 -0.239764 -0.065515 0.428192 -0.069630 0.044728 -0.085940 0.122952 -0.021836 0.098401 0.123733 -0.040593 0.036139 0.051813 -0.000125 -0.322339 0.203454 -0.125397 -0.132379 -0.318004 -0.016965 -0.252151 -0.144737 -0.133739 -0.113677 -0.086254 0.128328 0.313171 -0.171949 0.128108 0.204385 0.035587 -0.335913 0.025804 0.126824 -0.394814 -0.265614
think -0.093690 0.121907 -0.285814 -0.049381 -0.083310 -0.074758 0.101845 -0.303823 0.097829 -0.115292 -0.004944 -0.054776 0.028513 -0.075397 0.092374 0.048698 -0.190064 0.069311 -0.074249 0.034919 -0.110439 -0.149194 0.191376 0.250166 -0.105582 -0.025772 0.062130 -0.051656 -0.163679 -0.158597 -0.026523 0.058106 0.170602 -0.057044 0.083948 0.100884 -0.321902 -0.009621 -0.087097 -0.011242 0.080555 -0.071040 0.153486 -0.023885 -0.025420 0.094017 -0.178531 -0.068753 -0.261686 0.156327
us 0.109312 -0.202785 0.000799 0.049644 -0.177580 0.100124 -0.127090 0.166753 0.047328 0.190870 -0.037779 0.162308 0.026414 -0.184879 0.036140 0.146053 0.167505 -0.107724 0.136103 0.000470 0.030968 0.117472 -0.064210 -0.316284 0.125020 -0.039605 -0.177450 -0.080024 0.113317 0.135562 0.025925 -0.058715 -0.020968 -0.047098 0.060243 -0.170662 0.192806 0.101211 -0.017028 0.095821 0.026884 -0.004485 -0.203580 -0.021089 -0.164758 0.008226 0.197158 -0.044908 0.021890 0.067794
Gee, -0.156158 0.052532 -0.169179 -0.037366 -0.023307 -0.144040 0.014805 -0.146081 0.054720 -0.092416 0.202425 -0.111370 0.079270 -0.092723 -0.079390 0.053015 -0.034335 0.047810 -0.071332 -0.044512 0.007741 -0.089242 0.131260 0.133333 -0.055753 -0.049546 0.085091 0.000557 -0.155886 -0.000322 -0.033328 -0.006538 0.114645 0.029637 -0.012121 0.070961 -0.201319 -0.162535 -0.064586 0.085783 0.156013 -0.121125 0.124690 -0.039793 -0.102667 -0.073297 -0.052194 -0.096248 -0.294673 0.043978
If 0.102969 -0.003747 -0.171558 -0.010982 -0.205815 -0.014792 0.090153 -0.176075 0.049694 0.067729 -0.195926 0.146085 -0.088507 -0.014185 0.210043 0.017030 -0.118056 0.040655 0.022897 0.095776 -0.117599 -0.022798 -0.067276 0.016053 -0.013440 -0.003289 -0.071559 -0.102039 0.008401 -0.046430 -0.095415 0.001485 0.168919 -0.072296 0.163970 0.072527 -0.123750 0.070220 0.001257 -0.016056 -0.058592 -0.004668 -0.004960 -0.035535 0.011761 0.190701 -0.079234 -0.061809 0.043435 0.176055
Let's 0.030874 -0.071332 0.186920 0.034736 -0.103586 -0.025160 -0.222510 0.137333 -0.108994 0.052351 -0.028416 0.091649 0.038644 -0.220233 -0.021046 0.090566 0.217833 -0.185885 0.054028 0.041147 -0.008040 0.068476 0.007495 -0.299527 0.166049 0.041232 -0.082450 -0.066931 0.052464 0.206307 -0.039147 -0.024362 -0.072888 0.036876 -0.063854 -0.201351 0.129090 0.063297 0.042179 0.030700 0.086542 0.013410 -0.162438 0.011373 -0.088664 -0.084363 0.257230 -0.002256 0.018670 -0.070214
been 0.075479 -0.002135 -0.237726 -0.044351 -0.129168 -0.002699 0.051750 -0.121612 -0.041042 0.132059 -0.144525 0.093992 -0.004628 -0.021212 0.083946 0.003319 -0.166554 0.044143 0.086206 0.096470 -0.037664 -0.050392 0.003670 0.028348 0.025547 -0.095735 -0.045931 -0.071631 -0.005089 -0.041224 -0.058736 -0.041198 0.071089 0.000628 0.068353 0.043950 -0.047600 -0.084518 -0.024548 -0.047630 -0.086935 0.048394 0.026933 -0.086547 0.045421 0.071964 -0.045406 -0.104389 0.054730 0.071374
it, -0.108277 0.157214 0.103848 0.043994 0.256622 -0.058005 0.008686 0.025797 -0.193367 -0.253364 0.130067 -0.172800 0.005812 -0.086268 -0.095529 -0.149882 0.122420 0.004387 -0.050286 0.029635 -0.012084 0.064331 0.072755 0.182349 -0.127231 0.036533 0.250479 -0.041851 -0.094392 0.069666 0.060216 0.002627 -0.130581 -0.097084 -0.099940 0.003593 -0.096944 0.015223 -0.021681 0.081718 0.175720 -0.071560 0.125086 0.189371 0.001443 -0.083952 0.008288 0.009321 -0.163163 -0.211801
love 0.123700 0.236941 0.125853 -0.106255 0.130499 -0.005863 -0.017583 -0.176039 0.026798 -0.062442 -0.096016 0.056738 0.159567 0.383922 0.049639 -0.122593 -0.428870 0.365967 -0.135350 -0.252614 -0.040171 -0.020280 0.098811 0.321875 -0.122284 0.192364 0.237242 0.289495 0.056344 -0.236277 0.179713 0.057767 0.107203 0.055697 -0.063777 0.417581 -0.100777 -0.156398 0.040314 -0.017585 -0.357617 0.176070 0.094202 0.215934 0.247936 0.042224 -0.250957 0.098292 0.145073 -0.070588
minute. -0.030309 0.005154 0.172643 0.014513 -0.336903 -0.133937 -0.096820 0.023587 0.295461 -0.057058 0.252696 0.032540 0.027016 -0.022962 -0.114808 0.354189 0.287320 -0.181859 -0.112853 0.056290 -0.174345 -0.035245 -0.115784 -0.374126 -0.252826 -0.101398 -0.331575 -0.026925 0.070647 0.209102 0.002273 0.046884 -0.049289 0.126723 0.031640 -0.459376 -0.053525 -0.100262 -0.054728 -0.033212 0.257066 0.041118 -0.363925 -0.215402 -0.188267 -0.097612 0.526239 -0.009175 -0.211141 -0.003570
out. 0.000566 0.004543 0.061483 0.069103 0.046272 -0.034507 -0.052028 0.058733 -0.064118 -0.052430 -0.016615 0.003387 -0.022912 -0.080123 -0.041671 -0.035112 0.100856 -0.116254 -0.011122 0.038499 -0.010398 0.028093 0.009222 -0.102385 0.034461 0.007478 -0.028024 -0.030567 0.000185 0.086042 -0.074353 0.004657 -0.068854 -0.058426 -0.030422 -0.078820 0.039997 0.069548 0.043964 0.046311 0.053477 -0.004710 -0.052320 0.020736 -0.006912 -0.029649 0.086239 0.028816 -0.027099 -0.044969
A 0.004620 -0.106540 0.040353 -0.024313 -0.027636 0.064893 -0.043012 0.174156 0.046636 0.111537 0.025907 0.056866 0.030223 -0.025935 -0.058520 0.039393 0.060959 -0.077010 0.058491 -0.048122 0.053125 0.002096 0.001864 -0.114729 0.082991 -0.117023 -0.156273 0.081001 0.033396 0.044601 -0.007642 -0.009557 -0.068617 0.055640 -0.004994 -0.074230 0.104383 -0.128846 -0.005895 0.036878 -0.003861 0.057101 -0.092048 -0.093964 -0.074354 -0.114638 0.112756 -0.027279 0.011127 -0.035060
I'd 0.029841 -0.140839 -0.034123 -0.060206 -0.186324 0.073063 0.027142 0.040554 0.140674 0.143249 0.056399 0.006365 0.018951 0.045370 -0.001219 0.193883 -0.013719 0.006484 -0.003525 0.016585 -0.071103 -0.067345 -0.063169 -0.105127 0.012663 -0.086222 -0.158602 -0.008251 0.025902 -0.033791 -0.020449 0.026374 0.062435 0.046099 0.066114 -0.106449 -0.008508 0.026745 -0.071492 -0.060020 0.011367 0.017828 -0.071766 -0.133769 -0.134909 -0.006649 0.075855 -0.077302 -0.024083 0.151534
That 0.145406 -0.031317 0.059082 0.029261 -0.036488 0.050537 -0.060466 0.070809 -0.045246 0.083784 -0.046761 0.126554 0.031707 0.005898 0.032549 0.046640 0.018563 -0.054258 0.073852 -0.028552 -0.005838 0.043320 -0.039880 -0.162861 -0.036693 0.001817 -0.131924 0.013530 0.102997 0.028611 0.051561 0.023980 0.026547 -0.021131 0.067707 -0.074618 0.112690 0.107851 0.041290 0.046876 -0.067567 0.034820 -0.117650 0.020956 0.065174 0.049558 0.082000 0.053163 0.153155 0.047054
Wait 0.005938 -0.023086 0.224099 0.024041 -0.344765 -0.132875 -0.123150 0.113416 0.334011 -0.038214 0.288405 0.055555 0.018862 0.061723 -0.134610 0.365336 0.326313 -0.189200 -0.092791 0.066145 -0.128166 -0.039683 -0.206749 -0.499030 -0.292595 -0.127388 -0.392915 0.009349 0.127431 0.253280 0.059501 0.048530 -0.103006 0.148599 0.032435 -0.525146 0.026418 -0.146242 -0.075212 -0.069960 0.239810 0.087430 -0.427555 -0.249639 -0.192730 -0.147594 0.628041 0.003074 -0.166021 -0.043449
going -0.037220 -0.168603 -0.123508 0.001737 -0.031046 0.049270 0.087864 0.112536 0.153100 0.144670 -0.022289 -0.006840 -0.037661 -0.017600 0.048914 0.029775 -0.059360 -0.030781 0.031798 0.038615 0.105405 -0.103097 -0.007944 -0.011793 0.196810 -0.112494 -0.080232 -0.004300 0.006781 -0.082081 -0.149996 0.001122 0.026783 0.057210 0.086990 0.072656 0.173566 0.028870 -0.057248 -0.032519 -0.074497 0.055650 -0.050237 -0.106027 -0.105185 -0.007801 -0.072496 -0.014014 0.022339 0.116411
hear 0.189293 0.108171 0.095252 0.121135 0.184410 0.164188 0.156243 -0.049598 0.055070 -0.073323 -0.242988 0.092015 -0.029647 0.124991 0.232596 -0.268689 -0.122365 0.171973 -0.010297 0.061230 -0.019888 -0.008863 -0.122199 0.213314 -0.039193 0.104857 0.075435 0.097282 0.039835 -0.140057 0.095282 -0.040938 -0.128939 -0.174692 -0.046974 0.068189 0.050896 0.139856 0.014084 -0.099391 -0.145394 0.146830 -0.037968 0.137960 0.100249 0.220257 -0.159526 0.037457 0.165742 -0.121938
him 0.003985 -0.088121 -0.026550 0.003144 -0.111853 0.013543 0.030877 0.015968 0.057856 0.042532 -0.022699 0.062309 -0.017058 -0.101877 0.067519 0.038494 -0.010819 -0.028673 -0.002908 0.093964 -0.064683 -0.026379 -0.027358 -0.073886 0.032890 -0.020758 -0.116565 -0.043007 -0.030260 -0.005038 -0.048270 0.032481 0.045559 -0.004779 0.080525 -0.079017 -0.028956 0.049727 -0.037879 -0.045532 0.056124 -0.029022 -0.076922 -0.069945 -0.072871 0.051523 0.063704 -0.073691 -0.031951 0.071881
how 0.030352 0.091759 -0.103158 0.039461 0.069954 -0.071572 0.030336 -0.169554 -0.046217 -0.037056 -0.117075 0.044633 -0.066349 0.023784 0.130532 -0.058995 -0.083863 0.027059 -0.001703 0.055797 -0.091174 -0.035285 0.072615 0.155263 -0.038481 0.072570 0.058710 -0.027502 -0.020809 -0.067055 -0.030267 0.063651 0.105247 -0.081086 0.093375 0.115555 -0.060014 0.065512 0.046342 -0.007696 -0.059168 -0.023288 0.110264 0.073963 0.091841 0.086742 -0.162583 0.015590 0.017892 0.094944
mean -0.039697 0.170691 -0.036588 0.056531 0.067234 -0.015339 0.025004 -0.176418 0.172318 -0.054745 -0.049682 -0.045004 0.083418 0.248096 0.209009 -0.111629 -0.267374 0.155617 -0.085792 0.014512 -0.031041 -0.121074 0.287835 0.395419 -0.090619 0.161506 0.121853 0.114683 -0.090322 -0.286073 0.150234 0.157770 0.118858 -0.020132 0.023637 0.224009 -0.143851 0.045598 -0.025519 -0.089132 -0.126833 0.085927 0.167431 0.114479 0.162959 0.202103 -0.377940 0.132321 0.053452 0.132104
right, -0.120306 0.038224 0.074080 -0.113193 0.133019 0.033775 -0.205851 0.065140 -0.282531 -0.029366 0.159692 -0.217461 0.037715 -0.343918 -0.287803 -0.140395 0.152129 -0.075912 0.120359 -0.144074 0.044890 0.264214 0.135191 0.151662 0.084287 -0.017244 0.142191 -0.047629 0.058329 0.127157 0.048104 -0.138670 -0.102616 0.013212 -0.133128 0.035385 -0.029762 0.088373 0.037267 0.254891 0.403850 -0.096534 0.039323 0.348425 0.028278 -0.242462 -0.017341 -0.153177 -0.199325 -0.208920
Eddie 0.002789 -0.037847 0.141932 0.033553 0.033625 -0.016426 -0.070505 0.109128 -0.146138 0.023299 -0.003349 0.094032 -0.006335 -0.090739 0.004001 -0.014717 0.115585 -0.038488 0.099428 0.018024 0.022778 0.032333 -0.040464 -0.122201 0.102470 -0.002255 -0.033958 -0.043430 0.042188 0.113183 0.032529 0.051324 -0.066690 -0.037611 0.015602 -0.048714 0.085722 0.019458 0.021270 0.039713 0.049768 -0.030154 -0.048299 0.122647 -0.018347 -0.097157 0.101076 0.034286 0.023795 -0.071573
Go -0.087698 0.038096 0.444105 -0.004183 0.172478 0.019116 -0.224899 0.240562 -0.251963 -0.114277 0.009544 -0.031413 0.041007 -0.116724 -0.149829 -0.069313 0.274767 -0.143497 0.018347 -0.077329 0.060625 0.211002 -0.049251 -0.176079 0.128476 0.092243 0.064390 0.049448 0.083515 0.253651 -0.009695 -0.041854 -0.307280 0.074624 -0.282256 -0.134077 0.268676 0.050759 0.085204 -0.007462 0.087874 0.052029 -0.167911 0.103973 -0.020161 -0.183968 0.364734 0.080082 0.044566 -0.409166
Let 0.005881 -0.033916 0.035988 -0.095457 -0.082625 0.006578 -0.116100 0.019140 -0.070028 0.015247 0.106121 -0.056145 0.043115 -0.334106 0.100946 -0.051418 -0.000872 -0.155641 0.089590 -0.024107 -0.108412 0.133435 0.230969 -0.047703 -0.003550 0.171718 -0.106173 -0.079230 -0.077502 0.111231 0.012809 0.078993 0.098618 -0.006525 0.074487 -0.130006 -0.255844 0.412233 0.037649 0.121751 0.410434 -0.269646 -0.048596 0.167158 0.146113 0.032588 -0.009613 -0.243909 -0.256713 0.235220
What's -0.051915 -0.187187 -0.261747 -0.043905 -0.172631 0.001219 -0.034036 -0.039720 0.029651 0.157378 0.012733 0.105176 0.013306 -0.154825 -0.059521 0.172202 0.026145 -0.116670 0.103311 0.006710 0.087901 0.007884 -0.029652 -0.202502 0.061406 -0.106700 -0.112334 -0.094660 0.044606 0.076507 -0.084254 -0.067631 0.135858 0.007899 0.059757 -0.033469 -0.036183 -0.164818 -0.007972 0.143931 0.008924 -0.135755 -0.008609 -0.176647 -0.173577 -0.024824 0.014984 -0.080618 -0.043713 0.168318
When 0.213849 -0.004860 0.148307 0.028294 0.042388 0.095807 0.027442 0.089297 -0.055760 0.010711 -0.112924 0.038380 -0.045886 0.170669 -0.023367 -0.097653 0.007547 0.011815 0.038135 0.000629 0.017750 0.109282 -0.121142 -0.051571 -0.029010 0.056847 0.049989 0.041403 0.161026 0.003581 0.036670 -0.091665 -0.104701 -0.037971 -0.058575 -0.012906 0.169498 0.087086 0.081271 0.011292 -0.104088 0.040603 -0.078259 0.068382 0.123643 0.059359 0.045206 0.019052 0.189814 -0.132167
did 0.117572 0.033118 -0.110801 0.021143 -0.069238 -0.017575 0.156773 -0.172941 -0.002624 -0.051907 -0.159190 0.058801 -0.093189 0.019040 0.140904 -0.014018 -0.052342 0.030298 -0.005915 0.131236 -0.108345 -0.004026 -0.042604 0.063850 -0.112531 0.004110 0.037613 -0.073119 0.008104 -0.002587 -0.080307 0.009312 0.047669 -0.142423 0.057412 -0.000544 -0.121872 0.072160 -0.014512 -0.009878 0.005043 -0.066699 0.019594 -0.015895 0.067466 0.179741 -0.102895 -0.023615 0.014142 0.106681
had 0.109893 -0.026562 -0.087135 -0.081816 -0.260178 0.026891 0.058831 -0.106944 0.196385 0.111429 -0.096517 0.127823 -0.058139 0.166867 0.118661 0.154615 -0.248877 0.086391 -0.082395 -0.088958 -0.118221 -0.114941 -0.104118 -0.043689 -0.052723 -0.091707 -0.177833 0.036278 0.014525 -0.143135 0.045442 0.038232 0.196844 0.038436 0.195844 -0.027439 -0.053511 -0.076170 -0.077926 -0.135204 -0.176013 0.105130 -0.052747 -0.200088 0.048905 0.076870 -0.015025 0.013516 0.175805 0.145010
here 0.050576 -0.155138 0.069263 0.015859 0.008502 0.087144 -0.048854 0.179707 -0.012110 0.164635 -0.016666 0.077378 0.012430 -0.012739 -0.038191 0.029051 0.119805 -0.041291 0.105824 -0.005981 0.095034 0.023478 -0.093726 -0.152295 0.158440 -0.098261 -0.105070 0.003742 0.099007 -0.008431 -0.051742 -0.013970 -0.064771 0.014780 -0.007320 0.009703 0.261734 0.002422 0.018665 0.043295 -0.127127 0.077597 -0.143618 -0.043380 -0.083817 -0.053423 0.108545 0.041541 0.104705 -0.028863
our 0.018033 0.008159 0.080957 0.020660 0.086188 0.042608 -0.012353 0.065087 -0.124814 0.073503 -0.125279 0.137069 -0.063084 0.031487 0.026877 -0.097192 -0.023317 0.013356 0.110132 0.023071 0.033278 -0.015498 -0.070949 0.009892 0.204158 -0.031100 0.013236 0.067004 0.014638 0.031638 -0.076336 0.054662 -0.054205 0.063449 0.020898 0.037122 0.149200 -0.015638 0.048042 -0.023739 -0.109517 0.045348 0.030335 0.014317 0.071943 -0.010576 -0.006993 0.037099 0.191062 -0.045256
run 0.115019 0.058397 0.285815 0.045552 0.085167 0.063274 -0.071968 0.217588 -0.090022 0.056518 -0.133566 0.096574 -0.006530 0.141337 0.060146 -0.132514 0.037719 0.035558 0.087906 0.019485 0.041164 0.082259 -0.077455 -0.084961 0.118538 0.069782 0.010743 0.082109 0.088630 0.035645 0.038415 -0.029289 -0.191990 -0.002046 -0.062885 -0.008642 0.202803 -0.004872 0.062349 -0.103342 -0.098396 0.122469 -0.087034 0.063581 0.149892 0.017229 0.099528 0.070906 0.269942 -0.197815
than 0.134708 0.040746 -0.009524 -0.018455 -0.090687 0.057559 0.047395 0.029017 -0.038521 0.068524 -0.173736 0.163311 -0.036978 0.133323 0.097217 -0.041272 -0.057933 0.044351 0.030997 0.048013 -0.028757 0.043674 -0.195759 -0.055142 0.014915 0.026735 -0.076462 -0.012873 0.118818 -0.026535 -0.017922 -0.081745 0.006089 0.039372 0.003983 -0.006688 0.106668 -0.093060 0.078433 -0.078961 -0.207319 0.138900 -0.072218 -0.099577 0.145817 0.068414 0.002367 0.022747 0.257884 -0.093136
things 0.189524 -0.124231 0.139080 -0.019848 -0.019150 0.158028 -0.077400 0.173050 -0.082957 0.144538 -0.107554 0.095878 -0.045084 0.103977 0.000146 -0.045114 -0.009004 0.039781 0.141717 -0.002371 0.068920 0.122487 -0.082201 -0.095142 0.116010 0.033098 -0.044124 0.071822 0.192803 0.006868 0.049340 -0.013798 -0.046375 0.012130 -0.084328 0.052256 0.222764 0.095737 0.043600 0.006293 -0.155793 0.104034 -0.061949 0.021193 0.058965 0.046203 -0.004554 0.010012 0.248287 -0.052950
Mammy 0.163434 0.183985 0.535042 0.090812 0.479524 0.206026 0.048196 0.416863 -0.292029 -0.167868 0.000544 -0.040807 0.026957 0.362151 -0.226052 -0.322582 0.202236 0.148782 0.001312 -0.171302 0.201856 0.203892 -0.387109 -0.093927 -0.093409 0.148641 0.134808 0.191376 0.269520 0.113751 0.229613 -0.237105 -0.485413 -0.036687 -0.381333 0.011128 0.537920 -0.095011 0.093292 -0.026538 -0.263143 0.282082 -0.132073 0.147530 0.288419 -0.040715 0.240463 0.235845 0.485714 -0.642855
Now -0.018646 0.001005 -0.070734 0.033992 0.036354 -0.005393 0.077728 -0.113473 0.087507 -0.002351 -0.020756 -0.034805 -0.014109 0.011239 0.141213 -0.044812 -0.119198 0.083593 0.001835 0.063406 -0.028852 -0.060979 0.134211 0.221054 -0.029012 0.016209 0.047039 -0.004600 -0.112108 -0.135839 0.008050 0.108283 0.101082 -0.045678 0.057431 0.112414 -0.115619 0.132552 -0.011471 -0.057381 0.044699 -0.044031 0.124663 0.044032 0.023231 0.117108 -0.233421 0.013435 -0.046519 0.164503
She 0.200528 0.056001 0.277466 0.050026 0.149503 0.149577 -0.039212 0.271035 -0.185240 -0.001016 -0.145319 0.091956 -0.103879 0.347489 -0.117354 -0.204886 -0.020185 0.088135 -0.011311 -0.098945 0.103760 0.149168 -0.214044 -0.120665 0.051390 0.056362 -0.008171 0.167283 0.203236 -0.002070 0.100911 -0.078884 -0.184753 0.017571 -0.136221 0.059341 0.316707 -0.079011 0.134930 -0.097227 -0.390075 0.179885 -0.093983 0.027455 0.265902 -0.024196 0.080556 0.159973 0.458347 -0.292203
back 0.023887 -0.113551 -0.071322 0.021894 -0.131382 -0.008902 -0.038089 0.010026 -0.014708 0.150303 -0.124267 0.141803 -0.059974 -0.112173 0.128902 0.056940 0.009494 -0.078104 0.105982 0.123346 -0.067688 -0.039761 -0.038017 -0.108437 0.171640 -0.027435 -0.165986 -0.096923 0.029491 0.003013 -0.151054 0.040904 0.119233 0.002288 0.139385 -0.047511 0.058216 0.034299 0.012697 -0.003304 -0.053538 -0.014519 -0.033434 -0.069912 -0.038875 -0.002310 0.015280 -0.038697 0.098953 0.133718
better 0.156878 0.010389 0.137821 0.011512 -0.005710 0.089484 0.056681 0.059664 -0.049237 0.052658 -0.154027 0.092205 -0.058418 0.142428 0.100114 -0.085873 -0.019199 0.077897 0.030936 0.021963 -0.013484 0.059415 -0.161424 0.009428 0.030950 0.056133 -0.005369 0.033660 0.072462 -0.039203 0.012171 -0.023030 -0.041873 -0.027944 -0.008345 0.027319 0.135831 0.064831 0.007886 -0.078519 -0.133604 0.095145 -0.075125 0.004940 0.142646 0.115841 -0.038175 0.087440 0.234616 -0.087774
couldn't 0.136600 0.091703 0.048172 -0.035084 0.040005 0.050955 0.053905 -0.081243 -0.007300 -0.079033 -0.172046 0.067514 -0.043116 0.180521 0.106533 -0.095072 -0.183042 0.147623 -0.072279 -0.043070 -0.051714 0.045705 -0.091407 0.138002 -0.061765 0.102030 0.087855 0.076934 0.075276 -0.143726 0.073393 -0.044370 0.066801 -0.065312 -0.013766 0.165603 -0.035756 0.059764 0.033654 -0.067080 -0.182295 0.089361 0.011954 0.083017 0.174085 0.129702 -0.147689 0.035619 0.218585 -0.050682
guy 0.135603 -0.178154 -0.037385 -0.023116 -0.224555 0.082236 -0.004485 0.076649 0.123295 0.186796 -0.005473 0.083154 -0.000091 -0.033288 0.037756 0.244201 0.054859 -0.091114 0.040065 0.053443 -0.064758 -0.032737 -0.083541 -0.285097 0.000876 -0.104787 -0.217910 -0.058703 0.060261 0.014734 0.018752 0.015271 0.065127 0.017728 0.136775 -0.128402 0.093979 0.061694 -0.021566 0.003387 -0.030029 0.050884 -0.181942 -0.145905 -0.162729 0.066141 0.162808 -0.025630 0.058265 0.145192
keep -0.003312 -0.002850 0.012399 0.037229 0.013068 -0.019998 -0.114769 -0.001980 -0.135103 0.060440 -0.100339 0.136653 -0.005390 -0.225323 0.124902 -0.037234 0.047065 -0.089427 0.088195 0.101675 -0.069319 0.005699 0.103777 -0.041098 0.148536 0.032302 -0.115447 -0.086814 -0.024270 -0.008975 -0.069173 0.061927 0.078604 -0.100457 0.186539 -0.082684 -0.017498 0.173146 0.025459 0.032747 0.101729 -0.045075 0.024386 0.102308 -0.012105 -0.003849 -0.032571 -0.032152 -0.030056 0.120289
lot 0.121876 -0.254870 -0.091042 -0.074515 -0.552494 0.054095 -0.087451 0.089670 0.340839 0.329237 0.052148 0.184473 0.014699 -0.078192 0.053625 0.433535 0.088026 -0.166650 0.086218 0.063270 -0.150011 -0.050769 0.019961 -0.365408 0.055398 -0.225399 -0.388758 -0.066882 0.046140 0.041568 -0.005899 0.051227 0.069603 0.065335 0.199047 -0.297121 0.024009 -0.056557 -0.119897 0.004546 0.052089 0.093954 -0.244083 -0.242921 -0.349409 -0.035486 0.332419 -0.088837 -0.048055 0.269139
now. 0.060298 0.038076 0.112723 -0.013265 0.082808 0.012038 -0.039904 0.061862 -0.051247 -0.017839 -0.032198 0.012096 -0.006416 0.077195 0.036785 -0.115164 -0.009111 0.051636 -0.002233 -0.037978 0.047950 0.027329 -0.048250 0.020189 0.031911 0.087641 0.073356 0.067001 0.016601 -0.029490 0.029025 -0.038722 -0.046966 0.026660 -0.025712 0.053675 0.091343 0.038419 0.051392 -0.056120 -0.114638 0.031041 -0.002478 0.073540 0.084525 -0.012616 -0.015770 0.062382 0.120154 -0.111486
put 0.080278 0.009109 -0.059148 0.045089 0.059433 -0.028663 -0.085060 -0.038850 -0.157675 0.037502 -0.169075 0.172833 -0.036540 -0.069759 0.036244 -0.001912 0.055475 -0.123481 0.034237 0.132507 0.007300 -0.018557 -0.085774 -0.107563 0.098316 -0.019721 -0.115905 -0.055561 0.061411 -0.037925 -0.091102 -0.013237 0.056725 -0.039975 0.101849 -0.044576 0.138310 0.008465 0.094064 0.002422 -0.141855 0.023289 0.003131 -0.012398 0.059455 -0.007178 0.001049 0.022734 0.115325 0.021331
saw 0.243694 -0.087421 0.235344 -0.040940 0.049667 0.181572 -0.077357 0.213016 -0.106615 0.108438 -0.125910 0.190091 -0.025776 0.320268 0.001114 -0.080425 -0.036324 0.084475 0.066608 -0.087682 0.100892 0.124967 -0.258949 -0.194831 0.035429 0.081031 -0.064640 0.132438 0.264067 0.005004 0.166687 -0.085330 -0.091862 0.030184 -0.135547 0.048921 0.327647 -0.042723 0.087766 -0.050391 -0.338418 0.163594 -0.073070 -0.017298 0.136695 0.002582 0.097386 0.107053 0.487625 -0.222790
stop 0.109877 0.072441 0.111501 0.024603 0.146447 0.085208 0.134523 -0.024203 0.015617 -0.084339 -0.186356 0.045830 -0.047659 0.180776 0.232218 -0.218371 -0.196798 0.158600 -0.040023 0.010844 -0.079601 0.069013 -0.082298 0.265297 -0.011469 0.097838 0.081827 0.126182 0.022605 -0.135459 0.059372 0.031434 -0.075308 -0.119567 -0.033555 0.140740 -0.034149 0.093798 0.025868 -0.100489 -0.138235 0.084781 -0.010804 0.114469 0.163040 0.163755 -0.135250 0.002323 0.186733 -0.083654
very -0.155515 0.134441 0.096073 0.022594 0.178777 -0.049162 -0.066870 0.054708 -0.096079 -0.223007 0.195158 -0.138201 0.070593 -0.107163 -0.148771 -0.020511 0.218693 -0.077990 -0.032683 -0.026471 0.025911 0.047889 0.030921 -0.051643 -0.098350 0.026733 0.033058 0.004943 -0.045456 0.113520 -0.025007 -0.048534 -0.163879 -0.006538 -0.151433 -0.123533 -0.041645 -0.037450 0.001993 0.071680 0.160809 -0.095822 0.019181 0.053619 -0.024414 -0.123258 0.123993 0.019809 -0.194253 -0.164952
Are -0.221364 0.054401 -0.247403 -0.011601 -0.028281 -0.121792 0.083163 -0.205858 -0.006318 -0.129084 0.066976 -0.068276 0.020552 -0.306907 0.080063 0.045407 0.025363 -0.029057 0.027852 0.130901 -0.100116 -0.020289 0.203658 0.177686 -0.049508 -0.025453 0.001647 -0.167103 -0.218631 0.003190 -0.131742 0.052831 0.113712 -0.105740 0.059246 -0.021813 -0.319306 0.050191 -0.055370 0.108075 0.268792 -0.198954 0.127651 0.019210 -0.114274 0.011178 -0.138054 -0.136160 -0.374703 0.180993
Do -0.127415 0.131879 -0.068040 0.042354 0.136907 -0.067271 0.106731 -0.118205 -0.064782 -0.211861 0.040546 -0.086886 -0.002789 -0.110027 0.033014 -0.078490 0.018966 0.051036 -0.050974 0.071985 -0.045659 -0.023497 0.098946 0.206788 -0.108724 0.029955 0.081353 -0.066948 -0.141359 0.024703 -0.024982 -0.000924 -0.010859 -0.086975 -0.020228 0.022157 -0.199882 0.027502 -0.016946 0.052651 0.141997 -0.095383 0.120541 0.087741 0.020940 0.013955 -0.120342 -0.017962 -0.239364 0.006609
He 0.005962 0.052708 0.125748 -0.006729 0.142935 0.003492 -0.077395 0.082108 -0.077639 -0.080682 0.001480 -0.044157 0.021490 0.045327 -0.107114 -0.060669 0.125886 -0.027602 -0.046749 -0.077863 0.070317 0.074780 -0.079373 -0.088348 -0.041133 0.022774 0.032622 0.072063 0.067629 0.074660 0.067972 -0.069653 -0.142357 0.010896 -0.089005 -0.038773 0.090010 -0.026693 0.067876 0.038609 -0.018330 0.065141 -0.032779 0.033467 0.079121 -0.066550 0.099237 0.071881 0.090177 -0.217522
Hey, -0.018127 0.105933 0.172432 0.067231 0.197323 0.006872 -0.042546 0.078184 -0.116202 -0.202847 -0.010276 -0.060297 0.025765 0.047538 -0.043300 -0.075041 0.135782 -0.042984 -0.048126 -0.025214 -0.020186 0.074725 -0.032380 0.039767 -0.092616 0.069344 0.077870 0.010643 0.037015 0.071819 0.008983 -0.012634 -0.148205 -0.015445 -0.096934 -0.048298 0.036841 0.018163 0.046889 0.007562 0.038427 0.020680 -0.012573 0.091076 0.092840 -0.023499 0.068740 0.086156 -0.000422 -0.210476
New 0.035192 0.013449 0.119545 0.030865 0.079806 0.035226 -0.066867 0.197093 -0.063428 0.062045 -0.122310 0.138103 -0.011765 0.159895 0.036062 -0.104084 0.061306 -0.013911 0.077900 -0.050992 0.106454 0.072285 -0.156253 -0.053023 0.125566 0.044531 -0.106986 0.067619 0.137329 0.035149 -0.057177 -0.090470 -0.096125 0.142900 -0.053516 -0.055705 0.276999 -0.111394 0.144907 -0.052234 -0.210780 0.140043 -0.095907 -0.118119 0.119080 -0.039392 0.070108 0.098650 0.317886 -0.176070
She's 0.132758 0.073596 0.155761 0.042519 0.184117 0.083986 -0.025743 0.145541 -0.092808 -0.013686 -0.070335 0.011023 -0.029609 0.172342 -0.058517 -0.158483 -0.003333 0.038442 0.032166 -0.062967 0.035983 0.103127 -0.121660 -0.052722 -0.051806 0.057935 0.019331 0.076266 0.128552 0.018258 0.083418 -0.036962 -0.155220 0.012834 -0.071617 0.020415 0.142388 0.015233 0.058240 -0.036879 -0.097899 0.138858 -0.007444 0.046073 0.199750 0.008903 0.005135 0.050386 0.198782 -0.192579
Tootsie, 0.079025 0.118795 0.380727 0.134288 0.529759 0.064460 0.015628 0.270933 -0.186432 -0.218969 0.006515 -0.162109 0.040795 0.377580 -0.126947 -0.307643 0.092021 0.017725 0.046442 -0.146937 0.108223 0.233145 -0.074256 0.138311 -0.239120 0.220228 0.152071 0.151851 0.183267 0.059038 0.173805 0.031743 -0.402635 -0.022852 -0.249211 0.083833 0.162324 -0.004953 0.080015 0.007768 -0.076357 0.096245 0.083227 0.266765 0.347071 0.062664 -0.044120 0.242345 0.290803 -0.314054
all. 0.000260 0.133829 0.149016 0.052944 0.187286 -0.012455 -0.026311 0.062500 -0.143415 -0.191896 0.109576 -0.098176 -0.035617 0.001532 -0.124287 -0.183185 0.134217 0.055237 -0.031879 -0.014617 0.034333 0.079403 -0.044073 0.077165 -0.120649 0.041536 0.227214 -0.055103 -0.109141 0.062900 0.018856 -0.067237 -0.180061 -0.034617 -0.126405 -0.031446 -0.026773 0.000794 -0.015427 0.038274 0.051570 -0.044517 0.087145 0.130039 0.052788 -0.073453 0.042061 0.053544 -0.049918 -0.228147
beautiful 0.014810 -0.032576 0.111950 -0.020584 0.060286 0.018948 -0.071258 0.159372 -0.032827 -0.000830 0.046378 -0.028803 0.028203 0.038836 -0.124018 0.016297 0.166328 -0.088013 -0.002001 -0.082264 0.061988 0.070962 -0.133709 -0.139006 0.001302 0.027445 -0.007158 0.037455 0.098691 0.142970 0.034686 -0.077919 -0.092927 0.060715 -0.124765 -0.080668 0.145161 -0.117402 0.047667 0.042108 -0.000688 0.047559 -0.052414 -0.058597 -0.024707 -0.103745 0.157596 0.023130 0.065007 -0.194504
do. -0.165456 0.041538 -0.226029 -0.039482 -0.035967 -0.105368 0.106187 -0.189651 0.107437 -0.082376 0.105235 -0.138551 -0.003738 -0.058437 0.002333 0.026320 -0.122606 0.042299 -0.034703 0.031115 -0.018810 -0.103122 0.202275 0.228889 -0.029115 -0.007765 0.143422 -0.051999 -0.149659 -0.100127 -0.060740 0.060507 0.122999 0.037238 0.016385 0.112591 -0.237072 -0.039586 -0.079122 -0.008946 0.050769 -0.093814 0.170370 -0.024722 -0.042874 -0.000835 -0.208406 -0.079882 -0.228684 0.130154
here, -0.088653 0.142370 0.434372 0.048398 0.197011 -0.040000 -0.132813 0.068426 -0.181118 -0.207890 -0.017828 -0.117493 0.063073 -0.028925 -0.078866 -0.170176 0.206088 -0.104265 -0.118848 -0.080387 -0.005378 0.224503 0.077555 0.076278 0.030894 0.205140 0.127476 0.063674 0.068025 0.202636 -0.006383 -0.021501 -0.264070 0.051335 -0.253165 -0.058358 0.096613 0.088848 0.147892 0.013444 0.100380 0.032249 -0.107261 0.212970 0.162050 -0.067906 0.226108 0.078254 -0.013426 -0.364656
in. -0.241373 0.088422 0.248710 -0.007561 0.204948 -0.084713 -0.173473 0.079285 -0.210214 -0.220182 0.102195 -0.168363 0.072164 -0.211429 -0.165726 -0.077745 0.275191 -0.178962 -0.073828 -0.070051 0.058786 0.142462 0.172435 0.002632 0.096404 0.106483 0.156730 0.001941 -0.070009 0.204596 -0.026032 0.000718 -0.221884 0.046156 -0.195965 -0.081525 0.008367 -0.000336 0.064160 0.066981 0.205347 -0.068747 -0.002915 0.150151 -0.002910 -0.212465 0.195169 0.034166 -0.217932 -0.264248
know. 0.018807 0.096809 -0.114827 -0.006497 0.001361 0.002382 0.090560 -0.197735 0.079563 -0.059620 -0.118569 -0.025186 -0.009389 0.145237 0.183770 0.006010 -0.244532 0.082059 -0.035680 -0.006829 -0.126449 -0.036841 0.177893 0.304695 -0.105377 0.067343 0.068016 -0.015865 -0.027993 -0.185853 0.035642 0.134399 0.127958 -0.024206 0.118100 0.150314 -0.218737 0.074457 -0.055834 -0.068932 -0.091297 0.005061 0.157614 0.037964 0.116101 0.163018 -0.250064 0.038115 0.017645 0.174918
listen -0.007905 -0.070110 -0.214001 -0.004733 -0.000809 0.070368 0.230542 -0.021928 0.195830 0.147348 -0.128217 -0.014063 -0.129770 0.146871 0.225779 -0.091490 -0.310758 0.090919 0.034131 0.166491 -0.021968 -0.124675 -0.019719 0.261582 0.143977 -0.001798 -0.045916 0.072733 -0.031571 -0.249972 -0.183892 0.048902 0.110364 0.077387 0.092916 0.156095 -0.011841 0.004023 -0.015918 -0.138619 -0.180824 0.075269 0.087332 -0.121854 0.097401 0.133219 -0.319216 -0.086420 0.095717 0.159490
make 0.101708 0.039343 0.050636 -0.005297 0.057981 0.030609 0.047320 0.008892 -0.039682 -0.019901 -0.123352 0.070476 -0.065611 0.127243 0.066278 -0.080244 -0.084118 0.067382 -0.040308 0.024322 -0.001704 -0.003823 -0.080971 0.022303 -0.016979 0.026895 -0.022242 0.033562 0.073079 -0.087419 0.055744 0.021342 -0.001765 -0.009928 0.065618 0.021388 0.027468 0.026159 0.027222 -0.102085 -0.117330 0.026523 0.018614 0.024838 0.090613 0.071296 -0.054545 0.036532 0.153408 -0.049771
much 0.148018 0.117037 0.232267 0.080756 0.160856 0.048061 0.003195 0.100896 -0.046964 -0.121046 -0.089688 -0.020087 -0.062307 0.222174 -0.047610 -0.102443 0.106376 0.069488 -0.092892 -0.085050 0.029447 0.063380 -0.253684 -0.073989 -0.141352 0.104857 0.048115 0.088973 0.124071 0.102422 0.023597 -0.108697 -0.151772 -0.009388 -0.152121 -0.030222 0.196080 -0.018245 0.024034 -0.049594 -0.188735 0.116279 -0.147694 0.030896 0.132208 0.031420 0.089472 0.167029 0.291790 -0.253245
no 0.068521 0.052929 0.102703 -0.007956 0.126936 0.091178 0.048062 0.079383 -0.029285 0.000808 -0.034620 0.003608 -0.034129 0.211447 -0.007580 -0.160812 -0.035545 0.126638 -0.033074 -0.018026 0.089987 0.027156 -0.138117 0.015600 -0.037041 0.018619 0.073374 0.056869 0.093096 -0.030130 0.048698 -0.082593 -0.151922 0.019206 -0.076726 0.054810 0.147158 -0.051162 0.040338 -0.093268 -0.230607 0.106595 0.022219 0.001643 0.142099 0.022957 -0.017477 0.070426 0.189037 -0.184327
not. -0.177130 0.122885 0.125598 0.050258 0.383528 -0.064829 0.002211 0.077099 -0.143837 -0.259458 0.238538 -0.299459 0.090350 -0.009704 -0.212716 -0.152527 0.161338 0.025933 -0.082025 -0.072450 0.183343 0.024588 0.039024 0.091750 -0.054113 0.071592 0.259795 0.086997 -0.094579 0.104848 0.092393 -0.066293 -0.229291 0.013558 -0.257225 0.081022 -0.008872 -0.057364 0.014272 0.091436 0.136981 -0.031457 0.105321 0.133840 -0.010655 -0.180964 0.008462 0.080515 -0.215939 -0.246871
now 0.034044 -0.081079 -0.046642 0.012300 -0.027551 -0.001989 0.044860 -0.011706 0.046054 0.059506 0.016959 -0.049242 -0.028872 0.024406 0.026365 0.003950 0.023777 0.023482 0.026542 0.039347 0.062231 -0.034706 -0.034078 0.014151 0.039330 -0.018980 0.069878 -0.032492 -0.006234 -0.018291 0.004484 -0.013212 -0.021138 0.026725 -0.001242 0.044901 0.039213 -0.004977 -0.021442 -0.054760 -0.074038 -0.040069 0.034496 -0.032577 -0.081483 0.007246 -0.025716 0.002520 0.015414 0.024554
own 0.102281 0.088061 0.297471 0.043471 0.206388 0.146389 -0.048897 0.221517 -0.216226 0.034176 -0.117807 0.182824 -0.008731 0.188467 -0.145713 -0.139475 0.067387 0.122800 0.114293 -0.128138 0.139954 0.040700 -0.219149 -0.149369 0.088318 -0.065222 -0.006177 0.085715 0.043401 0.041875 0.056634 -0.019977 -0.179845 0.099377 -0.106906 -0.083880 0.313380 -0.013591 0.025364 -0.094883 -0.228122 0.159462 -0.027457 -0.027409 0.168158 -0.048488 0.037436 0.204110 0.370727 -0.224486
show 0.032420 -0.011404 -0.023107 0.003243 -0.120373 -0.013483 -0.004432 -0.004390 0.007501 0.069726 -0.080201 0.081032 -0.048960 -0.023921 0.030910 0.053106 0.024974 -0.020795 0.051904 0.078130 -0.058924 -0.034662 -0.096309 -0.121194 0.016994 -0.060193 -0.073273 -0.022989 -0.008663 0.032692 -0.061826 0.008933 0.018342 0.019590 0.100776 -0.079458 -0.004339 -0.039687 -0.000079 -0.052544 -0.003962 0.027477 -0.065256 -0.062034 -0.046734 0.043375 0.080782 -0.020842 0.047667 0.046954
sun 0.127927 0.071675 0.385249 0.134646 0.374636 0.106307 -0.057474 0.304596 -0.436298 -0.126025 -0.005977 0.084138 0.086895 0.100901 -0.197633 -0.191526 0.287176 -0.068196 0.080781 -0.117418 0.202392 0.303821 -0.277250 -0.271505 -0.046767 0.146224 0.035024 0.078634 0.322404 0.264792 0.112867 -0.207952 -0.340414 -0.048251 -0.286723 -0.022103 0.444992 -0.209964 0.138859 0.128671 -0.201277 0.197217 -0.158736 0.062689 0.221026 -0.093925 0.260397 0.141444 0.420066 -0.542217
wait 0.050814 -0.068924 0.067368 0.027217 -0.176798 -0.014235 0.021021 0.057159 0.244409 -0.007898 0.099116 -0.010487 -0.025365 0.143183 -0.056642 0.166835 0.087107 -0.062335 -0.081106 0.013232 -0.068842 -0.038266 -0.141540 -0.174012 -0.149758 -0.047978 -0.143202 0.017681 0.078873 0.026289 0.046995 0.008937 -0.029583 0.070593 0.011811 -0.157028 0.009182 -0.062476 -0.039494 -0.095560 0.027630 0.062377 -0.171517 -0.159351 -0.113433 -0.017523 0.215730 0.009307 -0.055838 -0.011555
wanna 0.033615 0.090112 0.018766 -0.038061 0.052946 0.054949 0.010543 -0.074748 0.032836 -0.017542 -0.071767 -0.028487 -0.012428 0.119525 0.076738 -0.075708 -0.143430 0.090273 -0.040749 -0.032717 -0.043633 0.020109 0.048130 0.202242 -0.059352 0.062531 0.063225 0.057454 0.014185 -0.109014 0.070516 0.029383 0.032469 -0.004073 0.029249 0.135798 -0.084693 0.059153 -0.033148 -0.062849 -0.047106 0.040666 0.057540 0.106427 0.107179 0.108227 -0.102683 0.011573 0.072533 0.005973
where 0.119006 -0.011931 -0.101833 0.029426 -0.064172 0.041341 0.081771 -0.068790 0.022545 0.068383 -0.154451 0.095008 -0.054336 0.156102 0.128859 0.006837 -0.161436 0.083650 -0.011416 0.012627 -0.050831 -0.029396 -0.068267 0.033496 -0.004552 -0.017760 0.000545 0.021930 0.028519 -0.111430 -0.011845 -0.031965 0.094382 0.025654 0.085134 0.120622 0.048892 -0.032860 0.000413 -0.068931 -0.230718 0.079776 0.015376 -0.049754 0.066955 0.129419 -0.103309 0.015904 0.196036 0.045478
Ain't 0.017095 0.017091 0.047852 0.050055 0.109321 -0.027932 -0.081679 0.034100 -0.183141 -0.013507 -0.044973 0.086485 0.022047 -0.083049 -0.051033 -0.017175 0.097803 -0.096672 0.008868 -0.019262 0.083400 0.049669 -0.038262 -0.103422 0.002661 0.021934 -0.025573 -0.003160 0.080541 0.072565 -0.023082 -0.042182 -0.010512 -0.045992 -0.015363 -0.026685 0.119986 0.011601 0.077670 0.084882 -0.036432 0.000807 -0.022382 0.058331 0.009115 -0.083885 0.065205 0.042541 0.052000 -0.054570
Goodbye, -0.104469 0.143419 0.357801 0.136639 0.604597 -0.064639 -0.041285 0.262152 -0.251508 -0.365400 0.167248 -0.328925 0.094055 0.205337 -0.230824 -0.280067 0.228243 -0.120715 -0.013560 -0.157083 0.196951 0.183493 0.006752 0.116298 -0.237967 0.234777 0.243901 0.127189 0.114830 0.145879 0.134238 -0.013167 -0.452628 -0.030891 -0.337681 0.023693 0.079630 -0.110977 0.064086 0.088143 0.101772 0.000112 0.104252 0.298873 0.266688 -0.104140 0.013955 0.198710 0.042782 -0.401955
Jed. -0.152866 0.318992 0.444061 0.124026 0.586112 -0.062731 -0.097857 0.260671 -0.411006 -0.392673 0.201806 -0.285953 0.045700 -0.009834 -0.316017 -0.298495 0.275019 -0.098611 0.003578 -0.162463 0.172692 0.229423 -0.004673 0.010841 -0.182647 0.176700 0.402015 0.165085 0.007058 0.263849 0.177741 -0.083690 -0.485139 -0.091089 -0.466889 -0.046914 0.079895 -0.070226 0.083694 0.124515 0.205327 0.106905 0.011548 0.230950 0.184103 -0.217170 0.169841 0.066458 -0.147396 -0.577738
Mahoney 0.192784 -0.133992 0.183013 0.038038 0.101474 0.138961 -0.068609 0.286502 -0.265776 0.123281 -0.023932 0.236020 0.051436 0.116696 -0.099612 -0.063683 0.215643 -0.061914 0.192479 -0.136908 0.160853 0.162451 -0.357865 -0.416272 0.046775 -0.007433 -0.006882 -0.062650 0.313032 0.241768 0.044055 -0.185764 -0.220858 -0.001180 -0.168260 -0.103495 0.390762 -0.209981 0.092577 0.096111 -0.178702 0.077259 -0.193152 -0.001902 0.037986 -0.064895 0.248596 0.162654 0.456518 -0.288641
Where's -0.041914 0.105301 0.314141 0.073305 0.416117 0.067310 -0.035920 0.315790 -0.185443 -0.188265 0.102118 -0.087891 0.069945 0.095770 -0.281553 -0.143347 0.226078 0.100012 0.008053 -0.218534 0.249950 0.043817 -0.222111 -0.102843 -0.017505 -0.065849 0.066759 0.062599 -0.016633 0.095560 0.115339 -0.093143 -0.230672 -0.005676 -0.216304 -0.122693 0.191750 -0.008966 -0.028526 0.026054 -0.053540 0.085606 0.063393 -0.073680 0.207354 -0.138751 -0.078798 0.214693 0.173515 -0.294356
Why -0.053052 0.124336 -0.021794 0.027767 0.070063 -0.032773 0.068536 -0.128080 0.023149 -0.129762 -0.014955 -0.115340 0.016197 0.063848 0.083892 -0.065934 -0.075562 0.046517 -0.054806 0.011568 -0.052816 -0.011717 0.147474 0.258867 -0.110229 0.081357 0.129730 -0.014636 -0.054585 -0.084176 0.024626 0.086805 0.005927 -0.032433 0.016804 0.075165 -0.192823 0.078875 -0.028768 -0.017468 0.062138 -0.062781 0.140584 0.096540 0.076500 0.089607 -0.180023 0.051645 -0.070704 0.053764
anything 0.065712 0.055984 0.070166 -0.002584 0.047429 0.060606 0.049793 0.036484 0.017591 -0.003360 -0.055821 0.015090 -0.025556 0.181499 0.059521 -0.082551 -0.061133 0.121725 -0.033792 -0.043661 0.026426 0.002323 -0.066857 0.115178 0.022532 0.001204 0.010172 0.096450 0.025290 -0.053490 0.042751 -0.011477 -0.028406 0.019678 -0.002803 0.054952 0.075891 0.022380 -0.004602 -0.045452 -0.137444 0.103244 -0.017503 0.023021 0.099963 0.079701 -0.026390 0.038277 0.162392 -0.095016
big 0.043330 0.006450 0.048211 -0.006527 -0.049279 0.025159 -0.030707 -0.014095 0.018397 0.002814 0.002787 0.016956 0.024414 -0.030240 -0.010940 0.058766 0.061172 -0.012959 -0.019875 0.014765 -0.052317 0.012888 -0.054248 -0.092154 -0.057649 -0.018928 -0.047722 -0.006136 0.020054 0.025072 0.055067 0.030257 -0.009948 -0.039423 0.039132 -0.099671 0.005349 0.011170 -0.070646 -0.018875 0.026575 0.013262 -0.077931 0.010708 -0.033720 -0.020454 0.068493 -0.011709 0.030680 0.015810
by 0.113011 -0.095577 0.087373 0.023529 0.017734 0.063939 -0.017661 0.146834 -0.059923 0.078095 -0.066840 0.055766 -0.011096 0.086387 -0.083696 -0.010298 0.112902 -0.068489 0.062660 -0.009934 0.066465 0.086287 -0.172490 -0.175346 0.052672 -0.009381 -0.039489 0.010606 0.164660 0.067613 -0.022721 -0.092326 -0.117643 0.014448 -0.076405 -0.057496 0.229489 -0.090442 0.077284 0.024850 -0.126453 0.065583 -0.100668 -0.054404 0.023353 -0.055138 0.150050 0.061426 0.184023 -0.164264
