the -0.263233 -0.466515 -0.936174 0.650846 -0.995504 0.610210 0.308241 -2.427926 -0.280814 -0.055132 -0.107295 -0.286721 0.214556 -0.544816 -1.345590 -1.036582 0.846350 0.630343 -0.252238 0.203408 -0.299159 -1.890438 -1.244864 -0.481916 -0.460853 -1.539957 0.022667 0.876381 -1.268159 -1.307982 -2.219783 0.277738 0.784830 0.223886 -1.283218 1.000643 -0.163145 0.206656 1.411589 0.384060 -0.745367 1.624437 -1.235526 -1.666384 1.308490 -0.561013 0.302768 -1.322008 0.606819 1.021720
I -0.323976 -0.402395 0.264502 -0.394555 0.358758 1.049927 2.003497 -0.264426 0.398895 0.652017 -0.778114 1.192972 0.558951 -1.445028 -1.035286 -0.480738 -0.125349 0.224783 1.299462 0.180435 -0.246962 -0.196037 -0.386713 0.717606 1.240248 -0.592087 -0.453146 -0.794291 -0.035093 -0.749147 -0.082087 -0.700661 1.167289 1.063775 -1.754777 -0.629961 -1.486386 0.685634 -0.978848 0.605444 -0.683230 1.247107 -1.650998 0.027835 2.444628 0.498052 -0.761735 -0.742673 1.243625 0.345810
to -0.843693 1.374139 -0.228607 1.579937 0.351240 0.363498 1.360511 -0.857537 0.055064 -1.214882 -0.525589 0.937001 0.087711 0.387968 -1.412754 -1.943139 -1.165190 0.829044 0.446944 -0.461412 -0.344417 0.466023 1.142227 0.680295 -0.959645 -0.618164 0.500770 -0.130130 -1.885103 -0.120491 -0.883601 -0.129522 1.928831 0.720398 0.101004 0.911349 0.776510 1.884811 0.212233 -0.001285 0.010696 0.880978 -2.349888 -1.040829 2.272462 0.082747 -0.264368 -0.749236 0.476276 -0.320876
you 0.117717 0.348317 -0.171595 0.672172 -0.358132 0.869007 0.234810 -0.927296 0.276239 -0.490535 -0.331460 0.534567 0.222722 0.910141 0.846082 -0.122588 -0.236226 0.071754 1.072905 -0.140936 -0.451903 -1.058586 0.768696 0.380682 0.181695 -0.695215 -0.482153 -0.866692 0.614476 -0.070970 -0.653683 -1.307679 1.824022 2.269237 -0.703258 -0.826611 0.582936 -0.264031 -0.361777 0.365109 -0.395921 1.074202 -1.751304 0.272109 2.322678 -0.523536 -1.046114 -1.887674 0.412490 0.866405
- 0.130202 -0.006785 0.474092 -0.142199 -0.545522 1.279902 0.450876 -1.033429 0.999679 0.384693 0.364955 0.681060 1.067207 -0.237032 0.466933 -1.526483 -0.348614 0.204250 -0.096195 -0.299684 -1.323183 -0.734847 0.719272 1.353145 0.702967 0.673637 -0.055751 0.499606 -0.604404 -1.346705 0.900186 -0.088645 1.546673 2.284096 -0.788430 -0.275710 -1.951122 -0.489833 -1.332219 -1.886741 0.178958 0.568246 -0.449674 -2.343355 0.691451 -1.154235 0.913473 -1.680078 -0.320771 2.408457
a 1.037264 0.886314 -0.947989 -0.530739 -0.312386 1.370765 1.153285 -0.227860 1.133546 -0.789419 -0.022828 0.472925 1.366657 0.747624 0.420554 -0.727281 -0.313340 -0.849514 0.488090 -0.728586 -0.417927 -0.546709 -0.279408 1.012224 -0.243200 -2.240235 0.083785 0.168448 -0.320037 -1.847472 -1.170735 -0.127227 0.637743 -0.047278 0.349939 0.406060 -1.392582 0.762814 -0.842418 0.038228 -1.229864 0.457820 -1.615752 -0.113761 2.324451 -2.107097 -1.620357 0.478140 1.418564 0.182144
of -0.076354 -0.244302 -1.956199 0.328518 -1.017067 1.008982 0.856725 -2.122374 -0.971098 -0.501019 0.289718 0.648723 -0.656949 0.467785 -2.420855 -0.761778 1.451330 -1.080617 -0.133321 0.508227 -2.460213 0.267739 -0.092437 0.657686 -0.877038 -2.115501 1.299634 -0.622248 -0.313567 -1.226784 -0.402556 0.398391 0.938746 0.279478 0.078243 -2.291338 -0.474380 0.802670 -0.132048 0.281363 -1.441184 0.434669 -2.127196 -0.007736 0.207179 -0.199758 0.298430 -0.637687 0.688880 1.147551
is -0.760043 1.033538 -0.861117 0.543361 -1.100326 1.496020 0.015517 -1.067164 0.272415 -1.500279 -0.322637 0.709187 0.554714 1.108957 -0.547565 -0.407048 -0.497628 -0.682231 0.679228 -0.886367 -1.603478 0.366616 0.614832 0.330642 -0.600783 -1.546055 -0.606179 -0.748736 0.290239 -0.413165 -0.449098 0.469139 -0.053416 0.385869 -1.449971 0.213846 -1.147562 -0.133275 0.659096 0.616522 0.093557 0.810147 -0.317680 -0.771046 1.251522 -0.135599 0.375157 -0.817108 1.300513 -0.150259
and -0.213516 -0.018882 -0.419483 0.419008 -0.621795 0.342627 1.513735 -1.612797 0.046694 -2.161786 0.053521 0.754667 0.152975 -0.428599 -0.497896 0.500913 -0.917210 -0.222274 1.331684 -0.066262 -1.531830 -0.849902 0.032996 -0.066243 -1.734849 0.171890 -1.356750 0.547619 0.152452 -1.757082 -1.843185 -0.725194 0.917050 0.111171 0.298881 -0.048158 0.148345 -0.134129 -0.366674 0.019031 -0.221234 0.005374 -0.855774 -0.107305 0.443847 -0.017991 -0.318068 -1.114224 0.961371 -0.410508
You -0.255268 0.076274 0.173897 -0.202797 0.188156 1.203750 0.132667 -0.736007 0.146909 -0.247068 0.384954 0.448399 -0.000751 -1.228013 0.515325 -0.619246 0.426240 -0.196306 0.381891 0.894638 -0.531187 0.236607 0.714743 0.769766 0.516166 -0.214333 -0.307414 -0.604443 0.608697 -0.578075 -0.077714 0.338086 1.696323 0.876005 -0.756379 0.049706 -0.064781 0.680032 -0.694794 0.098034 -0.244178 0.330667 -2.086223 -0.864777 1.831555 -0.577258 -1.162435 -0.785561 1.073680 1.337789
in -0.599517 0.016221 -0.774870 -0.693419 -1.163230 1.092203 0.358848 -0.599282 0.645135 -1.754465 -0.876116 1.139214 1.528529 -0.279249 -0.211620 -0.775490 0.881836 -0.145966 1.302891 -0.479566 -1.400905 -0.949699 -0.977214 -0.962883 0.028065 -1.512472 0.671858 0.615201 -0.285137 -0.772542 -0.852259 -0.026297 0.528818 0.058149 -0.755860 -0.053888 -0.125577 0.074824 -0.273862 0.372401 0.849653 1.022230 -1.171703 -0.761833 1.400175 0.058430 -0.625873 -0.873548 -1.075112 0.608142
that -0.385002 0.395517 0.034733 -0.906466 -0.226729 1.385093 0.818562 -1.582780 -0.405101 -0.186039 -0.306205 0.281179 0.649348 -0.049508 -0.504701 0.550749 -1.180250 0.114371 0.295342 -0.072886 -0.551457 0.547483 -0.355954 -0.048418 -0.443458 -0.656665 -0.000048 -0.045285 0.149997 -0.058895 -1.143658 0.280102 0.796379 0.846749 -0.642447 -0.667971 -0.328510 0.803106 0.519365 -0.060674 -0.737557 1.151567 -0.488861 -0.636379 2.152763 -0.690338 0.144230 -0.981850 0.134976 0.218819
I'm -0.195587 0.427067 0.288478 0.990019 0.454785 2.148041 0.688609 -0.650607 0.578056 0.133239 -0.565566 1.474284 0.125968 -0.349344 -0.302127 -1.297611 -0.024099 -0.221589 -0.343362 -0.314035 -0.559483 -1.105617 0.843341 0.350113 -0.282110 -0.693043 -0.417884 -0.964677 1.366444 0.161535 0.086708 0.426217 1.626523 1.053343 -0.794690 -0.047350 -1.198569 1.202740 0.162127 -1.369358 -1.155313 0.846072 -0.820982 -0.127909 1.260976 0.848358 0.515893 -0.620595 0.456083 0.106190
your 0.398529 -0.573969 -0.574548 -0.019243 0.907410 1.238543 0.517165 -1.293830 -0.350395 -0.432065 0.728305 1.159849 -0.247992 0.588005 0.512218 -0.782018 0.264262 -0.727076 1.554840 -0.644188 -0.144650 0.177245 1.207497 -0.731284 0.182489 0.389859 -0.010431 0.639702 0.421807 -1.110058 -0.719161 -0.900878 0.447968 0.642682 -1.245919 -0.636097 -0.726121 0.062097 0.451091 -0.901233 -0.171561 1.557096 -2.624696 -0.381959 0.994080 0.672487 -0.098690 -0.406850 0.035159 0.557664
for 0.429214 0.348009 0.212298 0.855675 -0.144413 0.764392 1.916926 -0.421147 0.087025 -1.035336 0.055255 1.032753 0.217987 0.566590 -0.838502 -0.610804 -0.617539 -0.297482 0.192439 -2.192426 0.124205 -0.525603 -0.144307 0.669113 -0.448003 -0.899945 -0.056866 0.539719 0.194840 -0.180583 -0.724013 -0.431980 1.214103 0.795866 -0.754406 0.037402 -1.443376 0.486786 0.968439 -1.425594 0.182232 0.104236 -1.143749 -0.377225 0.593099 0.012471 -1.459139 -1.320377 0.145649 -0.412599
my 0.092584 -0.248712 0.102483 0.304772 0.820802 1.388293 0.829846 -1.339055 -0.057008 -1.127645 0.903918 1.204918 -0.562305 0.858906 1.129015 -1.016725 0.477141 0.054940 0.907170 -0.375534 -0.996864 0.326557 0.208513 -0.055888 0.290259 0.316209 0.171709 0.026415 1.013147 -0.908541 -0.794964 -1.081502 0.031152 -0.259399 -1.767301 -0.966052 -0.817647 0.628188 0.522962 -0.349275 -0.467956 1.171179 -2.334212 -0.606970 1.873736 0.449343 0.004581 0.419908 -0.528038 0.524715
have -0.760171 0.493839 -0.319864 0.872141 -0.128331 0.814824 0.963896 -0.841081 -0.255282 0.360246 0.331195 0.162920 0.170831 0.047825 0.020805 0.190305 -0.136074 0.632779 0.632501 -0.905562 -0.681506 -0.743567 0.461567 -0.081687 -0.439057 -0.839824 0.530585 0.559871 0.323209 -0.513301 -0.259346 -0.351768 1.602328 0.201159 -0.082789 -0.513935 -0.127295 0.237383 -0.480870 0.201691 0.510980 0.266035 -1.965361 -0.151764 1.753182 -0.192877 -0.939043 -1.348360 1.185352 0.314938
it -0.355599 0.202903 -0.391941 -1.065056 0.923854 0.282377 0.567563 -1.841829 0.183626 0.320052 -1.041036 0.003113 0.423834 0.433702 -1.151732 -0.400710 -0.495539 0.080210 1.748184 0.244450 -0.738746 0.633123 -0.271248 0.041441 -1.191901 -0.693551 -0.501861 -0.459658 0.710652 -0.611612 -0.424994 0.596721 0.405015 1.372911 -0.249487 -0.126069 -0.338547 0.202243 -0.713897 -0.447231 0.341274 0.142118 -1.349238 -0.778889 2.237204 -0.826362 0.614060 -1.440664 -0.108127 0.462712
are 0.557732 0.311686 0.455706 1.145085 -0.919221 1.756273 0.134042 -1.407257 0.147979 -1.050695 0.022585 -0.764511 0.836938 -0.220394 -0.276032 -0.605035 0.285305 0.081405 0.016304 -0.218721 -1.130512 -0.617043 1.093044 0.752701 -0.536777 -1.444761 -0.740132 0.104358 1.021428 -0.464309 0.398971 -0.374345 0.700478 1.169115 -0.804354 -0.205473 0.166820 0.010972 0.522831 -0.014063 0.786534 1.294328 -1.228642 -0.089965 0.981116 0.258397 -0.614604 -1.119825 0.463907 -0.249129
be -0.782211 1.507164 -0.898618 0.530945 0.265359 1.386176 0.882805 -0.759169 -0.129088 -0.203554 -0.061023 -0.316191 -0.314323 -0.670736 0.089202 -0.348050 0.859925 0.035272 0.052939 0.117771 -1.279485 -0.345150 0.786023 0.257880 -1.225860 -0.857144 0.217811 0.207673 0.418295 0.333827 -0.432608 -0.341518 0.992449 -0.290181 -0.026586 1.434370 -0.562260 0.745994 0.222566 -0.380789 0.615141 -0.038480 -1.406584 -0.511320 2.229685 0.090680 -0.184112 -1.075223 0.550763 0.203379
this 0.249733 0.131868 -0.491301 -0.921516 -0.583513 0.907027 0.668453 -0.857384 -0.111053 -0.877303 0.628947 0.596057 0.831471 0.515043 -0.166367 -0.484835 -0.538975 0.230959 0.354091 -0.461901 -0.749038 0.554196 -0.725463 -0.754825 -0.408191 -0.836590 -0.622226 -1.066301 -0.353251 -0.363506 0.030342 0.581777 0.097841 0.331343 -1.014369 -0.522962 -0.520600 0.865357 0.148371 -0.254919 -0.560644 0.569941 -1.409560 -0.770337 1.958387 -0.886577 0.433437 -0.764359 0.857506 -0.228648
we -0.022470 1.296336 0.433364 0.377354 -1.428622 0.417757 1.224151 -0.818031 -0.058268 0.040596 0.608282 -0.263160 -0.000539 -0.854422 0.053058 -0.135180 -0.187190 0.087057 1.339073 -0.457976 -0.430854 -0.836654 -0.750737 0.328211 -0.457258 -1.098004 -0.596684 -0.096224 -0.432150 -0.148538 -0.407103 -0.683162 1.323968 0.800543 -0.608716 -0.841620 -0.010411 -0.316761 -0.593804 0.003497 0.414959 1.475470 -0.949980 -0.492898 1.180112 -0.254954 0.247620 -1.257872 0.926953 -0.815900
me 0.286969 0.102644 0.426369 0.012109 0.657441 0.159502 -0.140527 -0.222168 0.149669 -0.868850 -1.164974 0.231559 -0.551058 0.927220 0.295913 -0.564630 -0.656915 -1.285574 0.969241 0.209759 -0.857796 -0.171940 -0.368970 0.294448 -0.659659 -0.465498 -0.237950 -0.881368 -0.126574 0.474472 -0.561158 0.683864 0.751596 2.129254 -0.683573 -0.007335 -0.488620 0.321060 0.485951 -0.299297 -1.574194 0.163860 -1.713547 -0.723634 1.583831 -0.437210 -1.081675 -1.467637 0.042988 1.107970
The -0.789674 0.146021 -0.365241 0.547192 -1.339391 0.452287 -0.564800 -1.758086 -0.110771 -0.605005 -0.211010 0.313859 0.645388 -0.287823 -0.515218 0.347870 -0.789605 0.255997 0.178187 -0.376666 -1.585454 0.175180 0.674611 -0.825044 -1.116642 -1.204088 -0.104884 0.322831 0.302230 -1.951450 -0.044389 0.956630 0.483314 -0.728170 -0.873406 0.335831 -0.703710 -0.421290 0.516857 0.835007 0.048391 1.223851 -0.635664 -0.982073 1.377098 -0.198208 -0.414973 -0.929446 0.765848 0.817878
on -0.118805 0.017429 -0.721407 -0.464388 -0.557626 0.502493 0.367032 -0.865320 -0.482219 -1.274781 0.403738 0.314771 -0.054043 -0.951871 -0.444642 0.062495 0.201291 -0.832243 0.815894 -0.827843 -0.420956 -0.189963 -0.679021 0.005561 -0.144108 -0.594607 0.175817 0.660238 -0.203309 -0.985241 -1.083431 0.438828 0.389576 0.986688 -0.704666 -0.236249 0.014947 -0.260810 0.424046 -1.126194 -0.539768 1.424434 -1.162077 -1.131249 0.997854 -0.094679 0.629825 -0.828617 1.211848 -0.264012
was -0.677865 0.574589 0.426616 -0.406750 0.740139 1.755805 1.771133 -0.951481 0.772394 -0.035258 -0.901607 1.202120 -0.420136 -0.564774 -0.029923 0.491099 -0.211659 0.186075 0.554785 0.278462 -0.730036 -0.091118 -0.150823 0.580154 -0.494500 -0.502592 -0.206092 0.373371 0.598326 -1.050209 -0.693165 0.499953 0.003769 0.379487 0.051218 0.020267 -0.647184 -0.118124 0.336307 0.473174 -0.396999 0.949912 -0.440535 -1.004495 1.915786 -0.122750 -0.566696 -0.259710 0.332230 -0.302444
not -1.487942 1.036601 0.296269 1.115025 -0.189242 2.262840 1.050250 -0.022693 0.330278 0.452518 -0.231933 0.339077 1.059912 0.726832 -0.286307 -1.168176 0.258727 -0.837249 0.286416 0.101088 -1.113025 -0.663814 0.512952 -0.879764 -0.904999 -0.553697 -0.263822 -0.810042 0.972534 -0.071753 0.003563 0.406057 0.923593 0.617934 -0.241466 -0.086364 -1.426044 0.171348 -0.160853 -0.517381 -0.325265 0.295224 -1.128216 0.060818 1.129806 0.152423 0.118563 -0.503240 0.581276 -0.177243
don't -1.397735 0.565546 -0.058549 0.012491 -0.432522 0.658301 0.851442 -0.294250 0.064671 0.354618 0.688806 0.324108 0.919819 -0.357022 -0.568355 -1.199588 -0.606974 -0.159707 0.900850 0.357197 -0.238195 0.514683 0.124895 -0.103138 0.349661 -0.391019 0.042362 -0.620604 0.475678 -0.285265 -0.053641 -0.701922 1.428082 1.336800 -0.979203 -0.050035 -0.416776 0.704247 -0.559422 -0.069278 -0.546403 0.747504 -2.124998 0.127919 0.528642 -0.062316 -1.138791 -0.496158 1.024921 0.712660
It's -1.098725 0.620896 0.441709 0.166803 -0.020077 1.101014 0.676100 -0.064483 0.370950 -0.420242 -0.068121 0.017132 0.420242 0.755937 -0.558635 -0.936316 0.824399 -0.535893 -0.050085 0.543321 -0.124282 -0.050759 0.156627 0.418002 -0.354711 -0.668004 -0.191062 -0.109169 0.911433 -0.914355 0.018296 0.885818 0.721898 0.312673 -1.646058 0.674767 -0.849894 0.432741 -0.043361 -0.620105 0.366661 -0.152561 -1.168799 -0.616891 1.620584 -1.047741 0.290362 -0.578455 1.084708 0.509014
with -0.464537 0.038510 -0.590309 -0.180675 -0.211281 1.577071 1.452225 -0.143319 0.083809 -1.466548 0.582339 0.612783 0.714583 0.605097 0.341274 0.084545 -0.071407 -0.640692 0.553172 -0.599087 -0.436885 -0.835380 -0.769724 -0.927212 0.095202 -0.306284 0.456334 0.220410 -0.476027 -1.140585 -0.797813 -0.244148 0.625587 0.590661 0.718629 0.478834 -0.042853 -0.291900 0.518374 -0.080669 0.071006 0.995909 -1.738123 -0.461265 0.639579 0.479044 -0.802218 -1.290683 0.918690 0.065249
What -0.041616 0.315921 0.093377 0.157224 -0.344313 1.907878 0.051888 -1.470129 0.398461 0.355353 -0.164574 -0.044571 0.534766 1.260157 0.146326 -0.336679 0.100544 0.304496 0.117554 -0.715326 -0.842130 -0.218177 0.570279 0.513837 0.917749 -1.331528 0.100354 -0.108993 0.938318 -0.242970 -0.028577 0.110801 0.752940 1.240721 0.071799 -0.363355 0.288024 0.108963 0.255752 0.399386 1.077015 1.952431 -0.705386 -0.326207 1.859448 -0.127217 -0.259868 -0.642698 0.673645 0.992348
do 0.276471 0.145396 0.025002 -0.039164 -0.672877 1.019753 0.412935 -0.570744 0.238860 0.115366 0.645013 0.326248 0.584288 0.604173 0.244564 -0.430749 -0.738441 0.240655 1.138199 -0.350752 -0.674924 0.024058 0.115672 -0.243534 0.698837 -0.973215 -0.708503 -1.000344 -0.017558 0.803217 -0.457658 -0.177204 0.917745 1.506998 -0.394771 0.083040 -0.349185 0.186694 -0.289430 -0.153731 0.420134 1.017316 -1.328218 -0.347654 1.131172 -0.548067 -0.544250 -1.238571 1.229079 0.728062
just -0.505197 0.990615 0.570076 -0.263752 -0.013349 0.775616 0.995276 -0.361202 0.153556 -0.303424 -0.201452 0.777193 0.157326 -0.342967 -0.405902 -0.671894 -0.521724 -0.506435 0.776237 0.008903 -0.488051 -0.568587 -0.282167 0.109665 -0.197666 -0.461204 -0.542354 -0.330050 0.707964 -0.126544 -0.729916 0.003067 1.421915 0.868041 -0.164860 -0.417849 -0.810714 0.172352 -0.586756 -0.898706 -0.496363 0.593608 -0.856242 -0.594274 1.579800 -0.461736 -1.154152 -0.324600 0.445747 0.022002
all -0.294172 -0.133381 0.757953 -0.041268 -0.052778 0.740343 1.619694 -0.543600 -0.044277 -1.195152 -0.294939 -0.415449 0.141934 0.379436 -0.043054 -0.393377 -0.050132 0.088555 0.477852 0.410207 -1.640268 -0.723307 -0.269780 0.109842 -0.092220 -0.807725 -0.098307 -0.249685 -0.137499 -0.193056 -0.613804 0.163239 0.987270 0.902552 -1.070432 -0.153183 -0.307088 -0.060407 0.351479 -0.928738 0.941964 0.065406 -1.662370 -0.395564 1.028544 -0.376107 -0.075170 -0.594153 0.422453 -0.295245
And -0.375076 -0.397799 0.051458 -0.185448 -0.331336 1.061112 1.712495 -0.752758 0.354296 -0.144651 -0.625760 0.521290 0.430849 -0.023178 0.851238 0.068687 -0.367235 0.452119 0.806099 -0.320131 -1.617713 -0.453548 0.011976 -0.235000 -0.637912 -0.234459 -0.440251 -0.220486 -0.124937 -0.447148 -0.685466 -0.182059 0.720928 -0.140186 -0.509073 -0.433659 -1.206137 0.073009 0.018717 0.169608 0.001251 0.395892 -1.246471 -0.001529 0.869315 0.160345 -0.090907 -0.587156 0.029771 0.669610
you. 0.202188 0.203819 0.709031 -0.000553 0.013706 1.036695 1.764296 -0.209273 -0.184672 -0.665439 -0.541464 0.417478 -0.750632 0.608295 -0.217142 0.042459 -0.475461 -0.845781 0.159550 -1.098193 -0.848836 -0.538836 0.394260 0.273659 -0.011813 0.015847 0.365947 -0.627613 -0.216836 -0.049118 -0.103242 0.025661 1.205599 0.640623 -0.523165 0.360108 -1.023987 1.012788 -0.204623 0.373340 0.161124 0.320910 -1.226005 0.421474 1.658204 1.005896 -0.513379 -1.405013 0.546407 1.290067
know -0.994148 -0.449320 0.114970 -0.517071 -0.509974 0.836975 1.055236 -0.795148 0.545128 0.110964 0.945452 0.375002 0.561539 -0.561484 0.599936 -0.418581 -0.304639 0.689255 0.748541 0.374432 -0.614303 0.511842 0.493600 0.618881 -0.675920 -0.745474 -0.413185 -0.691292 0.097103 -0.098995 -0.416032 0.074979 0.896285 1.699457 -0.928128 -0.231175 -0.187795 0.001826 -0.358454 -0.024546 0.063404 0.573314 -2.098498 -0.297980 0.305335 -0.474935 -0.643130 -0.681723 0.520173 0.457084
get 0.048894 0.634592 -0.531638 -0.688705 -0.203520 0.655756 0.211116 -0.882758 -0.550976 -0.139828 -0.474251 -0.457803 0.692146 -0.073809 -0.564735 -1.127571 -0.089771 0.209295 1.224677 -0.587273 -0.383252 -0.271830 -0.050432 1.261901 -0.608083 -0.178175 0.159355 0.023274 0.055434 0.252584 -0.196576 -0.527094 1.268577 0.492258 0.040024 -0.566602 -0.289482 0.325177 -0.239331 -1.133967 -0.070419 0.895406 -1.723103 -0.482493 1.107524 -0.508630 0.156704 -0.688877 0.663212 0.353991
Oh, -0.520538 0.586747 0.167080 -0.788816 -0.324223 1.203270 0.546598 -0.600595 -0.306914 -0.767724 1.096715 0.283433 -0.286769 0.599709 0.444558 -0.594853 -0.181502 0.817539 -0.291132 -0.341389 -0.976477 -0.623252 -0.421351 1.088626 0.409955 0.468401 0.104842 -0.583882 1.277536 -0.929240 0.703790 -1.128774 0.640977 0.486546 -1.187115 -0.271272 -0.470489 0.429711 -0.036294 -0.218122 -0.274515 0.520021 -0.859528 -0.301179 1.778166 -0.660142 0.626180 -0.398873 -0.310281 1.183116
We -0.755182 0.670320 0.790299 0.343493 -1.085654 0.780487 1.091358 -0.359132 -0.492092 -0.400857 0.524641 -0.054424 0.094440 -1.132835 -0.222455 -0.899900 -0.063276 0.090515 0.865087 -0.550216 -0.355117 -0.117441 -0.494012 0.637890 0.623443 -0.395123 0.069772 0.079777 0.089873 -0.422813 0.429583 0.094029 1.340026 -0.174181 -0.226907 -0.180743 -0.441083 -0.322479 -0.843907 -0.134972 0.904247 0.809485 -0.731387 -0.425820 1.613949 -0.087342 -0.403096 -1.096760 1.508781 0.153127
what -1.022513 -0.259663 0.680674 -0.496367 -0.315332 0.572602 0.556857 -0.798415 0.807951 0.589539 0.128646 0.148690 0.318059 0.446283 0.441827 0.614595 -0.428431 0.656012 0.186364 -0.453103 -0.684036 0.310078 0.662749 0.180995 -1.034188 -0.902997 -0.992183 -1.156699 0.281379 -0.029809 -0.491453 0.328434 0.898012 1.889541 -0.926531 -0.511314 0.052418 0.433671 -0.082255 0.284239 0.387364 0.970280 -1.843947 -0.065813 0.909407 0.121870 -0.349081 -0.833816 0.348665 0.674521
can 0.464956 0.516805 0.075817 0.410588 -0.715138 0.384080 0.877439 -0.703081 0.034432 -0.459389 0.046633 -0.142204 0.285496 -0.038452 -0.089313 -0.628452 0.089899 -0.516065 1.498456 0.076625 -0.764941 0.639331 -0.751284 -0.209839 -0.177315 -0.772671 -1.510333 -0.778862 -0.291335 0.355084 -0.954167 -0.136206 0.953472 0.330032 -0.606805 -0.316510 -0.040757 0.313493 -0.699000 0.172322 0.369499 0.537833 -0.921290 -0.208716 1.197006 0.118973 0.205684 -1.199661 1.152495 1.109043
like -0.189968 0.883973 -0.265173 -0.972511 0.036252 0.630751 1.239551 -0.686923 0.190645 -0.166302 0.576955 0.454630 0.420676 0.037516 -1.215378 -0.023859 -0.968312 -0.598378 0.017604 0.021812 -1.091137 0.189010 -0.348402 -0.489473 0.462153 -1.031344 -0.283636 -0.187859 0.515661 -0.587277 -1.006956 -0.242401 0.121687 1.629141 -0.094256 0.550824 -0.167012 0.126810 0.115004 -1.505378 -0.266315 0.009703 -1.479178 0.086629 0.949934 -0.960774 -1.204065 -0.772918 0.286664 0.308443
it. -0.445019 -0.191515 0.267900 -0.456460 -0.168842 0.349227 0.735454 -0.970140 -0.199949 0.420302 -0.040242 0.498070 0.083038 0.251656 -0.480708 -0.527099 -0.613825 -0.060383 1.283798 -0.362320 -0.966932 -0.239327 -0.278456 0.129926 0.553882 -0.654552 0.331464 0.219211 -0.041348 0.095974 -0.957190 0.383184 0.833773 0.747855 -0.663415 0.441511 -0.891453 0.171969 -0.724225 -1.216796 0.571695 0.265807 -1.026598 -0.444229 0.769155 -0.025880 0.024297 -1.645160 1.015617 1.326258
about -0.912965 -0.057303 0.540306 -0.353431 -0.117484 1.071518 1.017473 -0.745996 0.207049 -0.501952 1.073378 0.991202 0.709334 -0.169819 -1.434816 -0.041157 -1.051456 -0.369480 -0.193753 -0.480383 -0.983458 0.572331 0.074776 -0.185907 -0.079683 -0.704709 0.129306 -0.697565 0.458391 0.740718 -0.686586 0.278820 0.909289 0.920238 0.022128 -0.391923 0.335722 0.941479 0.076344 -0.405797 0.319601 0.998421 -1.245733 -0.505496 0.194701 0.502611 -0.722730 -0.303204 0.518160 1.021783
will 0.492809 0.474565 -0.180864 0.732803 -0.495746 0.501799 0.765440 -1.214828 -0.459733 -0.584600 -0.321204 -0.573530 0.301367 -0.277538 0.065404 -0.588122 -0.412400 -0.273067 1.089549 0.104541 -1.289305 -0.405641 0.070849 -1.181029 -1.474945 -0.172340 -0.913413 0.024707 -0.586077 0.116713 -0.104557 -0.953467 0.541214 -0.559594 -0.560474 0.860692 -1.028554 -0.096531 0.420579 0.468351 0.213584 0.403329 -1.220441 -0.213388 1.212288 0.661090 -0.775426 -0.945120 0.602399 0.247229
he -1.329548 -0.015567 0.351640 -0.794603 0.608080 1.195189 1.544565 -1.397144 0.576804 0.524230 0.384583 0.192090 -0.314424 0.274018 0.358837 0.051845 -0.392430 -0.166725 0.939452 -0.415484 -0.278841 -0.124328 -0.834433 0.479108 -1.514391 -0.514855 -0.380201 -0.383679 -0.026467 0.036417 -0.905947 0.267836 0.174027 1.145397 0.411342 -0.623275 0.396125 -0.758102 0.013550 0.847510 -0.451225 0.549755 -0.634104 -1.239037 1.377060 -0.580230 0.161397 -0.491257 0.275002 0.200975
got -0.305602 -0.349869 0.110384 -0.403238 -0.136944 0.149091 0.416641 0.038863 0.170368 -0.931668 0.257119 0.626639 0.221096 -0.252697 -0.208492 0.078652 -0.410464 0.076710 0.080083 -1.096560 -0.894497 -0.475102 -0.127773 1.258295 0.439309 -0.488972 0.254078 -0.098886 0.170449 -0.362360 -0.642608 0.613449 1.326604 0.593685 -0.706158 -0.505858 0.054455 -0.014452 -0.546527 -0.758114 0.211341 0.252842 -1.402872 -0.620988 1.234272 -0.677915 0.149495 -0.665865 1.395001 0.750424
out -0.071154 -0.032904 -0.583080 -0.851650 0.022971 0.798356 0.512719 -1.073494 -0.203103 -0.643940 -0.824790 -0.593155 0.714344 -0.371808 -0.505477 -0.776248 0.026689 -0.091868 0.913530 -1.071150 -0.343678 -0.192294 -0.782297 1.377517 -1.046693 -0.899226 0.167345 -0.278251 0.574777 -0.450652 -0.421171 0.016349 0.815601 0.081088 0.202361 -0.764068 -0.019743 0.074244 0.002254 -0.415268 -0.280016 1.123741 -1.549803 -0.432289 0.934315 0.403376 -0.061782 -0.178358 0.272749 -0.018079
one 0.199290 0.765853 0.389295 0.270589 0.285596 1.123972 0.251003 -0.330700 0.408051 -0.179916 -0.263488 0.144164 1.148203 0.404902 -0.300199 0.469593 -0.118309 -0.352780 0.113712 -0.599033 -0.174551 0.145663 -0.942936 -0.459449 -1.089413 -0.316695 0.017743 0.329525 -0.091699 -0.338191 -0.379070 0.268734 0.529154 0.065962 -0.660550 -1.760179 -0.960741 -0.262275 0.139852 0.242449 -0.732145 0.764978 -1.345198 -0.991565 0.840841 -0.415997 -0.519704 -1.689330 0.327085 0.853195
me. -0.171635 0.160560 0.811773 0.224609 0.472036 1.117046 0.673613 -0.306591 0.129254 -0.788970 -0.242821 0.350830 -0.699620 0.043297 -0.357773 -0.748897 -0.912649 -0.764885 0.053120 0.160967 -0.619854 -0.357881 0.076106 0.227184 -0.329805 0.336281 -0.191650 -0.291639 -0.081869 -0.324364 -0.275291 0.405309 1.190197 1.027337 -0.291407 1.362278 -0.327532 0.484669 0.343088 -0.505284 -0.509141 0.069656 -1.350680 -0.693972 0.568891 0.664611 -1.085440 -1.094304 0.769390 1.325137
at 0.237706 -0.520547 0.788616 -0.168199 -0.499417 0.109572 1.075675 -0.590261 -0.583946 -0.618325 -0.026539 -0.330204 -0.225894 0.118203 -0.960245 -0.181557 0.226082 0.349253 -0.564884 -1.244616 -0.802405 -0.440853 -0.934016 -0.690945 -0.477251 0.051810 -1.152488 -0.615691 -0.016773 -1.220488 -0.954726 0.961027 0.483118 0.679068 -0.149897 -0.001058 -0.323409 -0.342193 0.707060 -0.746757 -0.438271 0.342434 -1.213417 -0.293480 1.405987 -0.177757 -0.841139 -1.307891 0.164712 0.039388
so -0.316854 0.207506 -0.983263 -0.141608 0.665073 1.696558 1.900513 0.056379 0.199936 -0.468261 0.195591 0.372315 -0.675478 -0.111571 -0.928658 0.453248 0.165629 0.000733 0.666876 -0.026282 -0.490414 -0.550766 0.229441 0.677114 -0.740483 -0.257230 -0.057690 -0.059966 1.052751 0.894584 -0.352348 -0.493563 0.959567 1.311611 -0.443081 -0.364772 -0.954439 -0.055231 0.617170 -0.492551 0.168546 -0.081373 -0.864002 -0.034337 0.924659 0.013473 0.611229 -1.139874 0.171279 0.006502
from -0.045169 -0.659134 0.025139 0.307273 -0.804487 0.812373 0.971689 -1.130286 -0.532397 -1.094531 0.052181 0.785772 -0.203477 0.463272 -0.212560 -0.556078 0.815815 -0.559354 0.387183 -0.489338 -0.280469 -0.450510 -0.280003 -0.040029 -1.717574 -0.933519 -0.797946 0.238937 -0.021075 -0.519437 -0.796957 0.844776 0.953544 -0.261594 -0.207194 -0.094516 0.255663 -0.076677 0.126325 -0.152181 -0.199527 0.525120 -0.656611 -0.791059 0.827990 0.385483 -0.381117 -0.500412 0.471835 -0.162648
gonna -0.116322 0.559322 0.607926 -0.193757 -0.286736 1.498601 0.354708 -0.514419 -0.037007 -0.126186 -0.045971 -0.321786 1.180547 -0.010903 0.533179 -1.155324 -0.256130 -0.769989 0.242298 -0.143997 -0.994929 -0.903597 -0.241666 -0.628646 -0.004165 0.423644 -0.243623 -1.098528 -0.423776 0.426592 -0.701252 -0.145667 1.024668 0.759040 0.236082 -0.191109 -0.007852 0.830488 -0.396392 -1.103315 -0.271273 0.881711 -1.516421 -0.475155 1.252889 0.045193 0.635824 -0.391703 0.396808 0.299105
This -0.434277 0.737340 -0.577150 -0.272197 -0.481328 1.196005 0.010743 -0.643178 -0.131909 -0.657176 0.325987 -0.084763 0.406343 1.234869 -0.351371 -0.283075 -0.454883 -0.313870 0.223746 -0.399189 -0.556801 0.234547 0.139458 0.189053 -0.399521 -0.700488 -0.366917 -0.030916 0.270815 -0.729625 0.183784 0.069113 0.013451 -0.114189 -1.081160 0.243572 -0.709855 -0.137795 0.415623 0.016780 -0.263189 0.244443 -0.988794 -0.707802 1.253066 -0.728872 0.237756 -0.669529 1.196653 0.312731
But -0.562486 0.049987 0.070014 0.359721 -0.262960 0.767089 1.357092 -0.815398 0.550856 0.950860 -0.022933 0.588062 0.142733 -0.861404 0.375174 -0.084715 0.117123 0.113175 0.548070 -0.686360 -0.779963 -0.097695 -0.313734 -0.106791 -0.587535 -0.915278 -0.142553 -0.128505 0.288210 -0.102195 -0.563553 0.175069 0.400718 0.145009 -0.890652 -0.175701 -0.819932 0.079008 -0.178580 0.025669 -0.383962 0.393024 -1.272003 -0.073818 0.997683 0.201115 -0.110674 -0.534376 0.656478 0.226987
go -0.451429 1.524254 -0.661802 0.177095 0.049606 0.400230 0.105172 -0.557139 -0.920608 -0.403169 -0.479291 0.509363 -0.892114 -0.305572 -0.009909 -0.703915 -0.729781 -0.196940 1.692636 0.084146 -0.703675 -0.333796 -0.403027 -0.015743 -0.331796 -0.207746 -0.314571 0.119514 0.442619 -0.410263 0.154315 -0.254020 1.342344 0.952949 0.153851 -0.142280 -0.064147 0.475537 0.178472 -1.127919 -0.515873 0.859324 -0.907763 -0.736263 0.683656 0.061068 0.293403 -0.651646 1.156566 -0.123020
an -0.817647 0.348929 -0.949935 -1.127523 -0.805240 0.716597 0.516351 -0.331518 -0.086847 -0.079376 0.931666 0.561446 0.050352 0.080458 -0.312123 -0.114875 0.805044 -0.847525 -0.284652 -1.120646 -0.565192 0.785492 0.367441 -0.993190 -0.811242 -0.202556 -0.021320 -0.071148 -0.187730 -0.755358 -1.339629 0.797043 0.505387 0.614863 0.602150 -0.202288 -0.145326 -0.210874 -0.906025 -0.710284 0.140793 0.341594 -0.938732 -0.358037 1.696856 -0.244356 -0.394417 -0.690355 0.168522 0.189059
our -0.159792 0.295039 -0.046223 0.572408 -1.303107 0.377113 1.016421 -0.618409 -0.771324 -1.290022 0.796742 0.422396 -0.806785 0.051033 0.950213 -0.672468 -0.148120 -0.248523 1.471525 -0.631963 -0.490800 0.167845 -0.005949 -0.810785 -0.983005 -0.612216 -0.258453 0.854047 -0.527951 -0.308153 -1.157813 0.498079 0.635287 -0.477083 -0.722106 -0.370322 -0.683218 -0.461004 0.349233 -0.451533 0.672286 0.745698 -0.867202 -0.351646 0.299530 -0.062177 -0.031983 -0.377780 0.836427 -0.634655
you're -0.807292 -0.236263 0.057174 0.133298 -0.209873 1.265096 0.521356 -0.245469 0.927781 0.327661 -0.142269 0.117813 1.216711 -0.419381 0.562502 0.062175 0.227197 0.065488 -0.236396 -0.048637 -0.693476 -0.675799 0.425913 -0.207192 -0.798446 -0.327496 -0.737057 -0.905231 1.061475 0.166638 -0.772185 0.042746 0.747792 1.537639 -0.348207 0.243787 -0.298614 0.580220 0.322318 -1.012063 -0.153671 0.979635 -1.277860 0.294222 0.820523 0.612371 0.209226 -0.337645 0.001014 -0.117688
it's -1.326277 0.547206 -0.278254 -0.319951 -0.635473 0.672568 0.851156 -0.441694 0.861145 -0.242055 -0.228809 0.553019 0.075973 0.287734 0.116163 -0.226651 0.130275 0.030581 0.477423 0.329758 -0.395536 -0.836065 -0.109889 0.422488 -0.894711 -0.561137 -0.540094 -0.318461 1.061406 -0.366325 -1.009767 0.287293 0.902570 0.888595 -1.419682 0.241050 -0.933326 0.655419 -0.485853 -0.667486 0.053270 -0.398170 -1.385563 0.015621 0.526970 -0.376108 0.609488 -0.422298 0.215538 -0.127310
up -0.119781 0.254111 -0.526615 -0.503777 0.619888 -0.115526 0.080078 -0.367136 0.060534 -1.272506 -1.017204 -0.718554 0.971659 0.574043 0.311615 0.113523 -0.143318 0.003236 1.140319 -0.335088 -0.845217 -0.528293 -0.749962 0.067354 -0.458490 -0.216435 0.184203 -0.212021 0.050535 -0.997718 -0.346801 -0.224957 0.997234 0.774804 0.730656 -0.361666 0.066105 -0.397513 0.213853 -0.951650 -0.087806 0.632644 -1.556479 -0.407132 1.415610 -0.001066 -0.673468 -0.424324 0.091408 -0.052157
want -0.525270 0.440591 -0.212863 0.522734 -0.311704 0.208085 0.456154 -0.576653 -0.012294 -0.233697 0.079389 0.624798 0.438430 -0.297693 0.037614 -1.149401 -0.513886 0.106221 1.015712 0.105341 -0.323345 0.591265 0.421845 0.089741 -0.164586 -0.300248 -0.006378 -0.759770 -0.140301 -0.556782 -0.411122 -0.626688 1.121199 1.148410 -0.214650 0.152376 0.113331 0.515081 -0.501596 0.127736 -0.313576 0.709168 -1.752953 0.101496 0.997205 0.005811 -0.952889 -0.873386 0.502074 0.464661
but -1.035437 0.754350 -0.631496 0.283736 -0.424495 0.829083 1.177124 -0.257549 0.776572 -0.486613 0.460015 0.628495 0.073553 -0.427327 0.014749 0.031687 -0.204985 0.160071 0.462107 -0.541983 -0.750462 -0.059832 -0.898335 0.207850 -0.937802 -0.506180 -0.750281 -0.627012 0.705768 0.403386 -1.468176 -0.258568 0.512509 0.702974 -0.282222 -0.302934 0.145810 0.573862 -0.322485 -0.214032 -0.454327 -0.460956 -1.194174 0.105269 0.806497 -0.020534 0.394358 -0.731404 0.309528 0.301391
You're -0.278885 0.360837 0.613115 0.632057 0.382737 2.077501 0.316619 0.031962 0.341128 -0.078651 0.050197 -0.137023 0.804306 0.737733 0.278897 -0.691444 0.529399 -0.725407 -0.343383 0.239914 -0.857470 -0.401967 0.890384 -0.530363 -0.309252 -0.059158 -0.085608 -0.302817 0.708641 -0.150963 0.031529 0.572511 0.429536 0.636788 -0.001634 0.349826 -0.764959 0.470151 -0.160025 -0.722469 0.075472 0.140301 -1.155490 -0.017990 1.320944 0.212968 0.397370 -0.510664 0.757670 0.134646
That's -0.911213 0.281745 0.766100 -0.468122 -0.258835 1.094010 1.070810 -0.086976 0.534451 -0.284908 0.090235 -0.614240 -0.013416 0.434966 0.374952 -0.208301 0.133231 -0.374713 0.090812 0.238479 -0.609568 -0.164682 0.206250 0.632420 -0.240923 -0.373783 0.378450 -0.115342 0.015920 -0.977221 0.016148 0.543280 -0.029739 0.898029 -0.986388 -0.167787 -1.476440 -0.194412 -0.032596 -0.245599 0.460753 0.454375 -1.858072 -0.090000 0.103963 -0.249423 0.231545 -0.158750 0.707916 0.276359
Don't -0.353745 -0.362953 0.366706 -0.241137 0.141524 0.772504 -0.792119 -0.640706 -1.244112 -0.127964 0.655397 -0.641909 0.412995 0.333084 -0.754570 -1.164474 -0.882192 -0.588475 0.566461 -0.016818 0.089663 -0.288080 0.274653 0.198268 -0.625955 0.883566 0.068026 -0.493368 0.996286 0.529015 -0.413450 -0.133320 0.974371 0.123755 -0.613568 0.889478 -0.755914 -0.191226 0.228018 -1.033795 -0.170546 -0.037643 -1.598063 -0.581777 0.666511 -0.413998 -1.133667 -0.683161 1.346325 0.521007
if -0.954402 0.521990 -0.363226 -0.025707 -0.098715 0.493160 1.328664 -0.690228 0.288194 0.480970 0.278199 0.196704 0.476208 0.017353 0.508011 0.027241 -0.048404 -0.032280 1.037521 -0.376236 -0.186637 -0.212976 -0.277290 -0.446961 -0.549794 -0.503208 -0.043156 -0.306262 0.354120 0.608383 -1.024195 -1.073738 1.061819 0.991965 -0.535802 -0.530745 0.194779 0.362730 -0.046487 0.053078 0.009108 0.635258 -1.625424 0.430295 0.731607 0.128898 -0.190130 -0.400378 0.357452 0.568316
think -0.741564 0.137611 0.390829 -0.408927 -0.230226 0.994904 0.801333 -0.647080 0.396392 0.266857 0.443995 0.361381 0.680176 -0.636948 0.072055 0.115496 -0.346176 0.331735 0.305583 0.024004 -0.424306 -0.162566 0.324804 0.641797 -0.517567 -0.389160 -0.407907 -0.427371 0.993659 -0.026575 -0.704469 -0.039442 1.114601 1.178537 -0.414335 -0.375600 -0.101906 0.256705 -0.517685 -0.203449 -0.240340 0.313363 -1.274499 -0.117468 0.914881 -0.539832 -0.577117 -0.680527 0.458395 0.289537
need -0.240539 1.147171 0.319310 0.107778 -0.357256 0.527024 0.562247 -0.227629 -0.135641 -0.468555 0.292400 -0.138889 0.655041 -0.699573 -0.181456 -0.776473 -0.174873 -0.209937 0.313131 -0.679345 -0.147940 0.417401 0.118946 0.417567 0.117470 -0.267921 -0.281044 -0.192969 -0.507819 -0.125972 -0.242502 -0.238557 0.620902 0.313831 -0.262458 -0.068257 -0.508670 0.714459 -0.582479 -0.546398 0.436063 0.875130 -1.874268 -0.479670 1.077320 0.473463 -0.322460 -1.011058 0.596841 0.333913
Come -0.331382 -0.074844 0.188377 -0.635578 -0.010113 1.926036 -0.506016 -0.235597 -0.318914 -0.834201 -0.043290 -0.098476 -0.255779 1.016209 0.386680 -0.519825 -0.702273 0.712328 0.557060 0.513150 -0.358554 -0.628106 -1.002319 0.947444 0.001231 0.088633 0.006878 -0.104038 1.181543 -1.435285 0.859946 0.639010 1.138333 0.088076 0.414461 0.335372 -0.660551 0.254745 -0.270518 -0.612752 -0.468761 0.515304 -1.230756 -0.273210 0.303913 0.824227 0.346715 -1.367789 1.241714 1.061693
as 0.543478 0.357814 -1.085141 -0.337424 -0.363807 0.506139 1.496834 -0.452466 0.414427 0.228333 -0.281765 0.101514 -0.145688 -0.180701 -0.248656 0.110863 1.537478 -0.894975 0.568799 -0.081125 0.315047 -1.344367 0.142457 -0.471881 -1.289627 -1.224438 -1.092561 -0.748996 -0.184047 0.653040 -1.151892 0.041138 1.597706 0.187716 -0.366432 0.001918 -1.142721 -0.135580 0.148639 0.433026 0.644157 0.472877 -0.381238 -0.732950 1.243851 -0.299687 -0.531544 0.191162 0.209082 -0.363639
can't -0.571355 0.513268 0.385332 -0.045273 -0.663798 0.511214 0.453704 -0.342253 -0.272813 -0.364746 0.067426 -0.483461 0.316616 -0.582396 -0.699687 -1.291199 0.037661 -0.924799 1.201521 0.192335 -0.457752 0.153592 -1.117120 -0.165462 0.275569 -0.102703 -0.473498 -0.842008 0.483116 0.529991 -0.591569 -0.435961 0.918356 0.325869 -0.825241 -0.143212 -0.198675 -0.150968 -0.681428 0.101296 0.148514 0.288971 -0.937705 0.094593 0.772879 0.200303 -0.334440 -0.884919 0.850336 1.140435
his -0.660173 -0.024132 -0.315145 -0.293195 0.616612 1.284941 1.438871 -0.931255 0.162151 -0.632231 0.465570 0.823846 -0.113319 -0.262591 0.623066 -0.645568 0.412358 -1.279874 1.122799 -0.948714 -0.127967 0.350658 0.158078 -0.175470 -0.533877 0.485699 0.217892 0.863538 -0.132444 -0.369333 -1.127812 -0.229521 0.023995 -0.375019 -0.567197 -1.063197 -0.101338 -0.686426 0.620698 -0.077445 0.095568 1.024519 -1.259201 -1.172781 0.306241 0.054110 0.166567 0.572472 0.071244 0.350273
He -1.177215 -0.078746 0.339396 -0.645623 0.587703 1.136386 1.246913 -0.512797 0.107720 -0.066723 0.447176 0.410712 -0.583695 -0.143146 0.156935 -0.282340 -0.574260 -0.663433 0.229098 -0.647393 -0.285630 0.255878 -0.459830 0.620060 -0.393116 0.188382 0.641144 -0.082169 -0.024448 -0.011757 -0.619708 0.721185 0.415637 0.199803 0.167546 0.164726 -0.094641 -0.937627 0.135894 0.814145 -0.308900 -0.030492 -0.652531 -1.482855 1.454484 -0.854482 -0.748689 -0.396379 0.855155 0.796981
Well, -0.481070 0.498948 0.301041 -0.069538 -0.418169 0.697816 0.869794 -0.649043 0.583949 0.475182 0.319442 0.281403 0.121666 0.300757 0.156233 0.037012 -0.512086 0.470518 0.048013 0.088364 -0.752075 -0.844832 -0.419965 -0.187598 -0.237528 -0.402665 -0.103061 -0.415078 0.315187 -0.420391 -0.382288 -0.418954 0.543496 1.374883 -0.517011 -0.022553 -0.609153 0.867270 -0.379208 -0.063007 -0.525441 0.281489 -1.233317 -0.006371 0.828303 -0.542733 0.019584 -0.462020 0.040785 0.176867
see -0.281693 0.344862 0.212251 -0.043103 -0.293658 -0.118193 0.582983 -0.566987 0.001177 -0.272018 0.026650 -0.051846 -0.233311 0.636033 0.727628 -0.183433 -0.275322 0.301911 0.594053 -0.646801 -0.509082 -0.307990 -0.092780 0.189452 -0.214634 -0.635647 -0.257118 -0.153185 0.038780 0.023535 -0.434018 -0.158269 1.235898 1.003917 -0.275549 -0.164573 -0.366449 0.418622 -0.248079 -0.345558 0.159625 0.780353 -1.332158 -0.507095 0.925165 -0.268443 -0.629474 -0.718583 0.459274 1.110501
It -0.604507 0.815563 0.265313 -0.245037 0.841166 1.104433 0.832375 -1.116467 0.154730 0.566348 -0.448318 0.204775 -0.320744 -0.016870 -0.805080 -0.195804 -0.450728 -0.193592 0.328791 0.581159 -0.883772 0.679285 0.144665 0.104147 -0.342615 -0.858644 -0.034876 0.423158 0.644270 -0.250148 -0.077706 0.292232 -0.679048 0.573210 -0.313188 0.810180 -0.573834 -0.016018 0.211944 -0.115677 0.002785 -0.108656 -0.745358 -0.722149 1.592015 -1.056482 -0.361570 -0.596196 0.389015 0.305211
I'll 0.125688 0.379249 -0.164018 0.011348 0.074109 0.176385 0.078800 -0.617520 -0.430659 -0.037226 -0.752165 -0.197432 -0.013763 0.306444 0.304519 -0.995052 -0.263544 -0.022033 1.203089 -0.098733 -0.552639 -0.673592 -0.047820 -0.535410 -0.205419 0.388296 -0.614972 -0.245989 -0.184098 0.348372 -0.864177 -0.460512 1.300823 0.275779 -0.021796 0.313661 -0.776747 0.722524 -0.505215 -1.016343 -0.065015 0.355405 -1.193875 0.087332 0.998649 0.611571 -0.117594 -0.771538 0.206542 1.165971
they -0.053101 -0.003844 0.730876 0.184254 -0.698869 0.307204 1.093217 -1.103959 0.098627 0.164212 0.001281 -0.981861 0.554507 -0.529945 0.354763 -0.169551 -0.266046 0.379673 0.764559 0.004734 -0.469884 -0.213497 -0.819387 0.235245 -0.920906 -0.634728 -0.759713 -0.162719 0.013261 0.090478 -0.814019 -0.760222 0.829148 0.931770 -0.425810 -0.370494 0.298584 -0.535798 -0.179047 0.339348 0.399029 0.792141 -1.017269 0.051608 0.617863 0.066595 -1.039454 -0.785738 0.033583 -0.035664
here. -0.657545 0.267042 -0.036466 -0.906004 -0.247679 0.654491 0.279561 -0.083491 -0.061175 -0.847121 -0.575845 -0.101451 0.059246 -0.059640 0.037199 -0.544637 0.342091 -0.279345 0.391270 -0.239055 -1.122751 -0.598319 -0.463009 0.597403 -0.160322 -0.908083 -0.022447 -0.603500 0.610910 -0.504923 0.760227 0.378870 0.587530 0.495689 -0.115819 0.435138 -0.470594 -0.101455 0.066485 -0.858219 0.290165 0.762945 -1.407805 -0.235447 0.427400 0.785426 -0.570828 -0.626688 0.522514 0.388228
If -0.360860 0.279245 -0.030042 0.375264 -0.315737 0.619918 0.714120 -0.575489 0.063016 0.259290 0.102246 -0.305436 0.563718 -0.252532 0.200618 -0.202974 0.057451 -0.291981 0.943280 0.024640 -0.479615 -0.066702 0.040520 -0.318685 -0.639826 -0.148598 -0.198746 -0.127746 0.014703 -0.020697 -0.512431 -0.253862 0.527710 0.462269 -0.074222 -0.177366 -0.096625 -0.223591 -0.336829 0.281404 0.072922 0.327440 -1.274663 0.166214 1.123637 0.025127 -0.164403 -1.104576 0.442846 0.137977
take -0.189766 0.731693 -0.651611 -0.057345 -0.025714 -0.237401 0.290272 -1.014992 -0.511642 -0.617568 -0.418831 -0.415503 -0.236449 0.420352 -0.684877 -0.563178 0.168478 -0.703085 1.104203 0.420794 -1.000807 -0.423100 0.179818 0.176738 -0.670528 -0.564884 -0.449698 -0.087413 0.574535 -0.144854 -0.497901 -0.424155 1.137290 0.528157 -0.308903 -0.231412 -0.405462 0.335597 -0.147455 -0.311584 0.050806 0.213093 -1.580361 -0.184993 0.768729 -0.364646 -0.616624 -0.273609 0.389567 1.092208
no -0.787403 1.015480 -0.652748 0.272203 -0.041906 1.252913 -0.154297 0.622700 0.759836 -0.058849 0.442065 0.587306 0.824619 -0.138834 0.809633 0.673919 -0.003756 0.339001 0.180439 -1.227361 -0.154392 0.608570 -0.670743 0.153688 -1.147506 -0.280082 0.395230 0.116593 0.107794 0.036108 -0.054608 0.642450 -0.136802 -0.251234 -0.256151 -0.862472 -0.750009 0.317503 -0.149077 0.409866 -0.425707 0.286930 -2.017662 -1.134033 0.315096 0.184298 0.141133 -1.552526 0.673223 0.595854
No, -1.570784 0.740565 0.661674 -0.465900 -0.855926 0.958850 -0.162275 -0.305127 0.119486 0.141005 0.373355 0.401495 0.426753 0.157682 -0.080339 -0.624548 -0.374718 -0.753639 -0.008380 -0.272726 -0.313740 -1.304336 0.203375 0.242142 0.014070 0.621853 0.843648 -0.710824 0.576015 -1.140752 -0.330410 -0.196440 1.089152 1.191237 -0.932660 0.075001 -0.645481 -0.115558 -1.094564 0.364245 -0.433466 0.127245 -0.657312 -0.019399 1.156218 -0.373005 0.139369 -1.139773 -0.170477 0.108081
were -0.038243 0.443173 1.236344 0.450644 0.190781 1.422559 1.621772 -0.756289 0.166413 -0.566210 -0.057698 -0.235447 0.004306 -1.408678 0.151380 0.308509 0.294929 0.069343 -0.125942 0.305264 -1.202872 -0.330777 -0.315013 0.522461 -0.431517 -0.632574 -0.155520 0.157033 0.713842 -0.453770 -0.184880 -0.007608 0.361081 0.416943 -0.170832 -0.535507 0.190717 -0.351035 0.148495 0.191561 0.469080 0.660666 -0.380756 -0.551464 1.472788 -0.132726 -0.631541 -0.514417 -0.060160 -0.715068
All 0.013509 0.339112 0.815852 -0.812858 -0.048826 0.703653 0.657994 -0.299299 -0.757704 -0.730714 -0.137089 -0.928753 0.043533 0.409889 -0.673214 -0.355646 -0.157456 0.614009 0.035864 0.640395 -1.167040 -0.480709 0.031365 0.222788 -0.063071 -0.041354 0.684581 -0.384481 -0.413675 -0.115746 -0.161196 0.863332 0.917657 0.409720 -0.058070 -0.685833 -0.951213 -0.102070 -0.067927 -1.159036 1.165999 0.753710 -1.439531 -0.486840 0.638434 0.182766 0.492610 -0.420591 0.429601 -0.255011
been -0.681268 -0.048486 0.342036 1.002081 0.848033 -0.172093 0.684613 0.246555 0.666020 -0.693436 0.134624 0.892148 -0.225499 0.078561 -0.114618 0.637376 -0.216351 -0.021749 -0.196358 -1.152403 -1.473689 -1.044430 -0.298597 0.409296 -0.633520 -1.437156 0.317465 0.160317 0.823701 0.124123 0.537930 0.201110 0.853254 0.579419 -0.742727 -0.042262 0.547632 -0.008270 0.644798 -0.855989 0.103035 -0.471147 -1.113927 -0.844970 1.486249 -1.049131 -0.731677 -0.609024 0.501540 -0.391056
come -0.180002 -0.137372 -0.058072 0.120660 0.413555 1.279954 -0.100955 -0.566540 -0.184392 -0.656261 0.452262 0.091243 -0.343561 0.453857 0.554872 -0.502412 -0.536737 1.105690 1.028513 0.039712 -0.615978 -1.102567 -1.099317 0.074324 -0.565756 -0.133606 -0.496736 -0.194348 1.116976 -0.708023 0.594915 -0.272066 1.148522 0.308339 0.337688 0.430683 0.513575 0.296941 0.353158 -0.524487 -0.304025 0.405418 -1.315608 -0.403922 1.096355 0.463730 -0.050505 -0.761851 0.707233 0.316783
Get -0.040160 -0.346989 -0.255074 -0.868568 -0.048305 0.765219 -0.900628 -1.204967 -1.064832 -0.033574 -1.176977 -0.491477 0.805173 0.498563 -0.984364 -1.522442 0.211948 -0.098375 0.157441 -0.704850 0.468629 -0.375354 0.320767 1.422759 -0.466918 0.396517 0.422576 0.059155 0.929187 -1.326581 0.339029 0.708422 1.218557 -0.009435 -0.254672 -0.314293 -0.302802 -0.161039 0.161593 -0.766801 -0.554999 0.805606 -0.854577 -0.526165 1.063337 -0.064187 0.201386 -0.607403 0.240604 0.681011
never -0.244133 0.064381 0.547885 0.193186 0.961271 0.458918 0.954038 -0.909082 -0.011217 0.474483 0.528393 0.281481 -0.403517 -0.726484 0.320504 0.072501 -0.441975 -0.134013 0.489276 -0.248195 -1.590992 -0.509058 -0.736083 -1.062785 -0.517698 -0.172102 0.257998 -0.157959 0.013589 0.631338 -0.070551 -0.356556 0.644364 -0.180214 -0.352874 -0.172369 0.199372 0.090288 -0.252011 -0.019368 -0.242243 -0.353786 -1.264233 -0.736718 1.812299 -0.238993 -0.418811 -0.933916 0.427923 0.604424
you, 0.099896 0.126844 0.019162 -0.158650 0.426451 1.346555 1.314779 -0.143049 0.495294 -0.693321 -0.685597 -0.040267 -0.726775 0.545077 -0.353434 0.271735 -0.016163 -0.454743 -0.042858 -0.650802 -0.776426 -0.643766 -0.342031 0.650509 0.086272 0.180254 -0.047238 -0.209597 0.189890 -0.044469 -0.715403 -0.385465 0.697326 1.141101 0.060456 0.080613 -0.632816 0.917851 -0.415840 0.151422 -0.240605 -0.200055 -0.770271 0.579920 1.114336 1.030796 0.175227 -1.195855 0.146861 1.506783
did 0.173453 -0.144875 0.450964 -0.251939 -0.164487 1.058196 0.815844 -1.153208 0.016284 -0.046708 0.488955 0.103594 -0.210229 0.412927 -0.353361 -0.696980 -0.480874 0.009131 0.983248 0.198273 -0.077353 -0.105482 -0.142728 0.577011 0.419058 -0.818869 -0.662209 -0.972818 0.233405 0.132154 -0.129496 0.042912 0.600870 1.059132 -0.262423 0.090983 0.091680 -0.427729 -0.281049 1.000860 0.565150 0.607413 -0.516024 -0.633559 1.279179 -0.613829 -0.339629 -0.790172 0.825753 0.325269
by -0.102057 -0.113574 -0.526431 0.056133 -0.056827 0.981295 1.108807 -0.229030 -0.756393 -0.909949 -0.222360 0.463650 -0.731123 -0.782217 -0.313249 -0.597935 1.452962 -0.134505 0.428460 -0.074146 -0.937092 0.545416 -0.391279 -0.023355 -0.206712 -0.277718 -0.265197 0.766038 -0.248110 -0.404882 -0.618143 0.329473 0.153617 0.364191 0.603565 -0.879579 0.115311 -0.905395 0.131946 -0.572167 0.116986 0.207138 -0.114202 -0.646746 1.368016 -0.272711 -0.005671 -0.998288 0.059644 -0.169204
who -0.206487 -0.499662 0.733131 -0.484581 -0.293951 1.194962 1.187312 -1.022010 0.241804 -0.254493 0.015214 0.167762 1.176897 -0.687382 -0.096460 -0.443049 -0.327635 -0.041194 -0.161204 -0.105940 -0.411094 0.894448 -0.144763 0.111678 -1.442877 -0.474688 -0.241530 -0.331849 -0.658812 0.364920 -0.773441 0.529944 0.154037 0.861452 -0.258078 -0.738716 -0.175928 -0.643956 -0.169650 0.670820 -0.395235 0.475083 -0.647745 -0.541526 0.552291 0.170988 -1.604087 -0.988237 -0.356668 0.155830
him -0.592320 -0.043275 0.070921 -0.637343 0.500640 -0.046277 0.368951 -0.347651 0.074208 -0.076287 -0.948290 0.093227 0.217783 -0.203006 -0.185384 -1.175657 -0.376132 -1.339617 1.436846 -0.595677 -0.493833 -0.505875 -1.050976 0.049633 -0.835434 0.234033 -0.128644 -0.654511 -0.524344 0.249187 -0.041865 0.124093 1.013606 0.739671 -0.066344 -0.285039 -0.008690 -0.716858 0.058489 -0.102477 -1.036601 0.453739 -0.967165 -1.122345 0.870398 -0.303743 -0.150411 -0.343102 0.192160 1.015807
could -0.145442 0.839041 -0.019974 0.410854 0.022106 0.649050 0.934574 -0.694422 -0.145353 0.054892 0.241631 0.083875 -0.094793 -0.241879 -0.022523 -0.042913 0.038430 0.090695 0.789901 0.099992 -0.610073 -0.018911 -0.665497 -0.547952 -0.348231 0.006647 -0.423248 -0.323764 -0.090293 0.114240 -0.467112 -0.939218 0.708402 0.409354 -0.236604 -0.533838 0.266634 -0.039240 -0.185730 0.519590 -0.236696 0.438539 -0.804367 -0.390620 1.669272 -0.218345 -0.206104 -0.845191 0.327187 0.303679
would -0.083911 0.376726 -0.292571 0.039206 0.292332 0.548390 1.229193 -0.959742 0.117210 0.139878 0.521526 0.283783 -0.577332 -0.095261 -0.171624 -0.019762 -0.600944 -0.360703 1.068827 -0.123925 -1.216731 0.112998 -0.035303 -0.690638 -0.333511 -0.637659 -0.207669 0.199376 0.001825 0.273765 -0.026435 -0.795689 0.098577 0.795472 -0.162291 0.065133 0.198043 -0.365730 -0.070856 0.378449 0.275691 0.125861 -0.747875 -0.361574 1.109048 -0.285546 -0.600117 -0.763754 0.127425 0.416579
Yeah, -0.301688 1.121904 0.111292 -0.758213 -0.306283 0.590797 0.824499 0.045358 1.057041 -0.439549 0.264866 -0.024593 -0.024145 -0.735097 0.857583 0.011932 -0.599191 0.039411 -0.127132 -0.017893 -0.604248 -0.542766 -0.593898 1.288013 0.187196 -0.150621 -0.179183 -0.147025 0.167078 -0.614845 -0.301958 -0.198632 0.152611 1.327582 -0.519181 0.423363 -1.006340 0.345266 -0.496575 -0.678028 -0.243368 0.663682 -0.840772 -0.386444 0.641682 -0.432589 0.607608 -0.195855 0.194335 0.750940
How 0.913367 -0.292181 -0.335176 -0.091532 0.319513 1.662300 1.037648 -0.313885 0.586973 0.019894 0.579768 0.144396 0.021599 0.861199 -0.441381 -0.316689 0.525647 0.083271 0.709641 0.185987 -0.098596 -0.390106 -0.010176 0.121557 0.427574 -0.781085 -0.513556 -0.709707 0.009907 0.273184 0.725435 0.021215 0.588922 1.183508 -0.009438 0.061532 -0.250892 -0.275230 -0.023384 0.771057 1.318876 0.679535 -0.631981 -0.773961 0.998366 -0.409768 0.146973 -0.764572 0.959733 0.582968
going -0.590497 0.179159 0.238493 0.563963 0.262820 1.332042 0.264584 -0.432038 0.279519 -0.661352 -0.438105 0.165138 0.597034 0.146394 -0.493433 -0.422817 -0.365022 -0.437296 0.336246 -0.423353 -0.596082 -0.561918 0.312235 -0.008934 -0.022597 0.000623 0.071629 -0.375236 -0.050709 -0.529115 -0.211639 0.506171 0.527181 1.658241 0.038493 -0.099460 0.847969 0.030760 0.440798 -0.556265 0.123113 1.054204 -1.337213 -0.756398 0.679985 0.393570 1.148714 -0.609050 0.907482 -0.651073
has -0.623681 -0.255800 -0.322056 0.329012 0.012572 0.154130 0.420818 -0.836533 0.314940 -0.531496 0.415508 0.723868 0.224205 0.172046 0.289928 0.060940 -0.089976 0.011304 0.210547 -1.008686 -1.325712 -0.260726 -0.086188 -0.079661 -1.523017 -0.756226 0.366104 0.222821 -0.198395 -0.213808 -0.035274 0.539886 -0.112938 -0.297271 -0.448996 0.233287 0.279170 -0.706319 0.499530 0.543752 -0.144937 -0.167119 -0.681470 -1.344857 1.215185 -0.649126 -0.206518 -0.764353 0.423603 -0.077617
My -0.169581 -0.085508 0.328964 0.608664 0.021990 0.892236 0.679220 -0.706546 0.087253 -1.085829 0.505716 1.497081 -0.921192 0.300915 1.036859 -0.780972 -0.273788 -0.461454 0.629970 -0.572841 -1.051819 0.457089 0.866929 0.133560 0.507738 0.040759 -0.382760 0.435599 0.593064 -1.081684 0.125387 -0.229852 -0.711827 0.162146 -1.473288 0.204554 -0.814226 -0.507362 0.523935 0.187118 -0.053050 0.638782 -0.477581 -0.742842 0.758588 0.305949 -0.747951 0.497772 0.393548 -0.169151
back -0.259420 0.790950 -0.495392 -0.005950 0.499986 0.440175 -0.520517 -0.246570 0.015635 -1.238852 -1.173812 0.476676 -0.142923 -0.443469 0.615635 -0.852489 0.197547 -0.014445 1.413213 0.270552 -0.711390 -0.270410 -0.634054 0.654426 -0.843966 -0.199921 -0.365943 -0.321714 0.323448 -0.520655 -0.045999 0.138849 0.990587 0.446518 0.227440 -0.021811 0.646125 0.002400 0.028458 -0.414294 -0.449177 0.488611 -1.082160 -1.053012 1.174898 0.182625 0.146676 -0.603349 0.165285 -0.167514
That -0.358027 1.240505 -0.216077 -0.772795 0.176776 1.106935 0.302208 -1.012359 0.068746 0.214001 -0.087930 -0.343998 -0.335136 -0.065317 0.164269 0.124398 -0.241421 -0.030280 -0.024806 0.443264 -0.891644 0.662072 0.138498 0.286174 -0.332489 -0.516861 0.162643 0.684989 0.393608 -0.558660 -0.368313 0.043905 -0.636387 0.518914 -0.283577 0.359232 -0.778443 -0.273651 0.297866 -0.024069 -0.315007 0.387593 -0.623452 -0.564084 1.267388 -0.774691 -0.145000 -0.775816 0.121018 0.626953
Let's 0.257560 1.310381 0.141465 -0.379611 -0.343690 0.745163 -0.369217 -0.173173 -0.896941 -0.188578 -0.172473 -0.329694 -0.415780 0.366000 -0.462059 -0.670862 -1.059478 0.497173 1.038964 0.113969 0.109986 -0.134621 -0.384886 -0.004029 0.466644 -0.139681 -0.502101 0.078412 0.127811 -0.681815 0.552869 0.335550 1.107764 0.307220 0.200622 -0.532432 -1.242813 0.292522 -0.102611 -1.358242 0.392566 1.094507 -0.845162 -0.365350 0.460658 0.020410 0.163765 -0.655480 1.165050 0.109153
some 0.327416 0.841751 -0.360715 -0.551079 -0.113269 0.218390 0.483493 -0.795098 -0.762230 -0.419145 -0.013654 0.031384 -0.001498 -0.020604 -0.259670 0.069346 0.099453 -0.505101 -0.187165 -0.722778 -0.694926 0.224912 -0.095059 0.336649 -0.253765 -0.292775 0.296478 0.340076 0.010718 -0.583137 -0.673610 -0.042592 0.732076 0.156502 0.419519 -1.338177 -0.280813 0.745559 -0.399956 -0.965141 -0.496201 0.152764 -1.496859 -0.116179 0.811397 -0.654506 -0.269682 -0.419787 0.245228 0.256324
there -0.026484 1.416583 -0.277829 -0.455317 -0.192485 0.981679 0.519564 -1.024824 0.492239 0.266195 -0.426456 -0.249217 0.504204 -0.854409 0.346214 0.349424 -0.482283 -0.044875 0.598723 -0.880048 -0.927860 0.013619 -0.686503 0.764642 -1.082047 -0.913137 0.215231 -0.028493 0.458268 -0.100071 0.161355 -0.297789 -0.284405 0.764694 0.144746 -0.181594 -0.343840 -0.146918 0.223979 -0.045794 -0.330186 0.768330 -0.841067 -0.834886 0.516228 0.233701 -0.175515 -1.197485 -0.285487 -0.167454
her -0.062086 -0.287588 0.548595 -0.263742 0.558285 0.281235 0.509919 -1.298488 -0.299758 0.072884 -0.833484 0.099476 -0.543760 0.288930 1.011432 -0.760189 -0.455598 -1.002883 1.573509 -0.440813 -0.815492 -0.309974 0.381852 0.223433 -0.607836 0.289292 -0.102942 0.425714 0.542094 -0.070475 -0.798361 -0.294420 0.557855 0.163742 -0.165982 -0.521031 -0.813884 -0.397655 0.056823 -0.204893 -0.733166 0.506882 -0.575994 -0.320051 0.912468 0.031676 -1.118468 0.307606 -0.457541 0.707757
A 0.840035 0.721930 -0.657650 -0.667032 -0.369518 0.268602 0.607562 -0.393033 0.395557 -0.548878 0.043321 0.114082 0.066847 0.492743 0.866805 0.102916 -0.024723 -0.573669 0.038417 -0.474329 -0.636255 0.383220 0.383967 0.548938 0.235662 -1.690893 0.196101 0.443032 -0.160640 -0.781993 -0.213501 0.349999 -0.155942 -0.147484 0.007717 -0.034987 -1.368214 0.117917 0.015118 -0.270274 -0.239444 0.827483 -0.808819 -0.176204 0.658148 -0.739236 -1.052225 0.332121 0.620230 0.765262
I've -0.266635 -0.827391 0.454474 0.553512 0.527129 -0.382318 0.690232 -0.019853 0.437226 -0.217431 0.259980 0.999287 0.134621 -0.443645 -0.306286 0.575241 0.062940 0.242974 0.029499 -0.591602 -0.948469 -1.158836 -0.760172 -0.141042 0.140563 -1.091739 0.238733 -0.030651 0.961642 0.141666 0.253435 0.200069 1.037731 0.282788 -1.440355 -0.355569 0.229274 0.093316 -0.094560 -0.548353 -0.018849 -0.484734 -0.967439 -0.601558 1.614684 -0.526190 -0.192727 -0.728281 0.814211 0.044897
when -0.553074 -0.020714 -0.189826 -0.309219 -0.204452 0.185314 0.980027 -0.802826 0.468372 0.090740 -0.301056 0.451726 0.116480 -0.643868 0.390211 0.738584 -0.368822 0.432685 0.797659 -0.202805 -0.788896 0.260802 -0.083501 -0.033807 -0.772608 -0.525066 -0.262400 -0.001417 -0.165565 -0.354110 -1.369175 -0.116324 0.545243 0.383771 -0.041298 -0.173569 0.024652 0.327384 0.143841 0.065455 -0.063615 0.682331 -1.159353 0.043846 0.740214 0.162951 -0.320392 -0.449790 0.093343 -0.102449
you? 0.346458 0.004732 0.477196 0.002490 -0.142405 1.243291 0.492635 -0.808618 0.143882 -0.095744 0.576591 0.073862 -0.256489 0.048840 0.096090 -0.553628 -0.701535 -0.656279 0.330191 -0.404471 -0.237155 -0.325169 0.172378 0.226383 0.184586 -0.516065 -0.195424 -0.477719 0.027583 0.022214 0.106639 -0.191871 0.470129 1.410126 -0.420601 0.250843 0.009781 0.103498 0.085600 0.498710 -0.319839 1.127574 -1.030451 -0.185612 0.297786 0.514803 -0.664046 -0.864616 0.790894 0.833521
should -0.426848 1.631009 0.175931 0.384787 -0.363050 0.684500 0.270120 -0.806236 -0.583277 0.080516 0.258656 -0.417058 -0.433118 -0.836721 0.066604 -0.104510 -0.136951 -0.214971 0.559356 0.164328 -0.744056 0.232373 -0.258011 -0.062375 -0.176846 -0.732086 -0.225259 -0.168774 0.249472 -0.046746 0.274822 -0.309114 0.702540 0.511436 0.243038 -0.150969 -0.090465 0.151124 -0.283258 -0.509868 -0.025692 0.694962 -0.751643 -0.355201 1.075694 0.396949 -0.502789 -1.214696 0.741811 -0.211207
us 0.098863 0.679122 0.299545 -0.186456 -0.241985 -0.224983 0.003449 -0.533506 -0.596105 -0.948889 -0.730107 -0.830706 -0.273524 0.080898 -0.253137 -0.307604 -0.276818 -0.923050 0.559218 -0.331890 -0.935714 -0.427596 -0.283547 0.159154 -1.371938 -0.243651 -0.038103 -0.246337 -0.536509 0.375758 -0.171695 0.004280 1.100980 0.513032 -0.015761 -0.444733 0.229964 -0.232834 0.165367 0.054282 -0.298347 0.308589 -0.980313 -0.545036 1.136477 -0.256927 -0.560879 -0.685183 -0.023318 0.339038
how -0.391248 -0.167171 -0.457940 -0.472486 0.152602 0.870874 1.476852 -0.266897 0.719619 -0.008912 0.862047 0.104947 0.039517 0.460680 -0.294255 0.334103 -0.304024 0.550976 0.799051 0.146163 0.116111 -0.284059 -0.370348 0.193642 -0.737949 -0.607063 -0.189566 -0.656079 -0.424257 0.599160 -0.238248 -0.364062 0.961659 1.035104 -0.304876 -0.337845 -0.192642 0.107634 0.036696 0.778250 0.774125 0.201626 -1.841945 -0.516097 0.200574 -0.163562 -0.190184 -0.698185 0.447630 0.403468
them 0.046345 -0.116971 0.253763 0.514512 -0.011031 -0.105636 0.162587 -0.329346 -0.582468 -0.816499 -0.718251 -0.637476 0.011052 0.120842 -0.583367 -0.956769 -0.183705 -0.497845 1.144302 -0.174760 -1.312549 -0.366884 -0.519321 -0.148295 -1.015348 -0.042696 -0.276317 -0.173471 0.077380 0.542957 0.024075 -0.054549 1.127023 0.908984 -0.144144 -0.843953 0.047800 -0.564587 0.041128 -0.669024 -0.164310 -0.188432 -0.978119 -0.155366 0.713698 -0.097190 -0.690353 -1.229727 -0.193593 0.598702
So 0.091013 0.037902 -0.295848 -0.083966 -0.240743 0.868223 1.117924 -0.061783 0.340317 -0.268968 0.084564 -0.092775 -0.039076 0.283754 0.280488 -0.013378 -0.163406 0.018068 0.410036 0.114125 -0.543781 -0.414275 0.555826 0.582406 -0.419189 -0.462491 -0.043634 -0.315359 -0.094058 0.407331 0.113298 -0.080210 0.831833 0.549222 -0.666804 -0.251875 -1.035138 -0.061039 -0.063117 0.395827 0.343270 0.036496 -0.719664 -0.179361 0.865689 -0.596315 0.371633 -0.490034 0.521211 0.352461
or 0.072725 0.185942 -1.039316 0.394747 -0.392290 0.912969 0.193722 -0.685205 0.708956 0.112393 0.518189 0.322406 1.483737 0.192630 0.110411 -0.710718 -0.094182 -0.100983 0.487816 -0.696894 -0.516121 -0.143353 -0.350714 -0.404610 -0.724860 -0.766396 -0.341412 -0.272146 0.147662 0.568216 -0.708892 -0.606146 0.236573 0.381756 0.409516 -0.114879 0.070664 -0.279070 -0.092923 -0.306526 -0.400329 -0.080951 -0.976408 -0.258512 0.559086 -0.437118 -0.456391 -0.493087 -0.072967 0.148498
tell -0.616410 0.081157 0.480182 0.116826 -0.016674 0.832593 0.338535 -0.318497 0.341818 -0.309800 0.090857 0.100056 -0.117487 0.195037 0.073374 -0.399863 -0.565773 -0.919106 0.325416 -0.343798 -0.521799 -0.517504 -0.187740 -0.260831 -0.457230 -0.057802 -0.119720 -0.583561 -0.614280 0.463773 -0.964100 -0.292340 0.862101 1.572771 -0.226815 -0.062707 0.591047 0.425309 -0.075007 0.462309 -0.605834 0.648611 -1.151406 -0.226178 0.726242 0.348645 -0.440342 -0.665212 0.109466 0.738623
Hey, -0.120950 0.107461 0.361623 -0.543195 0.152352 0.551484 -0.197479 0.369731 0.378202 -1.044061 0.482185 -0.000970 0.522361 0.413237 0.336613 -0.010307 -0.314352 0.520362 -0.113631 -0.260379 0.284358 -0.461778 0.160866 1.171215 0.870125 0.464900 -0.270443 -0.810970 0.459627 -0.474172 0.549488 -0.018921 1.016083 1.350709 -0.286054 -0.669469 0.162471 0.672978 -0.222222 -0.166812 -0.071042 1.123120 -1.177210 -0.677739 0.647286 -0.292565 0.358739 -0.085190 0.721992 0.779996
right -0.653949 0.291221 -0.770312 -0.671024 -0.177716 0.159004 0.478327 -0.433519 0.096215 0.065213 -0.866974 0.017439 -0.031240 -0.633944 0.174895 -0.566337 0.593513 0.375644 0.401912 -0.590493 -1.147379 -0.588848 -0.598254 -0.054444 -0.365764 -0.922833 -0.676442 -0.644657 0.466675 -0.301241 0.404089 0.536706 0.428572 0.561114 0.054667 0.472658 -0.354305 -0.488835 0.921322 -1.307139 -0.000743 1.243067 -1.031569 -0.946160 0.676224 0.353197 0.186122 0.141863 0.063302 0.665314
make 0.201642 0.372526 -0.490076 -0.145577 0.444740 0.563968 0.708782 -0.396741 -0.006629 0.031598 0.433074 0.173173 0.088430 0.150202 -0.035896 -0.401593 0.116456 -0.180158 0.909329 0.132051 -0.804182 0.142650 0.658226 -0.810953 -0.708232 0.014072 -0.621722 -0.237205 -0.112767 0.162046 -0.639366 -0.226463 0.554943 0.363778 0.440151 0.075475 -0.335048 0.349535 -0.477363 -0.745145 0.253658 -0.042828 -1.603385 -0.391875 0.835062 -0.512157 -0.034118 -0.795690 0.400914 0.473610
No. -0.535546 0.282019 0.820358 -0.009242 -0.396174 0.671444 -0.308691 -0.293682 -0.090224 0.375298 0.681466 0.198693 0.015184 0.160736 -0.005578 -0.349022 0.029799 -0.891513 -0.291180 -0.151856 -0.489203 -0.890202 0.376447 -0.409393 0.083271 0.504694 0.691163 -0.006885 0.018502 -1.039058 0.388557 0.013806 0.619112 0.779657 -0.883928 0.288870 -0.475057 0.044038 -0.878863 -0.055815 -0.078587 0.115994 -0.995493 -0.458692 0.695222 -0.183931 0.041881 -1.287628 0.166155 0.464136
had -0.575836 -0.157110 0.498540 0.009737 0.594901 0.199211 1.465046 -0.339482 0.334711 0.141603 0.674612 0.635534 0.169240 -0.568252 0.115097 0.557692 -0.226841 -0.078122 -0.075421 -0.435760 -0.708286 0.078946 -0.521293 -0.009923 -0.493257 -0.447995 0.412536 0.188954 0.125480 -0.484868 -0.163120 0.385359 0.443930 0.129595 -0.099471 -0.780099 0.089095 -0.373331 -0.544684 0.201492 0.018116 -0.383251 -1.453981 -0.616916 1.021707 -0.498543 -0.724377 -0.384782 0.546037 0.110479
only -0.617055 0.830970 0.501116 0.910857 -0.216201 0.520166 0.417179 -0.021516 0.498712 -0.267423 -0.606825 0.594260 0.626572 -0.361263 -0.108035 0.265306 0.140149 -0.679605 0.216072 -0.365139 -0.503125 0.434197 -0.502499 -0.427177 -1.043252 -0.524475 0.052382 0.227964 -0.044051 -0.183758 -0.825304 0.444666 0.374201 0.233191 -0.958509 -0.840761 -0.268207 -0.232696 -0.140469 0.622448 -0.423049 0.171473 -0.807190 -0.460107 1.142050 -0.248339 -0.514920 -1.300863 0.124200 0.161300
really -0.812201 0.904063 0.517837 -0.375754 0.247980 1.072137 0.783725 -0.397244 0.464857 0.612839 0.411486 -0.045394 0.239090 -0.197317 0.102584 0.156156 -0.186497 -0.690100 0.046034 0.056038 -0.566514 0.006663 0.129191 -0.077292 0.166925 -0.200960 -0.032304 -0.677074 0.801495 -0.042627 -0.355274 -0.236892 0.043215 1.275184 -0.371682 0.322463 -0.512049 0.390248 -0.438748 -0.286829 -0.504873 0.087821 -1.042525 0.134537 1.333418 -0.477674 -0.292638 -0.506493 0.573704 -0.217944
Yeah. 0.043283 0.498935 0.433561 -0.843108 -0.330449 0.887255 0.295071 -0.370819 0.578945 -0.033316 0.227479 0.154422 -0.183346 0.174499 0.723895 0.090962 -0.360373 -0.080273 -0.119759 0.197298 -0.625030 -0.571888 0.296955 0.463484 0.895091 -0.114292 0.230654 -0.068232 -0.278527 -0.598335 0.143970 0.187682 0.264887 1.408004 -0.508057 0.346345 -0.839225 0.292727 -1.007308 -0.227410 0.333654 0.530978 -0.550906 -0.640767 0.785350 -0.254798 0.521271 -1.061558 0.291107 1.102001
didn't -0.743818 0.385121 0.746764 0.088588 0.035782 0.827863 0.936390 -0.672334 -0.040936 0.155124 0.445946 0.202480 0.038951 -0.600662 -0.030396 -1.094747 -0.851170 -0.328446 0.911445 0.312158 -0.457928 0.619781 -0.335471 0.342602 0.290556 -0.214859 0.016036 -0.611883 0.026832 0.338117 0.100509 -0.489993 0.692564 1.234898 0.010269 -0.266641 0.345512 -0.150796 -0.333200 0.750683 -0.573682 0.342396 -1.105774 -0.251927 0.879612 -0.321597 -1.487524 -0.436307 0.282584 0.466547
Why -0.205893 0.039097 -0.064224 0.065337 -0.014747 1.108795 0.426487 -0.966510 -0.064556 0.302279 0.436107 -0.015861 -0.020405 0.332182 -0.141866 -1.106656 -0.191765 -0.525985 0.887640 -0.262377 -0.741048 -0.151934 0.153795 0.018875 0.668865 -1.127073 0.363071 -0.265460 0.338342 0.447712 0.704716 -0.250456 0.133543 1.485682 0.059862 -0.144044 0.526892 -0.601034 -0.105267 0.575483 0.167289 0.737651 -0.449142 -0.343256 0.902448 -0.285937 -0.333235 -0.612626 0.534799 0.405140
here -0.462393 0.416573 -0.019208 -0.031415 -0.200856 0.508552 0.783856 -0.075362 0.420819 -0.770924 -0.244786 0.277119 0.420258 -0.406842 0.031243 -0.296293 0.229419 -0.080439 0.338814 -0.893640 -0.878178 -0.958585 -0.661855 0.528716 -1.218534 -0.396096 -0.404126 -0.778917 0.317783 -0.286001 0.465546 -0.060651 0.977076 0.232460 -0.000944 -0.536370 -0.075891 -0.038801 0.134808 -0.231397 -0.162200 0.468770 -0.850231 -0.722589 0.715655 0.622801 -0.130358 -0.422866 -0.000281 -0.391603
good -0.025108 0.718127 -0.115569 -0.448960 0.069606 0.699213 0.904571 0.102839 0.224968 -0.070849 0.559748 -0.117801 0.279121 1.190030 0.324742 0.426902 0.431009 -0.250258 -0.818111 -0.515442 -0.086441 -0.291757 0.271434 -0.750622 0.018257 0.008651 -0.381851 -0.355525 0.314603 -0.442814 -0.951860 0.220495 0.486741 -0.073778 -0.139759 -0.398645 -1.382882 0.932255 0.077436 -0.609661 0.025640 0.087661 -1.643203 -0.107225 1.402872 -1.229098 -0.351806 0.242221 0.553582 0.565908
He's -1.530107 0.277849 0.265692 -0.381631 -0.215991 1.249199 0.694790 0.291251 0.392020 -0.341798 0.057922 0.150710 0.514351 0.131435 0.200436 -1.110620 0.720481 -0.975224 -0.730473 -1.134993 -0.845698 -0.724656 -0.300692 0.139034 0.019985 0.094872 0.315885 -0.517297 0.353133 -0.291256 0.056141 0.969832 0.361219 0.076003 0.041988 0.050290 -0.418846 -0.584854 0.118235 -0.492013 0.040362 0.260145 -0.250687 -0.806598 0.703393 -0.242164 0.286183 0.319806 0.636517 0.611682
into 0.278424 0.251424 -0.295811 -0.486356 -0.185085 0.159667 0.444582 -0.445077 -0.244084 -0.278979 -0.654054 -0.091734 1.167281 -0.923093 -0.552663 -0.422880 0.179488 -0.360032 0.850717 -0.279927 -0.065731 -0.105917 -0.808250 -0.101252 -0.635813 -0.101305 -0.581821 0.490429 -0.296102 -0.637211 -1.192126 -0.034944 0.357950 0.081023 0.460157 -0.479888 -0.116933 -0.672546 0.031692 -0.521978 -0.667845 0.623831 -0.848185 -0.476134 0.795544 -0.785837 -0.366241 -0.513875 0.557903 -0.353535
They -0.665269 -0.045976 1.104362 0.119078 -0.537476 0.276033 0.600931 -0.747148 -0.450219 -0.196116 0.114827 -0.982397 0.108730 -1.087814 -0.039526 -0.578074 -0.094286 0.130362 0.229892 0.003995 -1.109611 0.427669 -0.275859 -0.009716 -0.278702 -0.336566 0.016175 0.308674 0.404957 -0.215939 -0.006460 0.101193 0.335658 0.122799 -0.393793 0.277838 0.200425 -0.608096 0.268373 -0.199849 0.775674 0.484355 -1.064392 -0.109154 0.425454 -0.060871 -1.538996 -0.414055 0.274173 0.606216
that. -0.729595 0.152342 0.993568 -0.311803 0.140191 1.101513 0.898854 -0.211959 -0.363738 0.225047 0.787459 -0.046677 0.057464 -0.163642 -0.589591 -0.426740 -1.004653 -0.228171 0.160351 -0.133234 -0.447628 0.332893 -0.561067 -0.503055 0.267603 0.229294 0.027444 -0.607265 0.356518 0.070042 -0.731196 0.264328 -0.041974 0.960843 -0.374530 0.794307 -0.739861 0.297124 0.230901 -0.974999 0.113641 0.226606 -1.505284 -0.344444 0.299504 -0.087953 -0.967131 -0.761618 0.477563 0.307276
go. 0.035124 1.663301 0.562105 -0.030686 -0.746971 0.884873 -0.167077 -0.293598 -0.890749 -0.094368 0.120767 -0.601417 -1.132759 0.606655 0.323839 -0.498921 -0.729135 0.356557 0.682116 0.291500 -0.399491 -0.812030 -0.081344 0.617576 -0.193702 -0.222669 0.154259 0.160025 0.142736 -0.584007 0.562790 0.197127 1.123674 0.632887 0.113129 -0.161819 -1.350409 0.258838 -0.486612 -0.921430 0.044892 0.619902 -0.714816 -0.402640 0.568494 -0.272167 0.312303 -1.286104 0.833862 0.153734
little 0.152300 0.728904 -0.979594 -1.039972 -0.287621 0.970741 0.923942 0.062447 0.365793 -1.068237 0.619646 0.561188 0.232803 0.101613 1.061166 0.335909 -0.068209 -0.537076 -0.033787 -0.064781 -0.286688 0.536160 0.314869 0.442160 -0.131275 -0.600168 0.157347 0.272731 0.398345 -0.343980 -0.982634 -0.020421 0.186094 0.168348 -0.014300 -0.569385 -1.285235 0.612992 -0.148357 -0.666229 -0.924215 0.740504 -1.056828 -0.063907 0.457524 -0.554115 -0.647952 0.661696 0.355229 0.777081
Do -0.430165 -0.606915 0.181460 0.095367 -0.575610 0.558302 -0.085369 -0.608272 -0.054211 0.814141 0.973425 0.212899 -0.001651 0.747483 0.572848 -0.467331 -0.145664 0.443351 0.529556 0.331425 0.081665 0.038815 0.697690 -0.382865 -0.650956 -0.130473 -0.332268 -0.579017 0.656091 -0.572411 0.483959 0.399577 0.923932 0.928393 -0.319190 0.055322 -0.607350 -0.222591 -0.826794 0.053997 0.074504 0.377694 -1.160941 0.070356 0.471449 -0.172442 -0.451317 -1.136033 0.661036 0.656618
more 0.389056 1.239441 -0.617481 -0.266945 0.107913 0.794674 0.468742 0.021765 -0.051637 -0.315414 0.416846 0.192623 0.933883 -0.379832 -1.307925 0.658509 0.285147 -0.485438 -0.291526 -0.259173 0.156091 0.192446 -0.292432 -0.112042 -1.027473 -0.268877 -0.263058 0.249805 0.402827 0.096472 -0.051185 -0.322683 0.626437 0.378546 -0.209789 -0.779163 -0.740985 0.302553 0.023987 0.046216 0.029388 0.199062 -1.436758 -0.786177 -0.022381 -0.254380 -0.926370 -1.565148 0.146183 0.396848
she -0.945227 -0.080359 0.631688 -0.476806 0.314038 0.788884 1.227413 -1.406293 0.489283 1.167921 0.011817 0.025077 -0.262420 -0.159104 1.087257 0.017173 -0.724720 -0.113802 1.124619 -0.408385 -0.349553 -0.063738 -0.122165 0.648034 -1.089140 -0.224125 -0.023292 -0.116789 0.365103 0.129918 -1.009431 0.074009 -0.154014 0.822993 -0.043020 -0.263149 -0.284878 -0.459288 -0.429433 0.971147 -0.640219 0.467615 -0.118462 -0.344165 1.157192 -0.033760 -0.109286 -0.233977 -0.058674 0.218118
Mr. -0.455952 -0.447672 -0.835734 -0.506400 -0.149859 0.276586 0.308555 -0.535875 -0.205160 -0.068711 0.268407 0.266308 -1.744952 0.405608 -0.424005 0.588112 0.350856 -0.632689 -0.255835 -1.362967 0.420332 -0.970978 0.308590 1.166078 -0.873441 -0.048590 -0.491245 0.405703 0.417189 -0.593671 -0.446418 0.462867 1.093668 1.240087 0.341394 0.550008 0.373307 -0.127847 -0.591994 -0.359366 -0.004571 -0.034045 0.009757 0.102999 0.250160 1.585500 0.922859 -1.412929 0.585622 0.667446
him. -0.835008 -0.383579 0.535111 -0.652728 0.079626 0.905214 1.041594 -0.328789 -0.180292 0.069957 0.174600 -0.024153 -0.055541 -0.114876 0.030256 -0.930277 -0.354503 -0.939667 0.309621 -1.037046 -0.076743 -0.318098 -0.777709 0.219819 -0.057683 0.445752 0.441613 -0.225261 -0.281497 0.117519 -0.366651 -0.025535 0.750144 0.235298 0.019791 0.179548 -0.040216 -0.272655 -0.298508 0.316686 -0.264440 0.196006 -1.048743 -0.471049 0.907990 0.180211 -0.421966 -0.675827 0.677500 1.167649
now. -0.341030 0.515536 -0.493631 -0.158542 -0.218936 0.213109 0.413517 -0.168770 -0.227519 -0.372037 -0.149137 0.408054 -0.377543 -0.245196 0.220252 -0.526197 0.325085 -0.194037 0.288141 -0.747866 -0.687895 -0.549695 -0.047467 0.241118 -0.130820 -0.688322 -0.415212 -0.230219 0.617736 -0.321622 0.386623 0.141064 0.662087 0.573740 0.039254 0.111550 -0.785087 -0.235696 0.342217 -1.308439 -0.196201 0.353707 -0.811694 -0.537996 0.568309 0.347683 -0.322489 -0.318187 0.359850 0.102290
time -0.240755 0.560109 -0.127418 -0.075008 0.577544 -0.338764 0.625486 -0.192991 0.252349 -0.286457 -0.139729 0.901628 0.372931 0.262109 -0.108421 0.427317 0.088828 0.619042 0.871418 0.262911 0.347773 0.177136 0.319141 -0.042993 -1.397946 -0.439745 -0.640939 0.157467 -0.024678 -0.387812 -0.007008 0.331231 1.143726 0.295520 -1.033080 -0.686219 -0.666037 0.418445 0.160376 -0.121757 0.533744 0.293102 -1.589171 -1.392305 0.324196 -0.822908 -0.196583 -0.489548 0.423399 -0.206011
Okay. 0.254084 0.469633 0.383632 -0.720977 -0.290621 0.338991 0.109105 -0.543681 -0.290495 -0.380447 -0.029482 -0.110878 -0.521644 0.504464 0.466531 0.060462 -0.388133 0.095062 0.246128 -0.206963 -0.500245 -0.698246 0.727328 0.683585 0.609234 -0.115658 0.327710 0.036755 0.345024 -0.483335 0.299358 0.368012 0.634835 0.936021 -0.600148 -0.108152 -1.315044 0.640725 -0.763025 -0.866289 0.492550 0.551594 -0.838119 -0.224294 0.480865 0.170964 0.338381 -0.841916 0.208178 0.642077
Just 0.421219 0.866344 0.348194 -0.440334 0.433190 0.567475 -0.568003 -0.368127 -0.103548 -0.341674 0.054837 -0.113764 0.217593 0.399812 -0.392715 -0.500417 -0.434306 -1.026381 0.289557 0.343608 -0.239281 -0.611699 -0.102788 -0.432546 -0.051381 0.132413 -0.433721 -0.446608 0.077388 -0.119761 -0.110450 -0.115941 0.686358 1.068790 -0.445115 -0.155704 -0.572375 0.201481 -0.161321 -0.787207 -0.550141 0.664914 -0.981426 -0.568746 0.737444 -0.159208 -0.362130 -0.579618 0.255436 0.688993
-- -0.010925 -0.099591 0.188508 -0.213789 -0.079859 0.579263 -0.694822 -0.401731 -0.327495 0.628957 -0.151284 0.107310 -0.361914 1.358635 -0.062849 -0.070732 0.065896 -0.626425 0.205194 0.345895 0.396427 -0.586337 1.021970 -0.238638 0.620704 -0.551353 0.545971 0.517473 0.548744 -0.991548 0.266290 0.319122 0.107729 0.426402 -0.681674 0.759437 -1.007367 0.058103 -0.706007 0.096974 0.269017 0.166680 -0.178372 0.641644 0.664937 0.093646 0.211632 -0.885063 0.812501 0.421853
No 0.226145 0.669051 -0.069584 -0.185155 0.285138 1.399613 -0.543346 0.041130 0.132415 0.379412 0.335787 -0.543982 0.962070 0.166770 -0.120068 0.460125 -0.131999 -0.638692 -0.214853 -0.873786 0.996089 0.021588 0.031709 -0.104987 -0.741983 0.510093 0.604404 0.409081 -0.258791 -0.101485 0.276684 0.048571 -0.324204 -0.152189 -0.856442 -0.514009 -1.303173 0.313204 0.228934 0.582702 -0.140918 0.628928 -2.152860 -0.737793 0.195768 0.191553 -0.044239 -1.365314 0.529751 0.239249
find 0.017601 0.579605 -0.118230 0.151824 -0.461175 0.715855 0.736454 -0.835118 -0.171091 -0.053158 0.093310 -0.235255 -0.101245 -0.708620 0.065197 -0.886631 -0.202538 -0.079536 0.743613 -0.914578 -0.079573 0.195416 -0.427349 0.653688 -0.660640 -0.159929 -0.361732 -0.066180 -0.398182 0.577228 -0.567886 -0.239053 0.671083 -0.081595 0.160761 -0.159593 -0.034962 0.438187 -0.396315 0.034665 0.001588 0.548711 -0.959292 -0.483705 0.735930 0.343615 0.294537 -0.850735 0.493993 0.483800
let -0.395348 0.428153 0.256591 0.024300 -0.210879 0.362897 -0.225169 -0.833227 -1.046394 -0.043962 -0.148389 -0.712274 -0.437941 -0.247101 -0.024373 -1.091639 -0.535987 -0.794061 1.108310 0.257067 -0.596130 -1.062627 -0.699824 -0.124752 -0.616622 0.427079 -0.247468 -0.383107 0.442951 0.782167 0.093047 -0.975531 1.029409 0.425986 -0.580973 -0.311155 -0.206202 -0.145907 0.014730 -0.177102 -1.044716 0.118425 -0.828515 -0.203877 1.030552 -0.093295 -0.599143 -0.623787 0.383435 0.206880
We're -0.177998 0.457263 0.598250 0.298427 -0.442022 1.298910 0.238162 0.170783 -0.054443 -0.690137 0.213666 -0.255719 0.796095 -0.222407 -0.057348 -1.024225 0.434545 -0.436644 -0.530494 -0.979389 -0.679408 -0.834000 0.045945 0.248990 0.196721 0.119866 -0.198200 -0.576973 0.256988 -0.349451 0.239903 0.329267 0.592035 0.418911 0.113584 0.162193 -0.129305 0.331555 0.155044 -1.337862 0.416315 0.599266 -0.427344 -0.275487 0.790234 0.224833 0.872881 -0.116700 0.643840 -0.898983
What's -0.429137 0.344245 0.437218 -0.495495 0.453615 1.595833 -0.128267 -0.318562 0.671969 -0.194774 -0.120377 0.214001 0.570490 1.044924 0.018859 0.078794 -0.441783 -0.727316 0.313535 -0.268677 0.229123 -0.103018 0.627029 0.054871 0.966095 0.213505 0.510630 0.372951 -0.022320 -1.052343 -0.090430 0.738858 -0.277047 1.776797 -0.123086 0.025193 0.214143 -0.418716 0.594186 -0.160655 0.768827 1.256300 -1.018614 -0.840823 0.178930 0.179646 0.469114 -0.378995 0.806449 -0.105196
What? -0.351703 0.382336 0.565488 -0.051121 -0.136992 0.761451 0.041726 -0.603500 0.245916 0.115599 0.055329 0.399885 0.150954 -0.047343 0.264987 -0.422724 0.125026 -0.283005 -0.225315 -0.253944 -0.779179 0.050404 0.631565 0.542511 0.739806 -0.101960 0.547822 0.333362 0.335216 -1.007954 0.396388 0.328792 0.303315 0.791702 -0.442183 -0.231410 -0.284044 -0.017843 -0.652554 -0.211820 0.286004 0.808783 -0.557075 -0.796050 0.860882 -0.203089 0.162239 -0.514635 0.095809 1.008111
that's -1.178587 0.289259 0.695323 -0.195371 -0.379791 0.521306 0.940832 -0.262820 0.739724 0.047929 0.234966 -0.273907 0.060840 0.312049 0.439642 0.230265 -0.321977 -0.274260 -0.082997 -0.194370 -0.930637 -0.907705 -0.595370 0.004682 -1.186742 -0.310528 -0.033797 -0.423470 0.469635 -0.229321 -0.678831 0.115945 -0.051308 0.806328 -1.317993 -0.457864 -0.986273 0.311603 -0.080012 -0.259567 -0.336618 0.027232 -1.382461 0.259652 0.085863 -0.201288 0.828957 -0.131383 0.069435 -0.099988
Are 0.147608 0.707774 0.154097 0.497121 -0.572430 0.795973 -0.386970 -0.486493 0.653178 -0.502876 0.308888 -0.306338 0.138084 0.065542 1.015392 -0.180410 0.433081 -0.765248 -0.358890 -0.185227 -0.322828 -0.895275 0.665649 0.591358 0.054364 -0.297835 0.089561 -0.322383 0.401695 -0.240623 0.079402 -0.663596 0.465696 1.363642 -0.584136 0.020725 0.014244 0.113456 -0.234420 -0.190867 0.053290 0.691241 -0.879417 -0.203426 0.565727 -0.028146 0.069415 -0.728413 -0.228117 0.078100
over -0.580599 0.615960 -0.345094 -0.424352 0.073053 -0.399865 0.497062 -0.080448 0.056030 -1.431809 -1.005107 -0.858170 0.680006 -0.086374 -0.004119 -0.220845 0.284024 -0.083303 0.784008 -0.406818 -1.091548 -0.621594 -0.800033 1.092421 -0.719585 -1.158172 0.129958 0.398067 0.737573 -0.259109 0.247235 0.135110 0.630862 -0.081204 -0.292069 0.241624 -0.127838 -0.439535 0.633003 -0.669196 0.529598 0.232922 -1.122977 -0.398070 0.529517 -0.121234 -0.873250 0.045062 0.355713 0.000737
this. -0.071164 0.129591 0.237812 -0.221212 -0.127628 0.436672 0.200336 0.178244 -0.274985 -0.239887 0.397539 0.353203 0.060359 0.343553 -0.583870 -0.307484 -0.168933 -0.152576 0.316374 -0.441500 -0.695433 0.114129 -0.351969 -0.555852 0.593754 0.057283 -0.487027 -0.757867 0.374413 -0.107622 -0.061032 0.201987 0.740682 0.516125 -0.009787 0.273052 -0.174632 0.248737 -0.473206 -0.867678 0.405647 0.127030 -1.133141 -0.065908 0.901401 -0.184284 -0.226599 -1.059200 0.975979 0.881396
Thank 0.325243 0.022371 -0.175811 -0.434188 0.069901 1.064597 1.249892 -0.316657 -0.256785 -0.576477 -0.405884 -0.537330 -0.999068 0.863198 -0.643688 0.404523 0.078157 -0.359374 -0.294408 -0.944262 -0.303593 -0.594384 0.738782 0.530202 0.290867 0.535767 0.321073 0.164055 0.495150 -0.327772 -0.096033 -0.200980 0.755497 0.954449 0.077809 0.130059 -1.160844 0.726775 -0.235973 -0.193595 0.628237 -0.256872 -0.729759 0.792914 0.961489 0.476157 0.366351 -1.461097 -0.108033 1.201247
even -0.594229 0.188869 0.210632 0.068459 0.150095 0.979197 0.735181 -0.802724 0.309343 0.765577 0.712683 -0.399896 0.795820 -0.355459 0.184435 -0.075975 0.000191 -0.462380 0.673575 -0.353063 -0.036057 0.012475 -0.716988 -0.341016 -0.599216 -0.554556 -0.145593 -0.086724 1.023072 0.746856 -0.454046 -0.455513 0.176548 0.313197 -0.627654 -0.371384 0.090359 -0.385224 0.166428 0.107963 -0.190916 0.387119 -1.234064 0.044200 0.678881 -0.250599 -0.671505 -0.246576 0.726866 0.441082
on. -0.433101 -0.289165 0.175656 -0.494961 0.243290 1.472496 -0.247317 0.126228 -0.323687 -0.630025 0.743967 0.396339 -0.451670 0.621495 0.313716 -0.377066 -0.569041 0.802664 0.717329 0.406756 -0.195224 -0.619388 -0.828561 0.366705 0.068466 0.216147 -0.037798 0.041060 0.675112 -1.501013 0.533806 0.533678 1.066789 -0.011100 0.608412 0.129256 -0.157727 0.234997 -0.383887 -0.749280 -0.210854 0.462376 -1.053275 -0.215149 0.185395 0.652263 0.700272 -0.860806 1.319495 0.448705
we're -0.847238 0.168279 0.166967 -0.058733 -0.691796 0.585627 0.423194 -0.078408 0.336178 0.004041 -0.359607 -0.109196 0.832982 -0.190619 0.022899 -0.097730 0.126307 -0.369533 0.226751 -0.498336 -0.845867 -1.071531 0.143101 0.003027 -0.553335 -0.423646 -0.352270 -0.836233 0.363470 -0.056612 -0.773314 0.446716 1.007898 1.015814 0.114166 -0.106725 -0.021258 0.624138 -0.149711 -1.522689 0.192577 0.343027 -0.794835 0.382322 0.297257 0.388207 1.087648 -0.127997 0.256573 -1.224142
right. -0.460847 0.324201 1.113464 -0.801215 0.238286 0.822834 0.688226 -0.446140 -0.373774 -0.384910 0.211570 -0.777091 -0.549202 0.206698 0.260727 0.161353 -0.416800 0.174144 -0.365850 1.085346 -1.325311 -0.506703 0.059707 -0.061945 0.116872 0.052648 0.736649 0.068386 0.081880 -0.509268 -0.318280 0.734790 0.209537 0.896342 -0.149822 0.000359 -0.710506 -0.010046 0.030278 -1.113001 0.676215 0.503713 -1.211070 -0.291395 0.474338 -0.098285 0.665590 -0.231926 0.299091 -0.086692
Is -0.099411 0.525361 0.037310 -0.623495 -0.311705 0.987783 0.215205 -1.216348 0.114530 0.160275 0.188673 0.007312 0.283610 0.723444 0.480374 0.241507 -0.698262 -0.567848 0.149333 -0.517493 -0.449096 0.096343 0.514119 0.236593 -0.030072 -0.097051 0.436812 0.016697 0.082166 -0.466116 -0.043002 0.241870 -0.215786 1.316894 0.058842 -0.209421 -0.269135 0.205683 -0.271830 0.012011 -0.205425 0.888697 0.008635 -0.683081 1.116620 -0.395130 0.691441 -0.591533 0.019810 0.009800
look -0.093760 0.013109 0.063908 -0.776972 0.286751 0.671594 0.232775 -0.796670 -0.292278 0.322455 0.129710 -0.658261 -0.360874 0.232224 -0.536639 0.281413 -0.224996 0.668538 -0.293992 -0.090800 -0.547583 -0.262934 -0.216568 -0.241087 -0.726341 -0.083426 -0.951361 -0.358485 1.014445 -0.662063 -0.344628 0.292398 0.109602 0.854950 -0.132885 0.668557 -0.154208 -0.038052 0.493410 -0.998113 -0.242678 -0.030786 -1.569701 0.221447 1.117706 -0.574109 -0.566832 -0.741853 0.356150 0.362203
no, -1.928729 0.947047 0.792174 -0.755393 -1.125047 0.745435 -0.628566 0.038561 -0.369609 -0.016541 0.548861 0.003663 0.251405 0.588941 -0.229481 -1.132974 -0.473521 -0.687480 -0.182009 -0.294380 -0.004576 -1.327876 -0.008834 0.554554 -0.439857 1.335669 0.998127 -1.091830 0.834471 -1.250294 0.138589 -0.624236 0.785067 0.621576 -0.677330 0.158011 -0.411679 0.136597 -0.931560 0.558933 -0.586758 0.269927 -0.056960 0.498756 1.009768 -0.308422 0.565591 -0.580324 -0.388423 -0.581353
where -0.759374 -0.045874 -0.133376 -0.580081 -0.592144 0.680686 0.092902 -0.778711 0.496239 0.149294 -0.003180 0.107113 0.404437 0.126484 0.552228 -0.199115 -0.614665 0.980729 0.536243 -0.054575 -0.286243 0.150913 -0.297477 0.517276 -1.224103 -1.004587 -0.952556 -0.941428 0.111843 -0.001304 -0.069953 0.441411 0.336320 0.759199 -0.239196 0.011956 0.224495 -0.160809 0.384945 0.420494 -0.308120 0.802353 -0.864132 -0.525494 -0.082986 0.382764 -0.204273 -0.375351 0.334279 0.132659
very -0.144073 0.463041 -0.740913 -0.381961 -0.204505 0.980837 1.659980 0.330345 0.568925 -0.590622 0.131986 -0.223608 -0.240900 -0.058826 -0.305653 0.098670 0.921398 -0.180604 -0.643936 -0.213185 -0.358003 -0.128271 0.578240 0.777481 -0.465389 -0.413630 -0.639872 -0.097400 0.833067 0.280577 -0.525501 0.166854 0.247856 0.473420 0.255960 0.496052 -1.135404 0.462290 -0.464313 -0.511333 0.365089 -1.008965 -0.616086 0.534881 1.167746 -0.468084 0.108162 -0.402788 0.142253 0.110564
me, -0.279543 -0.238296 0.105583 0.320000 -0.073692 0.650061 0.426341 0.192262 0.821736 -0.985798 0.090885 0.404227 -0.289761 0.266794 0.195312 -0.408872 -0.515064 -0.360128 0.364762 -0.220867 -0.440352 0.069747 -0.121485 0.718421 -0.341828 0.163693 -0.669191 -0.243507 0.336984 0.333898 -0.668647 -0.290259 0.321691 1.236754 -0.758854 0.953769 -0.159875 0.739845 -0.176661 -0.118619 -0.819722 -0.179194 -1.205194 0.446246 -0.062118 0.850914 -0.606370 -0.974742 0.261991 1.463082
their -0.367602 -0.006254 0.366762 0.479581 -0.573950 0.308364 0.847569 -0.521425 -0.338488 -1.077569 0.476131 -0.411172 0.195832 -0.823132 -0.023173 -0.960786 0.388049 -0.178441 0.434729 -0.335952 -0.945828 0.845762 -0.114384 -0.221443 -0.628718 0.091087 0.003546 0.855304 -0.599077 -0.499434 -0.739728 -0.500385 -0.285482 0.127647 -0.397782 -0.307858 0.106832 -0.275268 0.223257 -0.348624 0.477962 0.747545 -1.079032 -0.099195 0.086001 0.402382 -0.332734 -0.265578 -0.553808 -0.202908
way -0.517575 0.266518 -0.130135 0.627921 0.072504 0.567676 -0.065534 -0.322508 0.174428 -0.356997 -0.389068 -0.327176 0.092552 -0.742642 -0.218406 -0.065153 0.073157 -0.287863 0.732812 -0.225250 0.071862 0.147966 -0.217507 0.653011 -1.496198 0.018167 0.019643 -0.112799 0.048079 0.270873 -0.434264 0.479082 0.060406 0.212031 -0.838928 -0.249161 -0.422611 -0.297629 0.385510 -0.218162 0.149182 0.077177 -1.321194 -0.888607 0.783705 -0.292243 0.779869 -1.317208 0.468995 -0.205845
said -0.965463 0.258337 0.380939 -0.539022 0.204074 0.740632 0.886685 -0.841725 -0.049686 -0.015265 0.449382 0.563816 -0.673203 -0.497260 0.233239 0.383232 -0.689848 0.117423 0.471368 -0.361041 -0.404173 -0.133656 -0.338285 0.596326 -0.360821 0.126946 -0.184121 0.124034 0.627003 -0.353647 -0.942930 0.198046 0.325283 0.245774 0.124960 0.101320 0.114112 -0.667154 -0.038097 0.480780 -0.102482 0.202946 -0.204494 -0.765949 0.934855 -0.107466 -0.773155 -0.447013 0.254240 0.056321
still -0.368671 -0.039078 0.496027 0.481919 -0.093058 1.196458 0.615548 -0.071382 0.554997 -0.106773 -0.139719 -0.083163 0.921943 -1.017349 0.154193 -0.328523 0.518137 -0.741015 0.449100 -0.933286 -0.662652 -0.002032 -0.489274 0.510173 0.221991 -0.619379 -0.133236 -0.210597 1.100073 0.321908 -0.544692 0.468044 0.525255 0.276859 -0.125574 -0.422238 0.187438 -0.359199 -0.437642 -0.362611 0.137769 0.427997 -0.510737 0.156740 0.806616 0.834804 -0.022214 -0.698329 0.671552 0.239630
on, -0.215705 0.001621 0.336264 -0.589864 0.056290 1.396165 -0.476245 0.164882 -0.180628 -0.621408 0.420385 0.171341 0.209521 1.022351 0.963839 -0.202468 -0.872640 1.222314 0.574952 0.412653 0.126386 -0.718514 -1.377428 0.410744 -0.012179 -0.004052 -0.237930 -0.124661 0.845879 -0.837195 0.251562 0.417587 1.204655 -0.129182 0.865866 -0.114531 -0.123347 0.764280 -0.322570 -0.847788 -0.657516 0.460972 -0.993183 -0.113638 0.254572 0.496757 0.432323 -0.674390 1.090711 0.608589
say -0.727078 0.714112 0.619804 0.138154 -0.207246 0.322977 0.834467 -0.696174 0.198869 0.314239 0.570032 0.401208 0.400411 -0.017377 -0.368157 0.038746 -1.325007 0.411447 0.280838 -0.004949 -1.003114 -0.056946 0.256948 -0.270486 0.007857 -0.357774 0.188251 -0.163716 0.265627 0.300307 -0.254454 -0.582792 0.412675 0.812307 -0.523494 0.478336 -0.225693 0.449289 0.058551 -0.107087 0.283503 0.101612 -1.152594 -0.318156 0.414438 -0.805688 -1.002268 -0.486694 0.214832 0.084551
know, -0.837406 0.432741 -0.413844 -0.239006 0.013313 0.244921 0.709381 -0.240830 0.821159 0.013475 0.376409 0.431474 0.723100 -0.541957 0.016925 0.323545 -0.049749 0.291343 -0.181236 0.127558 -0.755183 -0.120006 -0.200339 0.212989 0.258222 -0.371892 -0.350557 -0.673108 0.877631 -0.415618 -0.434991 -0.604152 0.551767 0.976027 -0.522452 -0.340684 0.118270 0.890396 -0.400185 -0.060373 -0.496896 -0.017729 -1.108287 0.074542 0.757622 -0.373328 -0.168804 -0.051070 0.093177 0.182185
right? -0.242913 -0.008403 0.367007 -0.896270 -0.230458 0.698736 0.801243 -0.393023 0.412774 -0.513021 0.029932 -0.518949 -0.218632 -0.054828 0.274207 0.130417 -0.040858 0.052822 0.082119 0.647911 -0.783148 -0.737227 -0.049714 0.189843 0.007749 -0.399057 0.107562 -0.470754 -0.381445 0.110211 -1.064842 0.716839 0.253506 1.152584 -0.334378 -0.003200 -0.369917 0.142961 -0.317068 -0.705030 0.490236 0.205575 -0.989554 -0.069532 0.454419 -0.095170 0.578053 -0.341727 0.211756 -0.260741
it? -0.377553 0.336139 -0.252193 -0.699266 -0.041777 0.501653 0.461745 -1.046349 0.039609 0.429889 0.528311 0.061011 -0.001721 0.963209 -0.562017 -0.126750 -0.516051 -0.475781 0.916916 -0.320604 -0.255128 0.799231 -0.018118 0.256594 0.529501 -1.057077 0.167083 0.118668 -0.051361 0.058168 -0.165072 0.197470 -0.156930 0.863489 -0.309868 0.052500 -0.083234 -0.072161 -0.302030 -0.035914 0.624889 0.637615 -0.556373 -0.533495 0.603893 -0.686950 0.143897 -0.672988 1.128182 0.866907
Okay, -0.210350 0.689238 0.118745 -0.346509 -0.110192 0.665452 -0.154544 0.199095 0.172112 -0.373292 0.394815 0.125827 -0.323879 0.247415 0.774969 -0.123450 -0.148533 0.762730 0.176078 0.397883 -0.280952 -0.606934 -0.244121 0.805059 0.035635 -0.117346 -0.328939 -0.221813 0.783384 0.186520 -0.274205 0.089164 0.798502 0.443852 -0.392173 -0.117015 -0.655489 0.937385 -0.412835 -1.063193 -0.052611 0.284531 -0.606037 -0.205480 0.678739 -0.033875 1.119700 -0.238157 0.613869 0.436161
people 0.331236 -0.181735 -0.086476 0.118609 -0.575351 0.393926 0.851600 -0.171362 0.338737 -1.291661 -0.129410 -0.301917 0.910229 -1.033353 -0.741140 0.193574 0.423271 -0.254964 0.052434 0.330309 -0.879828 -0.107001 0.102829 0.090307 -0.878774 -0.776201 -0.565584 -0.388744 -0.106315 0.084215 -0.251274 -0.506415 0.610096 0.759425 -0.400134 -0.497436 0.035382 0.343741 0.087880 0.160250 0.249437 0.189807 -1.402205 0.166952 0.145413 0.310042 -1.359380 -0.772624 -0.382183 -0.349529
Your 0.064982 0.083691 -0.248779 0.396389 0.435746 0.938947 0.180426 -0.584662 -0.144299 -0.632584 0.779326 0.746360 -0.866730 0.201697 0.432011 -0.245944 0.258300 -0.727225 0.581561 -0.635165 -0.394692 0.667246 1.256749 -0.201822 -0.111607 0.542630 -0.187399 0.105786 0.762665 -0.195728 -0.119975 -0.511881 -0.524906 0.249383 -1.033136 0.008740 -0.576742 -0.308506 0.397519 0.429920 0.288542 0.655869 -0.674857 -0.417439 1.089692 0.486979 -0.334319 -0.099470 0.045104 -0.031822
Where 0.514536 0.550287 0.441257 0.217796 -0.487576 1.509085 -0.359208 -0.952400 0.148610 0.008763 0.254613 -0.562000 0.345721 -0.087706 0.488517 -0.567820 -0.198537 0.357292 0.480628 -0.288655 -0.144308 -0.039107 0.332606 0.994011 0.169653 -0.951764 -0.655751 -0.423121 0.619702 -0.097164 1.075183 0.155191 -0.075747 0.776865 -0.492264 0.249369 -0.108482 -0.609859 0.479111 0.553975 0.457251 1.380312 0.125313 -0.931114 0.548605 -0.027312 -0.269366 -0.737036 0.489104 -0.126551
up. 0.015870 -0.327553 0.656997 -0.445245 0.970181 0.298086 -0.174213 -0.177402 0.064125 -0.510762 -0.743141 -0.462362 0.558444 0.668288 -0.173170 -0.222814 -0.414375 0.541534 1.080472 -0.077148 -0.089344 -0.698588 -0.354289 0.404963 -0.487306 0.480772 0.381161 -0.117363 -0.037593 -0.469414 0.424664 0.159688 1.177662 0.542432 0.549099 -0.603688 -0.134721 -0.073788 -0.490708 -0.548573 0.509207 0.177053 -0.669801 -0.479815 1.058736 0.166027 0.345612 -1.026349 -0.245460 -0.161581
must -0.430828 0.878215 0.065283 0.740858 -0.447723 0.548478 0.179303 -0.518290 -0.654497 0.142959 0.163308 -0.233404 -0.426360 -0.863964 0.247371 -0.444228 0.395762 -0.218233 0.693076 0.289800 -0.848215 0.412463 0.232202 -0.476215 -0.773398 -0.465468 0.101332 0.197090 -0.161135 0.027339 0.361541 0.241694 0.286763 -0.516102 -0.165840 0.165493 -0.542323 -0.229612 -0.231649 0.149185 0.317321 -0.029624 -1.004442 -0.548361 0.734784 -0.055278 -0.573936 -1.183827 0.762517 -0.114489
there. -0.849916 0.677700 -0.384556 -1.074664 0.079085 -0.132133 0.264898 -0.309386 -0.039131 -0.573644 -0.983360 -0.424941 -0.020405 -0.477967 0.228300 -0.544441 0.095870 0.161650 0.794601 -0.408219 -0.936425 -0.335401 -0.900591 1.099228 0.007827 -0.632794 0.200170 -0.131625 0.540547 -0.110408 0.263652 -0.101168 0.605257 0.199377 -0.283581 0.368508 -0.027240 0.000485 0.469823 -0.981471 0.272374 0.847089 -0.939174 -0.554241 0.404074 0.388976 0.040527 0.043643 0.337742 0.881996
down 0.134688 0.518641 -0.438239 -0.448001 0.576170 -0.123408 -0.305214 -0.574741 -0.318431 -0.957939 -0.665118 -0.334433 0.388661 -0.742789 -0.066092 -0.379234 0.038147 -0.291298 1.100184 -0.266259 -0.527539 -0.368473 -0.386338 0.334775 -0.613421 -0.188337 -0.291649 0.075368 0.296556 -0.683854 0.322321 0.003620 0.720045 0.684094 0.445183 -0.088754 0.947364 -0.358361 0.369888 -0.904623 -0.159059 0.877770 -0.877990 -0.893674 0.668129 0.440207 0.030969 -0.299525 0.118290 -0.402522
love 0.781268 -1.265661 -0.933596 -0.658254 0.803431 0.943818 1.347266 0.308101 0.533482 -0.806825 -0.002007 0.940638 -0.045292 -0.158971 -0.546475 0.227245 -0.419663 0.246630 0.798296 0.487723 -0.904221 0.065888 -0.502284 -0.358307 0.618661 0.172458 -0.021941 -0.095036 0.397193 0.040750 0.262134 -0.890969 -0.025941 0.482513 -0.458867 0.395955 -0.656136 0.026966 -0.103817 0.097207 0.168652 -0.244798 -0.617196 0.321848 0.617544 0.327058 -0.075166 -1.038598 -0.185447 1.324321
that? -0.631310 0.252238 0.378228 -0.633877 -0.107310 0.894052 0.147755 -1.169578 0.023497 0.589558 0.276841 -0.189375 0.060745 0.824549 0.046337 -0.269918 -0.442903 -0.079128 0.329050 -0.088250 -0.399775 0.006520 0.256145 0.210493 0.734595 -0.612547 0.073952 -0.575353 0.150845 -0.253127 -0.293390 0.138910 0.350215 1.538162 0.015743 -0.030765 0.070305 -0.154184 0.240817 0.218558 0.212465 1.243395 -0.584601 -0.325028 0.699004 -0.214154 -0.482554 -0.087698 0.454963 0.742100
Yes, -0.396387 -0.304227 -0.038177 0.242553 -1.491992 -0.045380 -0.120825 -0.874080 0.417423 0.250299 -0.269146 -0.323220 0.040908 0.155258 0.275223 -0.461145 -0.068729 0.767485 0.187590 -0.707908 0.121477 -0.306497 0.544974 1.501332 -0.398928 -0.246235 -0.396068 0.332664 -0.243365 -0.738851 -0.645658 0.268500 0.358846 0.864682 -0.555052 0.643897 -1.113361 0.102978 -1.115998 -0.401634 0.052761 0.136276 0.051261 0.083448 0.531382 0.126943 0.880116 -0.901103 0.381929 0.079783
off 0.229037 -0.549066 -0.418262 -0.341714 0.123388 0.487677 0.419958 -1.058304 -1.114385 -0.454268 -0.271702 -0.018608 0.637020 0.369331 -0.183186 -1.149544 0.398129 -0.325675 0.893492 -0.081653 0.231225 0.005065 0.000215 -0.069238 -0.681716 0.403110 -0.243088 0.443641 0.242999 -0.867503 -0.460297 -0.176171 0.644105 -0.253030 0.121741 -0.587047 -0.346124 -0.489415 0.352532 -0.638873 -0.555389 0.645173 -0.683080 -0.174898 0.613944 -0.085317 -0.552157 -0.029715 0.384207 -0.042412
There's -0.199932 1.293690 0.013876 0.588626 -0.104596 1.179389 -0.584041 1.241593 0.688157 -0.074406 -0.416006 0.183176 0.605779 -0.169173 0.584067 0.337506 0.486976 -0.514035 0.179178 -0.644280 -0.402950 0.508559 -0.888386 0.187585 -0.124644 -0.216294 0.456445 -0.162394 -0.036505 -0.014476 0.037059 1.146874 -0.117426 -0.045432 0.121718 -0.683432 -0.588619 0.100944 -0.460611 -0.050707 0.008146 0.054418 -1.325675 -0.728773 0.683166 -0.007911 0.520975 -1.461262 0.673367 0.455776
he's -1.653538 0.125836 -0.114839 -0.858213 -0.176492 0.844357 1.245312 -0.063199 0.780418 0.210688 0.361631 0.263534 0.880114 -0.339991 0.170212 -0.397298 0.070825 -0.381719 -0.167607 -1.078838 -0.623436 -0.497518 -0.522136 0.405729 -0.761135 -0.044866 -0.271984 -0.749488 0.697406 0.660838 -0.938552 0.232470 0.436868 0.617277 0.124482 -0.180878 0.081573 -0.203414 0.209642 -0.337418 -0.231857 0.038013 -0.579736 -0.219399 0.002906 0.261294 0.389869 0.509606 0.083200 0.076468
am 0.332088 0.420136 -0.093801 0.200098 -0.138207 2.031447 0.811138 0.039636 0.348048 0.685478 0.371286 0.030432 0.493945 -0.374568 -0.767944 -0.951205 0.218862 -0.172682 -0.559702 -0.018440 -0.353762 -0.711458 0.009507 0.141924 0.181053 -0.525922 -0.329418 -1.432957 0.104635 0.679097 0.744408 -0.096211 0.010871 1.131169 -0.114433 -0.167288 -0.919737 0.245999 0.186094 0.353201 -0.548176 1.062963 -0.281925 -0.102016 0.911624 0.433549 0.604470 -0.167372 0.320242 -0.599331
She -0.931031 -0.331035 1.123542 -0.625012 0.851208 1.008512 1.141758 -0.911149 -0.038292 0.930612 -0.209148 0.315393 -0.782036 0.200818 0.686451 -0.510043 -0.673339 -0.272601 0.340004 -0.325757 -0.238777 0.294090 0.063214 0.681724 -0.166707 -0.061589 0.572461 0.125662 0.116719 -0.070002 -0.540793 0.771246 -0.074566 0.179553 0.070117 0.275781 -0.641257 -0.497667 -0.178198 0.798037 -0.496077 0.139367 -0.012327 -0.505792 1.270153 -0.036759 -0.999131 -0.026445 0.176765 0.776013
There -0.084332 1.149761 0.066049 0.448373 -0.325464 1.144157 0.147157 -0.552442 -0.021948 0.060778 0.194351 -0.291620 -0.388463 -0.234089 0.240053 0.084211 0.190305 0.294635 0.100499 -0.014908 -0.503651 0.344686 -0.107973 0.834257 -0.629936 -0.262083 0.226719 0.107355 0.130119 -0.115862 0.858338 0.174584 -0.320544 0.224626 -0.101129 -0.433979 -0.511958 -0.393590 -0.164703 0.794099 0.280754 0.129052 -0.551923 -1.001790 0.839486 -0.535846 0.163278 -1.728671 0.209572 0.202829
two 0.911051 0.636340 -0.008843 0.315622 0.019356 0.510361 -0.026553 -0.189182 -0.176647 -1.196837 0.111150 0.042358 0.477473 -0.776625 -0.756378 0.522518 1.049901 -0.240906 -0.087310 0.358000 -0.269305 0.043453 0.063426 0.024701 -0.445840 -0.178492 -0.441752 0.782187 0.516885 -0.720215 -0.078376 -0.333502 0.706942 0.456757 -0.202074 -1.095050 0.489859 0.086239 -0.154270 -0.135216 0.687102 0.276077 -0.955058 -0.560237 0.162021 -0.154956 -0.933971 -1.413805 -0.536561 0.118809
told -0.475409 -0.561171 0.782155 0.175936 0.399558 0.389512 0.987343 -0.099715 0.251031 -0.535648 -0.065390 0.374565 -0.754328 -0.023079 0.031881 0.322468 -0.721523 -0.299716 -0.120769 -0.792185 -0.889314 -0.347473 -0.402204 0.388487 -0.289488 -0.285386 0.202194 0.028723 0.009429 0.148756 -0.265952 0.165986 0.359667 1.005805 -0.329009 0.091061 0.360626 -0.286043 0.451935 0.776305 -0.359377 0.215506 -0.713142 -0.514838 0.840144 0.262451 -1.051353 -0.558261 0.119447 0.732222
Not -0.345912 0.881190 0.176870 -0.117481 -0.166189 0.933244 0.261479 -0.133728 -0.259315 1.123061 0.408476 -0.005875 -0.440351 0.081825 -0.069519 -0.092045 0.408093 -1.398289 -0.121505 -0.664022 0.118393 -1.037877 -0.032933 -0.508081 0.602060 -0.482634 0.553702 -0.253166 0.613754 0.145940 0.448996 0.192365 0.502302 0.789685 -0.589264 -0.114753 -0.846059 -0.525120 0.004939 -0.457786 0.169428 0.306080 -0.465774 -0.392878 0.855790 -0.383590 0.151044 -0.555009 0.331842 -0.229731
me? 0.205926 -0.164621 0.595883 0.301984 -0.093133 0.776334 0.143487 -0.447589 0.227297 -0.288601 -0.045891 0.365147 0.124416 0.400090 0.181804 -0.894374 0.020059 -1.365075 -0.162026 -0.399805 -0.176476 -0.398751 0.037343 0.140432 0.393050 0.119231 -0.139177 -0.826411 -0.053756 0.521515 -0.261865 -0.121925 1.008992 1.459221 -0.046758 0.343550 0.516390 0.290251 -0.588536 0.216252 -0.471608 0.340522 -0.409817 -0.277980 0.718765 0.667604 -0.833150 -0.856454 0.206076 1.381519
any -0.060127 0.704793 -0.445447 0.198151 0.157722 0.419479 0.276991 -0.062023 -0.266708 0.646051 0.656886 0.012425 0.345154 -0.354546 0.121143 0.332175 0.278245 -0.239630 -0.118721 -0.390475 -0.141495 0.720193 -0.206984 -0.550782 -0.552821 -0.429682 0.159612 0.090047 0.203760 0.110291 0.050537 -0.084633 0.652794 0.152015 0.529877 -1.107030 -0.021416 0.182864 -0.156879 -0.199992 -0.372927 0.055054 -1.415732 -0.493804 0.260612 -0.601955 -1.053389 -0.933204 0.649554 0.613928
right, -0.313825 0.319107 0.554530 -1.245175 -0.033687 0.289405 0.658345 -0.293489 -0.538427 -0.496312 -0.044201 -1.024704 -0.035929 0.610069 -0.159425 0.059220 -0.514914 0.941626 0.190597 1.013197 -0.902453 -0.632992 -0.268971 0.002102 -0.084371 0.057813 0.340699 -0.637624 -0.111259 0.243362 -0.510353 0.477747 0.949244 0.532416 -0.146264 -0.522192 -0.699448 0.194287 -0.130606 -1.311769 0.976451 0.426860 -1.393340 0.126615 0.456258 0.057641 0.810071 -0.044953 0.279914 -0.280390
Who 0.428277 -0.336173 0.818789 -0.368143 -0.237739 1.471555 0.388389 -0.391569 0.085636 0.180020 0.508255 -0.294914 0.259777 0.255576 -0.414354 -0.620244 -0.145989 -0.005001 -0.726385 -0.481048 -0.406320 0.026610 0.438905 0.469472 0.175205 -0.414603 0.015335 -1.083744 -0.441024 0.450708 0.596759 0.802765 0.065727 1.073991 0.065285 -0.176666 -0.125025 -0.295260 0.247445 1.126738 0.205453 1.232303 -0.132455 -0.887004 0.907218 -0.157606 -0.661166 -0.249552 0.411121 0.432800
help 0.405176 0.672136 0.049463 0.189844 -0.400260 0.539215 0.712056 0.026064 -0.151524 -0.762380 -0.295681 -0.121238 -0.258607 -0.102646 0.113132 -0.916236 -0.004881 -1.065301 0.468520 -0.446551 -0.069280 0.059316 -0.114458 0.506805 -0.340597 -0.077338 -0.490238 -0.526528 -0.689997 0.797611 -0.203644 -0.346354 0.979117 0.567238 -0.018765 -0.046689 -0.194995 0.496835 -0.294392 0.367493 -0.393549 0.597974 -0.791627 -0.183504 0.788300 0.369669 -0.295870 -0.626250 0.428564 0.885102
So, -0.264940 0.008970 -0.045761 -0.398895 -0.485687 0.554554 0.483570 -0.370438 0.581143 -0.035300 0.242246 0.021958 -0.188480 0.195119 0.395151 0.221371 -0.460658 0.163546 0.354878 -0.332212 -0.418285 -0.580776 0.207050 0.353765 -0.489673 -0.376878 -0.670186 -0.475558 0.023424 -0.137471 -0.141416 -0.057563 0.498928 0.965154 -0.525760 0.231369 -0.632381 0.481374 0.028826 0.079540 0.051037 0.626506 -0.948419 -0.338473 -0.227123 0.158451 0.005460 -0.336962 0.499815 0.395167
know. -0.851448 0.631203 0.318322 0.034577 0.152297 0.225231 0.382438 -0.249236 0.415598 0.639780 0.228090 0.368831 0.385968 -0.903307 -0.022031 -0.182407 -0.693910 -0.075407 0.476067 0.384377 -0.572007 0.110420 -0.249787 -0.114857 0.577634 -0.297077 0.193382 -0.179275 0.270153 -0.216954 0.145147 -0.395386 0.400409 0.951380 -0.952801 0.060958 -0.541019 0.233315 -0.419998 -0.079260 -0.388935 0.415244 -0.957791 -0.240990 0.760177 -0.005541 -0.472762 -0.462381 0.648731 0.179960
then -0.515784 0.099008 -0.029794 -0.009981 -0.187252 0.243001 1.397950 -0.530553 0.341539 -0.119366 -0.597687 -0.014311 0.156355 -0.541418 0.489382 0.088147 -0.401465 0.536601 1.142886 -0.301570 -1.021377 -0.353970 -0.600925 0.256673 -1.183670 -0.065669 -0.524123 -0.103337 -0.377365 0.179568 -1.058866 -0.449582 0.429463 0.387457 0.609552 -0.269780 0.034990 0.134239 -0.417562 -0.104432 -0.173487 0.070131 -0.890594 0.318735 0.273871 0.639625 0.378005 -0.548602 -0.106835 -0.124298
