you -0.045396899310442114 0.02077769828161734 -0.24748465616112242 0.000642521036811271 -0.1737328726142413 -0.064055989025414 0.15703778088112005 -0.27788971477093705 0.10484625328889562 -0.017830275596481614 -0.08563683860304544 0.023577163706303923 -0.059709467277872665 -0.1586054308269495 0.23233947217557552 0.04716890136117458 -0.13319606832583317 0.045803385745466205 -0.00267210178721216 0.1592565061379195 -0.19088545960237022 -0.07353444161825562 0.11751133141834856 0.21157032816811688 -0.04098669574416357 -0.02267516302001118 -0.02041113179266732 -0.1483548757850403 -0.15402540907737172 -0.08321914726581328 -0.11657796506014047 0.09158015819354969 0.19637350171264872 -0.12553175550457998 0.1734239682696205 0.022847198978092304 -0.32703465346277827 0.12756925687920193 -0.07730751017219321 0.0009213270093920987 0.15260793416677332 -0.13213755610493255 0.09020196957908765 0.0016769545600799102 -0.057466029673503526 0.15715849119424877 -0.1917817574392238 -0.12746502146445296 -0.20747885052049325 0.29326364638398783
the -0.05560348136252534 -0.20458014375162073 -0.33776460094565114 -0.06375696295564635 -0.3128275152028314 -0.046779567562210425 -0.06243782880939823 -0.0827378178247775 0.0389741264932278 0.23669178031956528 0.02002925124839344 0.14534414527073403 -0.005214551885708905 -0.209868079821539 -0.01270615088533032 0.2567117694864566 0.04311926419934262 -0.14662338121974214 0.12414395318012683 0.027126143082461814 0.02458405794402632 -0.045632850625463815 -0.016809965458589413 -0.25684215109529446 0.11283032062525394 -0.1323501573910293 -0.1706923249386875 -0.15831212807545197 0.017343960080578594 0.07036011459886948 -0.1430731541331883 -0.0352247646543778 0.23543391840479289 0.06389589417817856 0.14786806248006915 -0.07051578881488635 -0.03889824867169098 -0.19029765784140576 -0.0017687013330061972 0.11270920109791817 -0.02506746735165762 -0.1283553503923724 0.0003722644296055339 -0.23762903172080177 -0.18537949256376557 -0.06055976366788591 0.03444853097771707 -0.09887806354398089 -0.00251180525660155 0.2402149336294205
to -0.09459300625263015 -0.11610979517844554 -0.288738714100065 -0.04143262166193236 -0.165927006549479 0.00530175671571491 0.12224588589287542 -0.0712989769480222 0.18495402452203955 0.18512914126617283 -0.07334005988797557 0.0520746607770715 -0.08627301516469822 -0.05400405814909988 0.20506871204982788 0.04717528342454282 -0.2598678002172928 0.012589337309901135 0.06752812972435239 0.12737369330941795 -0.06296341992727841 -0.173796363882508 0.09192928600020293 0.1658055922735466 0.20852785146894046 -0.0925410271597085 -0.14824371772690112 -0.0010487547231981564 -0.10505214565723012 -0.1944722032881634 -0.21509862085714113 0.11333438935809333 0.23622976379754304 0.0866205246147227 0.2135237376049026 0.07902396025422131 -0.10771820079957911 -0.004422281511845584 -0.05132282622225932 -0.06951784508602667 -0.05614554135568965 -0.017016288601590275 0.07746775612135695 -0.17225377994085403 -0.02247370464542365 0.07609989977551596 -0.2534853786161154 -0.14688442264410662 -0.033802201397565214 0.3263296635440337
oh -0.2821820753482079 -0.03791230818856328 -0.19824874959847075 -0.018308647000256473 0.05961069661950448 -0.1424954924187247 0.025610645343084857 -0.1326707240169775 0.0735382223693439 -0.1261213967843459 0.1718496657163988 -0.23869821257274895 0.08933926159027746 -0.12895324408118125 -0.10880374082742184 0.08108514984410616 -0.07296905371989758 -0.08851777705729927 -0.10538173095554583 -0.017375972416908303 0.017073504377789973 -0.08784091734508202 0.24940200441465882 0.2526257383225884 -0.011814914792809848 -0.05720067171655522 0.18178134762811712 -0.00793998041505612 -0.1110112132260258 -0.06927140138049599 0.012360756858262467 0.11142331620991454 0.09288295847532062 -0.021411471447818676 -0.0013160081136446638 0.11159321149666865 -0.293084920706864 -0.11332559913460089 -0.06363647624041747 0.07054697674855158 0.27033411456140694 -0.15684406300965045 0.1820095593748555 0.002931374055208498 -0.17621134814682107 -0.07324780639862231 -0.11516684416450375 -0.102021925307653 -0.3657686125492386 0.08678227920816786
and -0.04438770372511706 -0.16705536295017445 -0.1974155973471616 -0.035699551583717445 -0.25315310383226014 -0.06445568853193534 -0.11515768037364307 -0.09781140599628102 -0.04962241674124117 0.2791259690448756 -0.09958717440446616 0.23622674763259466 -0.02974311984025315 -0.22977932693523248 0.15301387966617386 0.1286270939590654 -0.06462936148504701 -0.04200883471606858 0.17133162148442863 0.13080776559222848 -0.08181397487147224 -0.10968723259983709 0.11974174543862832 -0.09549009430598715 0.3245807354098603 -0.11252605966049835 -0.17272100510932206 -0.10404511386661527 -0.059468722235667945 -0.0433847048835153 -0.11515167439255562 0.15617803070240455 0.23792844227403476 0.022407314440374467 0.31325545707265257 0.017705632245760265 -0.023107011237060722 -0.002118609828592922 0.004944423930231391 0.022804710188993126 -0.01455649616224818 -0.07519688520839002 0.04688318886694656 -0.014210151252872725 -0.14145637006025188 -0.05378005714901849 -0.034641497915480865 -0.08119736081316219 -0.01884326516340537 0.32677892448786183
of -0.014959057477680865 -0.22212354592917447 -0.13877021783403523 -0.07486282547740901 -0.357773168458205 0.04228891150659024 -0.1311916891634861 0.018571296511340707 0.19746627056516428 0.26042477374583667 0.05837220549689547 0.10261426819855252 0.05426412782221996 -0.20321413948157438 0.017913534253208244 0.3272417573157325 0.05429684813863216 -0.12860594518445007 0.06946649021681206 -0.00023197865353778797 -0.038156083848987554 -0.015368900415305494 0.17332832535138878 -0.19136602901046895 0.14863791017973033 -0.165978419404489 -0.17824895755030062 -0.06194291489818597 -0.036531813782986984 -0.01160019115059756 -0.017888784270281066 0.05282191695266677 0.09606055661768297 0.026956506828821437 0.1335286748395422 -0.11587900057381183 -0.0012668635328826757 0.022319450705482004 -0.09659666641735981 0.07033525656667963 0.0697844645737409 0.006034800921870918 -0.10706381173937586 -0.09839922025868326 -0.3440893643381279 -0.057757650836076556 0.15334795777814314 -0.08200298580628185 -0.15325608919744735 0.25656922979526564
me 0.06918066183824098 -0.10307079828796678 -0.14876829335690211 -0.09890583802273077 -0.23258927529293782 0.023590177242651774 -0.00443811857877751 -0.09708143014068255 0.09351347567411458 0.14318122022219745 -0.020532332852034676 0.055448321583838306 -0.02175128674015069 -0.15660379331691388 0.22409722987239625 0.02119732650782866 -0.1806175872078119 -0.0424598248076952 0.09468334957069591 0.05435810209974774 -0.18100016976477507 0.03236543835204933 0.1473630768779618 0.019135162273345926 0.03110907102776342 0.09476903840837535 -0.18886262349062963 -0.08597486943338656 -0.0471538030144733 -0.06086240786313379 -0.04004967538733117 0.11022521279168135 0.24073414011762323 0.009197268577593494 0.22997073705605758 -0.03715797883690942 -0.24728350292241816 0.3232605367031779 -0.0016007318550539985 0.03128406935823552 0.2174102821732991 -0.20160893866919985 -0.010503922778451847 0.045721230474677556 0.09464110859437504 0.11990241931928224 -0.1167492310106838 -0.219260839231165 -0.12464266145250699 0.36826648664548906
you -0.13095913856515368 0.0689521701661824 -0.2559714083926489 -0.04303228492004665 -0.12647276885253894 -0.08836404996500664 -0.017259493762849087 -0.2693442586511776 0.1693729414890022 -0.0005724865621946155 0.002027991652120022 -0.019257521804259475 0.07145231568402995 -0.11344450011717107 0.19808988439547187 0.0670476649097142 -0.2102682761725302 0.011230906086891672 -0.05506449059637012 0.016698357053196 -0.11672778546038395 -0.15447512504299404 0.3162364014235467 0.2423434134489868 -0.0035416079870580455 0.04701880712673255 -0.0014396152963672688 -0.0249092943758382 -0.16954273528302344 -0.20291538770202744 0.0002769364020132557 0.1195007814333298 0.20629945973580907 -0.0021092565963173543 0.1698582611836779 0.08349223926008165 -0.30668300354229266 0.02369349817158984 -0.07741552820934816 -0.05001380621539066 0.11525230462998548 -0.05210490304764157 0.15822330034630788 0.004673869276600767 -0.037751425529525026 0.08972058434076993 -0.19944914273584513 -0.0787657066676882 -0.22316034667739973 0.2541091245876352
im -0.15888017987540132 -0.1829129916309724 -0.39731809701717175 -0.029016444870383237 -0.11894191064592274 -0.04325084891512484 0.1779408925679905 -0.13980701040683544 0.28719927465931305 0.09167725756751709 0.14715004916404242 -0.16253509021936927 -0.07421331901030696 0.01933107086749014 -0.06141605782361384 0.10755918557569086 -0.1252455006521881 0.06689150290846761 -0.06276277371531322 0.07722878152080613 0.07461885627265837 -0.23671150026381946 0.045416943848844794 0.1374531411093191 0.04987231738983172 -0.09148348549676898 0.10162283977970049 -0.06605136257315258 -0.15305133144246882 -0.22323649819158115 -0.028774229781948095 -0.022240420101151067 0.13862269396490592 0.05502157948892618 0.08682603536771616 0.19104034591263602 -0.05689055724749903 -0.06079275766270742 -0.09571417570810274 -0.09526204087635715 -0.04445131302961671 -0.07779118188804887 0.14287460683160733 -0.10442884390896243 -0.28893999376153356 -0.014396803494511452 -0.18773607074430754 -0.03571680625960899 -0.2232770980540236 0.2039105023068963
that -0.021586066646471502 -0.19542373741316427 -0.2569491252345162 -0.052559354157456446 -0.2780966407260102 -0.019513968092902657 0.04332707319338176 -0.1671236084143468 0.23500553922007825 0.14820313137686042 0.06668381795492488 -0.002101038477501372 -0.015733078338517902 -0.17594716860657444 0.12657298700009167 0.24864114091788644 -0.05241999729298136 -0.0665747367031792 -0.00032946990323183203 0.09084242122419844 -0.08189597766265731 -0.168185481007871 0.10274340840445097 -0.0450892919460731 0.057125183694811094 -0.08464527043624727 -0.11166269296045543 -0.1063328494312821 -0.10768456649373052 -0.07866272031499574 -0.06439044029067195 0.09757874505649253 0.27610958102584304 0.013722421469605804 0.21253302044207353 -0.005080514953754642 -0.14095078643936942 0.10605858799832155 -0.07574557598259715 0.007251454478293038 0.08763810380046941 -0.12856449899624842 0.010640542185591288 -0.14391022758366942 -0.25120432771911033 0.08321652865317841 -0.06188068104132352 -0.09990863154786032 -0.17423214419137306 0.38459823217529887
in -0.13321781530196705 -0.14619501361676043 -0.35194542401818185 -0.07725768726985646 -0.2965970035848441 -0.0973550999845663 -0.0469360189756587 -0.12349202643863888 0.11838532800628046 0.18262496751053797 0.027191773031837965 0.1212391016644605 -0.005691517785031291 -0.19968245717099153 0.04050559150453586 0.23403270864527276 0.03526290059671063 -0.1132936249419393 0.09858006642707919 0.09226287983856939 -0.03796310100312776 -0.10725152579429774 0.02693840302051196 -0.14573843051471783 0.12117808602907995 -0.09140969510655324 -0.19638140788057273 -0.16644444833826585 -0.042595118475491744 -0.010946101570939165 -0.20802298427851898 0.01268039344438288 0.25341189494012173 0.12508929167330424 0.19283060815041828 -0.07616819622115464 -0.08356142973531631 -0.1601153688716734 0.02792034108481417 0.03091062430011679 -0.01990350709379708 -0.1079030486805646 0.03135738285069979 -0.25099298695444205 -0.16568537246759937 -0.07364380357769841 -0.006952162861792106 -0.10392617366605787 -0.10617599595030164 0.25865665417457007
it -0.002305662053871359 -0.06756234341649543 -0.26812515318787894 0.04971932469374748 -0.12324324251169042 -0.14121679084566297 -0.11528418592685613 -0.17465132790169605 -0.13922201674549659 0.12149057105143021 -0.1209662861399556 0.2106211724686927 -0.03417330215856551 -0.34032319346110096 0.06397684123265038 0.10183097010441998 0.04866046415456061 -0.199436247151686 0.0675932155652083 0.21304111563446604 -0.08185614827055204 -0.10585464015333008 0.08915822386611083 -0.14247009176007647 0.1675550666308897 -0.07103356448843848 -0.2049542375216276 -0.18587199991721234 -0.025289164345633424 -0.047543650634456605 -0.18058907117080378 0.0667239208514513 0.2655903872935595 -0.10158453453136114 0.2928640350231217 -0.07710996161843209 -0.029453654722005725 0.08260791217254253 0.087128786300723 0.0911372910835987 0.039233084847610906 -0.1123930362807285 0.0465378685263901 -0.04045984654646424 -0.09339420763950239 -0.03215469692605939 -0.04974098935951089 -0.0743390508672914 -0.11933926974112317 0.28901584876689523
for -0.02339543331479926 -0.15095359768745675 -0.3919200475989033 -0.035052730985584785 -0.2785408637304764 -0.05020546261875872 0.04528035135841971 -0.15618450745223622 0.04067674426589123 0.2310418564553986 -0.031329564904330566 0.12004900955666882 -0.00466827747111105 -0.16654331630733868 -0.034867034612797665 0.19503246579806724 -0.1260199332249433 0.007396443584744718 0.09730166582152212 0.14658280395782555 -0.03321332064618599 -0.1724957627245895 0.061817491024536424 -0.09646787986908244 0.11560846420442357 -0.20816886741329146 -0.1489603642332865 -0.11603344097796625 -0.08429830041366777 -0.0986315659639453 -0.10752143336267203 0.04628689960793 0.22989857654831372 0.039556560922585846 0.22052275744766647 0.029354808701183947 -0.07571607924448391 -0.1658582722256389 -0.0412791026492604 0.027777775326320194 -0.052672175630408526 -0.021562951944534316 0.03796613154072998 -0.20033913229204345 -0.21384554085901517 0.0021659957512408182 -0.04642825057826049 -0.1492790968134435 -0.15515486263894643 0.292214029487936
dont -0.07517749439641222 0.006567979714575566 -0.2327701002748303 -0.008424288863156326 -0.077816272003058 -0.04905126165433532 0.08496224084936446 -0.20550042605674126 0.18018735528683028 0.017545882490323076 -0.03448308233481436 -0.05248374759744926 -0.016163809749751887 0.0820826704630821 0.17088981433235279 0.07002184863349324 -0.24250253806290636 0.04174490838927631 -0.011965282863162148 0.046848245487319126 -0.12427328326134462 -0.09673471656761114 0.2573893247048549 0.3150792975180373 -0.06978667579305822 0.017083318263732154 0.048706716150977415 -0.05255248377691464 -0.10990007260181665 -0.23385042551057864 -0.002796568207305294 0.19020338385307797 0.18517613208576414 0.017961325688223895 0.1916269576831377 0.1427023608123455 -0.28244993051371065 0.04801546362918407 -0.0827311249863404 -0.05852431763310807 0.010350198797233477 -0.06399295077925307 0.20195208290547187 -0.008173553114163117 0.014674525861335325 0.15831757803542088 -0.28268769717223874 -0.001242006563547397 -0.08872630320537114 0.3093352873510153
get -0.12914165250842144 -0.14333795095346136 -0.12045398664058289 -0.05506925404026419 -0.27548976502764727 -0.05852927880753389 -0.12248413852429896 -0.1388693098185091 0.12390524484290018 0.14821308386331225 0.00144509902268152 0.017479607718795243 0.008580621495788067 -0.3265840739592265 0.15117756701169308 0.1788951384004373 0.0021108965609093083 -0.13239266391129947 0.024401041447800826 0.0561821463910649 -0.08801446652957727 -0.07915931313133215 0.26856833129864166 0.0006053543798716967 0.24052086022879354 -0.015281045508361834 -0.06144254676066644 -0.08155304676149552 -0.13573457075078935 -0.03320405685448688 -0.09765814937538393 0.1383506982918507 0.23232181500751303 0.016991909868547997 0.18046804471216185 -0.0022248619052906413 -0.12127435256086633 0.18748129667409005 -0.04193509414893209 0.003437877655810985 0.18142221609750842 -0.11403593829910783 -0.022285530905337615 0.013924534931515195 -0.2583972703612242 0.008765642156099462 0.01089868582846749 -0.08583620583798102 -0.2127386930982947 0.321883349552113
and 0.0027562673774144597 -0.12405623807888558 -0.3422359947824013 -0.06829722874866934 -0.3131149863883563 -0.06542369628767244 0.09472544352613807 -0.16723453284568077 0.25399348147339806 0.20416173799636878 0.050192145339415656 0.03983731571115095 -0.0825153511764248 0.026192070870621555 0.038562461362112645 0.1875256956112601 -0.15432300164738272 0.08921075711839938 0.08309091832978809 0.08361376998686201 0.00053737531421488 -0.18272374422988247 0.08793859233549828 -0.007041822060447441 0.044689293022680696 -0.0675290886598817 -0.01067596382504777 -0.0807041973396265 -0.10864125872007095 -0.14467875539256933 -0.14720856130123058 0.038823887190649616 0.22753568146842001 0.13283229238460706 0.15044303353784128 0.07019068330926631 -0.13098940166738968 -0.13260367926294409 -0.08175043856700182 -0.04181145725586427 -0.15877046821187585 -0.10095770617928482 0.10857670913277787 -0.23317946705074485 -0.09642578723808326 0.038810439359963554 -0.20324244429066984 -0.05182417407147566 -0.0792754998075397 0.33222058840065266
with -0.03744858666848184 -0.25079150818114304 -0.2427931334504533 -0.011180057639008718 -0.21206504580191074 0.023616313707839162 0.03750874112305915 -0.06930497678936645 0.20900529759881603 0.2223725928835368 0.05561469001880716 0.020661700317248975 -0.009715215380247662 -0.2566291999352585 0.11247365596292522 0.15043165873323294 -0.057670238182876955 -0.047270020725280436 0.07264381998441893 0.06290584345919607 0.09117897904255641 -0.1493537559390503 0.1464023941405994 -0.08524970077651693 0.208468242963806 -0.14977700484918435 -0.12525458079852297 -0.025460508382853544 -0.09867010539951315 -0.06048882663563916 -0.12773121014463396 0.06910229421268253 0.25921800921017585 0.016772254186605953 0.14662241854202634 0.0902988814368487 0.06864327778901601 0.14936080105535215 -0.05700149406622467 0.09805067709697379 0.02020376775762889 -0.06757783943136739 -0.06467362571893656 -0.13124618124723264 -0.2665308399314935 0.0822566102122782 -0.09659504768260746 -0.0843945320438773 -0.17402412743205048 0.3850145220319178
do 0.011173719004305265 0.0543949916835328 -0.2824135966777917 0.08096017057746481 -0.2012611742133881 -0.10025124610727396 0.19850081080347962 -0.34282444983624966 0.1308207712089535 -0.08843439291341396 -0.11082214973207304 0.037976385523279275 -0.13388254230861504 -0.1262067259224232 0.08045520206624714 0.14730723097636186 -0.02653862748243663 -0.06504063261476331 -0.06906218807070227 0.20952603858053298 -0.1707717950390002 -0.16390776347463928 0.01795809633418003 0.05674429990806836 -0.10917694560497047 -0.0675974352032072 -0.03144473829541607 -0.15832262489730578 -0.09568440333006879 0.0008584956383505828 -0.22427485597341043 0.01732774615756752 0.25111095760315644 -0.15400162852283564 0.12468051145424439 -0.013904089153080059 -0.1689190965479893 0.12856881815990095 -0.020939721506549984 0.034121022235589174 0.11646727483167385 -0.07425643086768711 0.01759571873654866 -0.15789927739179613 -0.10464402963134276 0.22522283970235657 -0.10796885638193074 -0.01526706160984284 -0.19909870925493112 0.28328831817872274
my -0.12943401939259802 -0.08666376239833475 -0.10999844140154595 -0.026756668344719913 0.007867348643253084 0.06877937355872096 -0.0060925854239254834 0.08483982824998682 -0.019082161938718444 0.1585677948371446 0.05613399354707032 0.0781256915514137 0.024931965900606038 -0.0989457385126945 -0.18949861407823113 0.1272466813469592 0.01526603686928113 0.12267839472266402 0.14286767086010585 -0.22574911320270477 0.22996782525349604 -0.17089817358475873 -0.06932486355254026 -0.12658517869248254 0.1970309857675332 -0.26925847072380493 -0.12115486421879966 -0.04291392830249456 -0.1864346505636517 -0.09456337946375742 -0.04953740610068644 0.0317621152598365 0.20711025792093526 0.08586242991445653 0.08268706351381541 -0.0975128669092114 0.06452224671963254 0.0019798981888342966 -0.13889635004594814 0.012444086520973651 -0.15031937149398394 -0.013067942682919111 0.16409030480274062 -0.3684047344314105 0.06548953108895438 -0.1176437525684416 -0.3297440914891746 0.10824365387213288 0.1267841672958617 0.2423688872115769
ill -0.15464550827473258 -0.12165161515756881 -0.11909327719429824 -0.0538618495659178 -0.21225257102709247 -0.05819459131233664 -0.08831330874662553 -0.09971721558510213 0.00985573531692859 0.14004227206511802 0.0004333304513238745 0.013952114998988957 -0.0023399844371489223 -0.37965375204170415 0.17307218225875545 0.07716883741212333 -0.017944945586187512 -0.08728457099984624 0.08882486378591566 0.14844156685214246 -0.12771036274062442 -0.0735868266034526 0.22162432687890604 0.028223318784861857 0.26139730910859893 -0.04784981162891397 -0.06185088734123432 -0.12143382439826707 -0.14115092270032326 -0.03241761989358502 -0.1093529090754494 0.14963013037577366 0.21161270515286487 -0.02461598346929558 0.2418614217225509 -0.003855515483142681 -0.17539528369130736 0.12150304471711491 -0.033986051020649485 0.016577422213827755 0.2417077863807179 -0.13388897965631902 0.027483843183511766 0.06379299563671315 -0.20179861458060894 -0.010755036695130605 -0.02777423086258075 -0.1683781442139601 -0.20239796124380366 0.2847735172736523
all -0.05125106349297351 -0.1665678883132425 -0.3640413580007725 -0.12168134860018778 -0.3145007240493819 0.021714598536383866 -0.04555950615543205 -0.14218203159218767 0.0007644126000975014 0.23227774851842248 0.05513816918310706 0.021795096914658668 -0.021719750432593457 -0.2832473896809473 -0.08941631061359552 0.1714370742183286 -0.09635849075601428 -0.019534058465676084 0.14604595374937807 0.06801855369410127 -0.08113978935289368 -0.05096448926631522 0.10186393584298441 0.01654402670303691 0.12046936501688241 -0.20446716879204457 -0.11716249163735361 -0.17854218307837558 -0.06341855436596609 -0.08550602139051884 -0.06951002764677676 -0.013905611856702063 0.22778014312745287 0.029488809916650958 0.19347109031970688 -0.004627690770261706 -0.1472031984354566 -0.03520677072226656 -0.06001186299737655 0.08893074439584192 0.14303402642784815 -0.09431189998675577 0.04551249510251956 -0.03239512336588434 -0.19319417589844157 -0.09389588436783158 -0.04890115483437555 -0.21519277271337892 -0.19796032387933593 0.24536614083887878
your -0.15325364702914046 -0.09345427163924673 -0.13260455064465992 0.011366650420741245 -0.15734651490823995 0.05032398124061539 -0.0470584242136621 0.02094944025819697 0.0056592066871782405 0.19925176635528846 0.09103604838935407 0.121858610896266 0.014450180857563354 -0.24670791866838715 -0.14157027034157096 0.2002392606067501 -0.0007799839387120863 0.07432509728236152 0.19755436840231524 -0.030078073753275415 0.03692409380810892 -0.1903087999821438 0.12978859929533065 -0.11031539468309749 0.17706545541715016 -0.3185802076487311 -0.1647686491208386 -0.08702054181106034 -0.3244296321225964 -0.05684417369911409 -0.10767600912619546 0.08052128241042672 0.12127703594079689 0.10773243736913612 0.08589470735109901 -0.17203424046592447 0.025598399370147188 0.04302926564110854 -0.16298114800575048 -0.06426084711400883 0.1286691357660239 -0.007539541363233282 0.05826671150098922 -0.20680586984573224 -0.23815357906517257 -0.15227980477193864 -0.08009078952476649 0.040041299164105294 -0.11489973435555115 0.26356813157928727
be -0.091995920542457 -0.25398044255281793 -0.3121877107656475 -0.07090825570324309 -0.23431393831161895 -0.0026288421362421505 0.06728521108856134 -0.0023265828960348806 0.22426890140948408 0.24706236559309638 0.05250297219304347 0.016140372342547837 -0.007879071584416406 -0.08607475690637872 0.047048073931993444 0.22465113058319908 -0.08482844582399941 -0.06103400204893834 0.07729432929174782 0.11986340923600618 -0.08517611172136785 -0.16278354363413755 0.048219159059971387 -0.056071799903652186 0.13059632310856792 -0.1737956745626755 -0.19398401650557764 -0.11430956512502281 -0.020931113528702968 -0.14522336611617664 -0.16957827713709292 0.11626882849596276 0.19151985821545742 0.09444788002916081 0.2608768327509103 0.01687297825883496 -0.05654755323689322 -0.10546882120461065 -0.059744317443300596 -0.013667403805515713 -0.035170505672189385 -0.07451029126759655 -0.0243366128157916 -0.22702379784769608 -0.2208471370511735 -0.05085342288662085 -0.005694130350272377 -0.10221851780543112 -0.13325633996465205 0.2963272331903768
well -0.14803110844025222 -0.10653684074209573 -0.2878576480690982 -0.017682063156388504 -0.11908961859694983 -0.07818115809235819 -0.010059216411674303 -0.2067433688820429 -0.06556383523291323 0.058610132269969764 0.10462336731485877 -0.03215975279372352 0.01987169116022924 -0.3732727488278765 -0.010163795659618934 0.136313330518206 0.01939699941760556 -0.04766771142838806 -0.003327744350613177 0.056244026785222466 0.013347743544308243 -0.11408370412697515 0.15352315300809452 0.060722959888601165 0.05645972148410827 -0.19210227416979442 0.02391269866283979 -0.1807684981737949 -0.16575974204299107 -0.03240812850759202 -0.05178551931620795 0.059514579359615925 0.2382731951119749 -0.150996910549932 0.13988781653193855 0.006204490694465128 -0.21195435672103402 0.04434977138226969 -0.10096717876366948 0.10194189003552843 0.1616566406119134 -0.1668880540852687 0.13554614369148718 0.03862650863342479 -0.24152659015350247 -0.10228340664209762 -0.12069915858484769 -0.1354072493778107 -0.2636769650834003 0.2760426441274785
you -0.14448047985713128 -0.08213311567191728 -0.3535465412751714 -0.07328218812812161 -0.1534440504495276 -0.06768213896694054 0.06450504178115936 -0.150019701772068 0.1358368155227608 0.09209583010540133 0.11725071250365438 -0.05635081149295866 0.07541564746861781 -0.16643348359891097 -0.012360884938191779 0.15357302674017537 -0.16306433001526568 0.02760824799677508 0.02054214955805662 0.03965654847510007 -0.025772729519827575 -0.18120211370094155 0.23094697360871538 0.11352222759497302 0.0429451622789959 -0.1423194229697279 -0.03799787958445557 -0.05719450792697749 -0.17781268436854814 -0.14447428448945823 -0.06731266976753042 0.08527698315836128 0.19410931742484644 0.06604374582504416 0.15915561622882332 0.08993252035702595 -0.20230297278005735 -0.13440906488174761 -0.10834064735934335 0.048820060478762535 0.113517721873029 -0.07677862835668563 0.10776729424196607 -0.13291767091827508 -0.19681894595893495 -0.004078241574586351 -0.11608654659636669 -0.1643129782090038 -0.34836552425478473 0.26237663702926733
gonna -0.08775792913769825 -0.2283137239508502 -0.3869138315339601 -0.03628019125374211 -0.2254615233227708 -0.03447322388218974 0.17947533590183318 -0.12465991643182668 0.3593455779560457 0.1656930206089878 0.09257016855877981 -0.10371856850502151 -0.1318103444592553 0.03937513236080697 0.02619015791083821 0.13041277520897693 -0.10379646283783028 0.031174942336571743 -0.01574552420404321 0.15444634699867923 0.04145790001538574 -0.21157549987752308 -0.013131988188697678 0.034567874554032964 0.08117314077118916 -0.045317292481643685 0.041021329452434245 -0.07712625845735661 -0.09886285317725599 -0.2178518810309928 -0.12545878621714457 -0.03669592961140754 0.1579615552036891 0.08512446666512258 0.11926528101079115 0.11747099411202162 -0.001033458531800121 -0.05171685537071797 -0.047406853246641824 -0.11077887460088648 -0.0822559625720367 -0.0885087942760526 0.07216140048885322 -0.20024821469023796 -0.24955623310624744 0.04563792729343794 -0.1667278377628718 -0.04043802770442436 -0.12693560842231555 0.23522412874346105
on -0.04387862337970754 -0.22270228277808113 -0.1846397856517241 -0.06326734693201604 -0.33886120373107276 -0.0228942143686739 -0.10873183952360761 -0.06270618482093328 0.08406633794716227 0.2536452742094086 0.023513183266709797 0.1360068267186448 -0.015564204713607421 -0.25512534609422743 0.10367756309453566 0.2649039639891011 0.02483837659025801 -0.1309007423201337 0.13014543666041592 0.06595372648419649 -0.027929948998157112 -0.08749602552403253 0.09177481845265774 -0.17197028306214707 0.22719703313721049 -0.12396283719166444 -0.19199160918865965 -0.12700314697717113 -0.07009563730409307 0.017049184721846838 -0.1430079921045345 0.05586589681382824 0.21923496625498665 0.07657654160740458 0.16916174577149962 -0.07231356374313447 -0.008551041692689712 0.020363804071857557 -0.050622384959541786 0.011065091578104223 0.011363396412664255 -0.10160360827583037 -0.030735214206524197 -0.1672050405678408 -0.25009942771158533 -0.060811103833554654 0.05109574619610139 -0.07898697555394084 -0.05645759835952775 0.3158491944003057
this 0.014914707469109821 -0.1293243501515412 -0.3571005523670197 0.026490167293104695 -0.25375518968703065 -0.11664087352515404 0.0817942977167503 -0.2377718400774589 0.13931308017809524 0.14388883036453326 -0.0821431434057828 0.1066431633125457 -0.07253710746185055 -0.14372027918012945 0.06453714325455301 0.21780888647874627 -0.0785579768194885 -0.06790056832366032 0.016578805023326187 0.20108501691146596 -0.06361080252387466 -0.19965993046300257 0.041252211599291384 -0.07380676761322028 0.05666013851784516 -0.1555761971224356 -0.10386897660530912 -0.14156848844481024 -0.07249980515054806 -0.07618513535052494 -0.17718114320200018 0.08405385068472113 0.2944879320622578 -0.015070133766203503 0.20383295384408226 0.04395041211683772 -0.03618807744820788 0.007048755269084184 -0.0038165790730782163 0.04726617312150296 -0.06162894454004455 -0.06044908624921784 0.019836540210409783 -0.17737179945976844 -0.17917474450605517 0.09539168097004833 -0.10307872023253056 0.0046517363761282736 -0.11446145144812929 0.3595024067447741
know -0.013818934603922299 0.002388127428727284 -0.3270048525492242 -0.0009398177983429934 -0.12748024042915326 -0.03094975679811357 0.1508280443382494 -0.24835766981470359 0.2050966120901235 0.05729230997065297 -0.08574332006429694 0.018290986453085495 -0.09782446152994477 0.11534111305283402 0.15702941446181973 0.0665526599048717 -0.2491832999735706 0.09239876447297078 -0.04440248807387279 0.0830242268992761 -0.09559914069656403 -0.15210997900955353 0.10913706665646351 0.23516230677323194 -0.0563573986724437 -0.021825004685772507 0.06849028141222907 -0.07920206329509902 -0.10420915634032996 -0.26012479527179255 -0.03535133346353771 0.07730413983427821 0.2164208143987765 0.01933517889063696 0.1909087978852379 0.18009576368142638 -0.1780907893085969 0.007305332653659966 -0.07100330157163316 -0.1093988953454181 -0.12932196216116948 -0.011072186619965889 0.19276969957232234 -0.07578089456548784 -0.03259165016104691 0.17997756163275014 -0.27967942853204736 -0.0021642126044424323 -0.01658620067934704 0.26516154068180164
out 0.0264726768151887 -0.2607995362176685 -0.06827051125541794 -0.011883816889522537 -0.26345328555721226 0.0770146876066962 -0.11548822420092167 0.059774876179482635 0.1318024175576741 0.2807695712229929 -0.005235687503847716 0.13097472381708541 0.026867638279007636 -0.28477514262110937 0.11451970594784973 0.2108119636557722 0.06631715402762865 -0.1079806922440328 0.11828652850361049 0.00653341802782422 0.034253464283055014 -0.01449653127178641 0.12981082321060128 -0.20747274400712118 0.24925239250037412 -0.14040343786480547 -0.20693416019282262 -0.052804062811561414 0.0006500310278200675 0.02696089954555284 -0.05836989519897915 0.06864169109626785 0.13151424024404942 -0.02179562429794675 0.1708434489588271 -0.07201681633253876 0.12102654451470858 0.20327552070625432 -0.07363163516276895 0.09458184607948344 0.06737660201558217 0.0015747164856157586 -0.16373414261008626 -0.03240082922313455 -0.2956862445005654 0.005672616537611994 0.08621724308304414 -0.07505433578391603 -0.0746738298164116 0.30465844464854674
what -0.00914261988455792 0.009025765807814543 -0.28008845199288646 -0.002942891840564792 -0.10037442093426449 -0.05343731544494173 0.18459659287351693 -0.24219757523725957 0.20740198527020842 0.020486081297457708 -0.03199055362716058 -0.029313141325003553 -0.09849290874928127 0.13247159717522777 0.11064573273059254 0.024588359438614628 -0.2496487727483108 0.1638299540922652 -0.10125055726081507 0.08810797386450687 -0.05621488838430736 -0.14158029168266667 0.12151100787552864 0.266587767393655 -0.1092429453116225 -0.062232065589517056 0.15398620974724703 -0.08208702717295062 -0.14266267276217906 -0.2554241643292911 -0.012689168038621912 0.07156208279530399 0.14513707129967132 0.015123717720450534 0.14686349604639606 0.15188229786781673 -0.22557521744502645 -0.05068935989829907 -0.13353405382690836 -0.10842658226856738 -0.08076932244580295 -0.04200554035192252 0.23826223149145032 -0.05310775463864243 -0.021257749002403604 0.16252786580855327 -0.2794298688783374 -0.015160335587817124 -0.07198857325051483 0.22301250522741475
go -0.027011898297427166 -0.20287850908870625 -0.07888672849439544 -0.05791090681704636 -0.2911356356413497 0.015107466199695899 -0.15989101493303934 -0.06870976134673336 0.026808999686928136 0.2646846923258904 -0.024625483990040695 0.10310453075621982 0.0046572455053865034 -0.35338279356760605 0.13699488040028607 0.18023175767783572 -0.01508171126771305 -0.08350125850283478 0.10999303280802294 0.039986730495128575 -0.02854337449679759 -0.04495303518430927 0.21912861483173884 -0.08099360756440709 0.30823502597074354 -0.1066354691141612 -0.1098535792738719 -0.06203609311781156 -0.05247347532330134 -0.010933282711256015 -0.09729899218584187 0.10374714771764555 0.20973246184150798 -0.011877420827602915 0.17719456021107774 -0.0011187691185720748 -0.022082027414466108 0.20355064999655134 -0.07223127716858348 0.02492700514496186 0.1059727507424074 -0.04681492831594747 -0.051049416035371595 0.02226482461463707 -0.2502324064690753 -0.027670847654744465 -0.008482166989376039 -0.11482616565378014 -0.1110313962852827 0.3501514918573676
is 0.05295715361753184 -0.10044330820529046 -0.3172278926310628 0.06755096058765311 -0.237718304507785 -0.1134746496713847 0.1418802409377209 -0.13715571809667648 0.09108115393141349 0.13040267583483256 -0.07322733930956335 0.13098721803553023 -0.0836558881387672 -0.015091457762607148 -0.08050251994257103 0.24468383575880148 -0.04449866998905776 -0.02051190179123893 -0.036563114653640254 0.15075343355993318 -0.010498061955773305 -0.24819898818191594 -0.07050526846685494 -0.24862001655079685 -0.03739806209436654 -0.2915238342382213 -0.10504934276240967 -0.1648085137991412 -0.07196662396859915 -0.03596751354644288 -0.10963720911599367 0.05717059699391218 0.20167732822530848 -0.03478421055097648 0.1900710058538881 -0.09589493794634821 0.017607358991285703 -0.13603244916506552 -0.1187884542444838 -0.012070796444407214 -0.123872391546768 -0.02076467679694604 0.02187846666584298 -0.3215582444475827 -0.1512542440399904 0.03479921906694035 -0.06385728581675801 0.0878227261234703 0.024528654616303436 0.2728879969424648
but 0.0396818232693854 -0.01412843548032585 -0.3038976516150789 0.008919062547359115 -0.2766824525811126 0.014328055489622571 0.033041671386535555 -0.1074735890661838 0.060183912853652266 0.15233641288142777 -0.12877821188579586 0.12546168249275946 -0.14477821161572094 0.09134490029473243 -0.0040846104440359675 0.11232222736306102 -0.2150211489987567 0.029891323117989834 0.03391614888919074 0.024400252913020618 -0.02977276707185929 -0.09869537515482592 0.06282761135240936 -0.07232425463732751 0.10925294305768148 -0.13500493755649814 -0.14682305008658783 -0.08109030895421046 -0.0983842921961757 -0.0869188079058589 -0.2336455945361869 0.04396504042317852 0.2616542071096422 0.09043293070911287 0.2304547142860581 0.029346167965697265 -0.05247776985516714 -0.1595429992069013 -0.011619505820332533 -0.08587004288239643 -0.33289423123962203 -0.005634958739589188 0.0932620630236126 -0.2893000584479288 0.03871108231047038 -0.002599113319015693 -0.1434771350069037 0.0673104485154992 0.18653020584446267 0.2891085448349487
youre -0.05767545665544249 -0.18053912549519877 -0.3769022853674355 -0.039999742639171505 -0.21026770865519614 -0.10352598758983005 0.16259507301932719 -0.2155399823143916 0.3194591001743354 0.12069243560481603 0.10942294164153651 -0.1162345547437095 -0.05369438149808861 0.08048711108127311 0.005599761994299365 0.15461488920599037 -0.14168631336883625 0.05357103236746576 -0.03413885558472318 0.11646466218621644 0.024304106772372602 -0.1811464937290259 0.07062134465128053 0.10271736551130246 -0.03404075335218103 -0.04470792846124957 0.10304773920618707 -0.05156426464002265 -0.061787815682816015 -0.20225434320438182 -0.059056822650429386 0.01872526363648296 0.165769690117989 0.11511070710914574 0.11948419119666824 0.12705970330076868 -0.14661811457391477 -0.1560366502379064 -0.07751446916725692 -0.08264103215752945 -0.044845704390775676 -0.15313830633824196 0.16158952513577016 -0.18409461008490655 -0.16607698093462836 0.08744948423198515 -0.17304440346495653 -0.06695188835023701 -0.15906050728802915 0.2352166933385444
what 0.07395643181856736 0.05444488252997842 -0.21446145439546785 0.1142644157191354 -0.20715157557090774 -0.12782365316528035 0.23668371354732312 -0.2940605109888642 0.08347267299627802 -0.1155410848550174 -0.10262271003450828 0.05021354596328035 -0.15684891557388514 -0.10888091685802499 0.010144463514872408 0.16943548282194967 0.050772878728258364 -0.10178908300964275 -0.12276880180449601 0.27499326784013917 -0.18046919063097358 -0.16791991223390754 -0.043182385499573685 -0.0757797934309533 -0.1730695657582475 -0.10990920432539135 -0.029305876812729344 -0.16626403444380317 -0.04612820472845789 0.06323746719254804 -0.2235820545439398 -0.004351419307201827 0.15087637926988262 -0.23753566899047604 0.06833971963511018 -0.1095843489116075 -0.10191990999534946 0.11997403402287705 -0.03558999622761791 0.04818541167761431 0.13586793275018447 -0.05758220212924492 -0.048010975696672016 -0.19184229018552648 -0.11548167549918924 0.19763470237877337 -0.01632493256427352 0.02033885616921743 -0.19125198871378699 0.2422542886778499
got -0.14134286140228897 -0.06442075446833259 -0.3299926220754714 -0.05953243309730017 -0.33158276383454627 -0.06551966250320812 0.03183267308178193 -0.1714150983672736 0.12395900959495662 0.15346505420819742 0.028538859991817246 0.07838052527957927 0.05425112474690829 -0.2181135955738254 0.14675152664413993 0.2519701515993085 -0.07191588946911612 -0.08915200728235594 0.009938204055801512 0.09191019367452698 -0.05899680639950653 -0.1612068977015788 0.09213070303516756 -0.11901028466968931 0.027349710502422134 -0.15181596440221864 -0.20568210746008775 -0.1523246642143895 -0.15875655110990602 0.04445992693153383 -0.09173626054847714 -0.008324046425765796 0.20185266767232943 -0.03766561871060802 0.10601551521886975 -0.1165977812686215 -0.1830511517246411 -0.1438259569089084 -0.11137760422612998 -0.06899759727053938 0.10518733154755296 0.004356333441566188 0.01880224370135383 -0.24130128286336464 -0.1516085546075567 0.028057814818934643 0.05446508432455955 -0.1516682304081261 -0.13372764704670118 0.25095639074329423
like 0.011117299959482867 -0.14052473426812936 -0.25080096728419504 -0.06851090383722525 -0.27189343834013574 0.024632853396553397 0.10133408056330392 -0.17436355885671742 0.24619933878045794 0.11347571377588953 0.054732617334706 -0.008352631566238422 -0.00029096058487709065 -0.07730757599754849 0.1413579889281785 0.22857559559273474 -0.1405502476029973 -0.020848737282414962 -0.006178569733341503 0.09658425758256782 -0.16757484043419335 -0.1334037996554098 0.07672836901235472 0.017751852698975036 -0.06170698598116284 -0.06155553448269136 -0.1607622371875376 -0.10967856957586107 -0.09005501520401997 -0.08964788751995688 -0.05738763267170946 0.09702232697061972 0.2554834784878327 -0.001693651165702468 0.21687420311584935 -0.047016190629430174 -0.23541425501117055 0.14587276352598214 -0.07438385638906339 -0.01657715362122499 0.11914455964878404 -0.08704824154798602 -0.0034730705635142274 -0.14526315767371167 -0.15612315293686665 0.12931298068594385 -0.07447993852250227 -0.1565737075738965 -0.1926571627939524 0.37204901996730505
can 0.028315263107627924 -0.053289575111334225 -0.2632977091771434 -0.06916833630091127 -0.2798190747291171 -0.024830853722572876 0.08049932208342367 -0.2554888460391593 0.22789679014260603 0.10851657649364557 -0.09045044625462184 0.028772259075362225 -0.06124781233585935 -0.0358416465374009 0.21685419987371235 0.1414276809272746 -0.23609535696181344 0.07901889178018084 -0.018286493990455486 0.04191496026394103 -0.1652114370927087 -0.14411863291204016 0.08998087920039646 0.12433617962914699 0.04210278708563118 -0.0630343855689436 -0.0403206507066026 -0.04975783928301867 -0.12006422864921001 -0.14179667928957138 -0.09757973124641209 0.11643340308031777 0.2890994944622327 0.009890487165770637 0.2362462099997063 0.08115006067825568 -0.24818134740946618 0.0756091694383963 -0.10742289196892223 -0.06025617545441648 -0.03172720387644031 -0.0795646248290286 0.034259168590877596 -0.024141662392591703 -0.09928865953352208 0.12375051489379817 -0.16364522761105618 -0.061442294438633006 -0.07298698869149366 0.35347528890734137
it -0.13868318322048825 0.00011083209867874788 -0.17967455282331113 -0.00048577473037919274 -0.10829553710118534 -0.03821270670332375 -0.04543565815551534 -0.22782599041808232 0.24583109717223406 0.047451859099564904 0.12667951670330274 -0.08596719245530936 0.08686957010980015 0.01729216552364379 0.1274286159234506 0.046338035810006145 -0.18900016997738675 0.12445187012418521 -0.09607570868941359 0.008684991902847413 0.04778592748210723 -0.18349708116284838 0.34290429474975637 0.2451708208396798 0.039508105984334935 0.08024086735690739 0.11653405643630559 0.08679253787100216 -0.17272042816365948 -0.23834324914376775 0.08382836876378544 0.09663772961533773 0.27792602923714155 0.031411074434762015 0.03241878188516027 0.2310000330738609 -0.09291581481218972 0.04219715995298739 -0.013882309891952951 -0.01284316071143306 -0.07742683251102145 -0.01903718154539429 0.134802487680226 0.028965693874552192 -0.10662676727497977 0.08176500522455342 -0.30116932822955694 0.04068402669088392 -0.12479379893925793 0.26062443119446127
are -0.0849160820885613 0.037931062412859214 -0.2706029834998763 0.07886120520226755 -0.10707662213166991 -0.14444911656608872 0.31279978659731716 -0.2347497939668153 0.0030394691380671284 -0.20575581920900224 -0.01307650604296508 -0.11611167401678094 -0.15521744785506786 -0.07347403188404793 -0.1378193443296771 0.1101633547140666 0.06890666449110848 -0.07535683563906774 -0.16570219847806955 0.22867944904419554 -0.054364991673926714 -0.15714149970695712 -0.08825202192287755 0.05146989087490264 -0.21312290117695515 -0.10098565316061538 0.19020614602457342 -0.18923080040068138 -0.07137811296186931 0.11876358291134559 -0.17045947898367875 -0.08029113922707494 0.05319629559595915 -0.23224053474059084 -0.039596454323963 -0.0472995364143316 -0.09214395172957986 -0.006746641844208375 -0.021142227651644203 0.12292448468305073 0.23422216206102706 -0.1472007083614212 0.05280186066964509 -0.11600855377460735 -0.20208216058156742 0.11225411762413652 -0.02066873387299705 0.019387464863989956 -0.20891043928416322 0.15526728930545178
at 0.05309766669298835 -0.1728776814096161 -0.1182927851563687 -0.09441292938692605 -0.31993738928236787 0.056628242527291164 -0.11448096222254862 -0.0340532202399626 0.13485638984721274 0.2234600679200737 0.018964727887402947 0.05190699019684613 -0.018154787260675244 -0.26613947470894883 0.09857104976981158 0.19927919484683934 0.06653566586289344 -0.1592037152854675 0.11431195886342828 -0.010443132096587527 -0.1271530254139498 0.00355353478120218 0.06140497897940967 -0.21289257486111457 0.0842248967003315 0.0013571288611626416 -0.2089512889767231 -0.11306516049708759 -0.03276560596802304 0.07120398506576493 -0.01306874277394025 0.03875980435433304 0.2679564202566238 0.08722103927069902 0.19495525984745835 -0.12694448164628053 -0.11021888883009096 0.2545630634834675 0.002880072338820719 0.03360552077542492 0.18776719622238125 -0.16165011862730017 -0.08704502067780387 -0.07397245141271372 -0.13377604384589248 0.0336208267400245 0.0986105901783605 -0.17843693530188806 -0.109817107259352 0.3074196612340125
have 0.0027855249227447055 -0.10629813808349654 -0.355016954810948 -0.08618098366903186 -0.31713535319229275 -0.03951117213172776 0.1058724157433615 -0.19887914759922523 0.2488873318204216 0.18281108566426718 -0.05402179983902511 0.04849154838446531 -0.05542195331324703 -0.010784374669059793 0.19761676260451924 0.13975222736474738 -0.234892892450538 0.02042166414386683 0.04967470172142395 0.12114106572851041 -0.11189343045113252 -0.1392058836949074 0.08656117737001356 0.07241832646211066 0.03141062204860263 -0.06008302165669779 -0.0614542023605494 -0.0659372951145826 -0.058447538333345664 -0.16946705542514542 -0.13002624573574553 0.050712991206531076 0.24242817787092827 0.07546046735099234 0.1856829376170948 0.02401783535595202 -0.20848864686571789 -0.005601796458943609 -0.054352325933657734 -0.07789595390518154 -0.048097755219840395 -0.09656269595804727 0.055298375578402274 -0.15452065360023762 -0.06076417740091385 0.12288711860409204 -0.16485801981215562 -0.11809360331037708 -0.07091529008902277 0.32040572855796906
me -0.09865977788323706 -0.12787291758199518 -0.39556560748157044 -0.055035887246265555 -0.13989455106035525 0.012878420429479866 0.14168987460512036 -0.15056763229612435 0.1904323068132418 0.19523398930483557 -0.01797858417401554 0.0022085077845063147 -0.03392546792991709 -0.0731184011983755 0.0856368697134796 0.08218817549159053 -0.2677807767236918 0.04322021216961698 0.03958710596342625 0.10016992825640164 0.008563433484084315 -0.20006038680463475 0.12372713338508262 0.14779067932289433 0.1475771163032735 -0.09274845489503766 -0.06896057635643979 -0.004758589656774152 -0.11413454161059997 -0.23590665447482118 -0.12327149002868089 0.04145784196912572 0.2397755038362017 0.054259582501353 0.1570119122561372 0.14725201888764888 -0.09782833965848174 -0.06698400941816858 -0.053142971104997154 -0.04165175972581408 -0.10229098293495045 0.006371402371714919 0.10594310068591455 -0.1656418861469283 -0.11361742759276433 0.05500990480174194 -0.24368934718687918 -0.14741678560901808 -0.14091166870573046 0.28635378853095467
all -0.1783332105987723 0.012798675379014211 0.007714141658639363 -0.07643824689001026 0.059222678912871515 -0.018887878223484866 -0.18569650758784775 0.01570214940955435 -0.20073743075659248 -0.011143142514897595 0.16172656290608062 -0.1620936915054555 0.054814668458280244 -0.39591661347103607 -0.22311500448381288 -0.024432803050333872 0.19361691235742623 -0.1292569003153988 0.09803468543872199 -0.0891969526231248 0.03835260232421334 0.17876695527464664 0.17570212230325225 0.07081288931894338 0.06336027744211677 -0.04866477096633229 0.07095944468724223 -0.08827715731501351 -0.011590703858490373 0.13915950345015057 -0.008720291139990713 -0.06226530652543278 -0.01967000030683057 0.004786488459592005 -0.07151260484839714 -0.027808511045392524 -0.07736396362714373 0.0586793878000869 0.007161968402321482 0.24360018818602963 0.396168767656897 -0.12421628386027174 0.047386235749960856 0.22733500956695005 -0.04340950270915137 -0.20533394003505634 0.01367060580252958 -0.12009102164148935 -0.2682328394658619 -0.06919732610072644
come -0.20160566257627952 0.045903653624534274 0.2815733148902738 -0.05205367112992604 0.0011669992954982142 -0.06756811284461625 -0.23897302587272154 0.027862165498256382 -0.14700981302032515 -0.13397656312800854 0.021105491777562397 -0.09715899635624327 0.08835720795660153 -0.26089243660883377 -0.1064816928893569 0.043445847642659845 0.2532264663840247 -0.24096128086104385 -0.10534725035220067 -0.07061606738967582 -0.03160344143223277 0.18679050334710395 0.20463389964797704 -0.0627020238372186 0.13845518085654726 0.13300444583667015 0.09226218477407218 -0.03746916048449728 0.005050424456038244 0.2189937228062568 -0.05912490733262858 0.007176701757894912 -0.1461880987816089 0.07718519584048425 -0.18382829688387467 -0.13133488024338566 0.014214005564579036 0.09143405089286598 0.0668394834220046 0.04320877941642307 0.19134432260195378 -0.05098892756837522 -0.11494874278773588 0.12311865494800768 -0.07372913545141939 -0.1517860270328632 0.30310754707698784 -0.0078888235283895 -0.18986459500801553 -0.19665749385418865
see -0.09891788213258776 -0.015054164300396064 -0.3017188407150342 -0.03910013692802119 -0.14618741713820832 -0.0890532617317607 0.14693053671354636 -0.19962933161078045 0.2049110739688281 0.021600254852381123 0.03264501552173507 -0.03671772876093254 -0.03943328069132409 -0.03407900887927321 0.12359449221620694 0.07991147724540634 -0.22411355424437415 0.09326119937672687 -0.029073861896661536 0.08124712558056725 -0.1046175908357387 -0.17099433437647737 0.16527126873051182 0.22899699926179398 -0.025136373063232773 -0.08018807262084234 -0.0005193846494298005 -0.07997663082273128 -0.18291989765249747 -0.18698953760974563 -0.08429274799231241 0.10277485097894516 0.17451815945953186 0.054886971645127694 0.20383665459935676 0.053654585583462894 -0.29592631889701476 -0.06265254047459053 -0.14914207040425453 -0.06631958049648189 0.0902389339077963 -0.10127078679296324 0.16450663618152878 -0.107934891371801 -0.06665764151090364 0.08638565299977806 -0.20738690990717515 -0.12022125794866759 -0.22805165773419275 0.27758435756726957
aint -0.06023458294810228 -0.05492938562068026 -0.32574177310137165 -0.09647160503217135 -0.2532493329494358 -0.0887360938452599 0.0020307122114404837 -0.24679438663466075 0.26496144263393906 0.13084858875447813 0.02190041871110122 0.11055986262387092 0.04649993704495751 0.006870899948421928 0.1146846509909438 0.21186143540202504 -0.20026992161130636 -0.004254582252756283 -0.10183403430918604 -0.013734645903144771 -0.014253821445878423 -0.23001213941570545 0.09357423758404161 -0.103141171157919 -0.015229830586253693 -0.10682138991654869 -0.1528103274115715 -0.021772668823617548 -0.09105909779926304 -0.19060078812744205 -0.025617429437326204 0.0370239613909685 0.2804610809825583 0.012940552602546253 0.21034274473961911 0.01720535484630123 -0.1110514441909081 -0.17384204688778374 -0.059026580012056656 -0.06577381806939439 -0.12661342448461935 0.008977240093252747 0.054510365989733814 -0.2946229225094485 -0.0900084827245973 0.012873100661954873 -0.12801867324693977 -0.05697031782311944 0.007909251033889233 0.26806729789844214
little -0.01925894883423915 -0.04241477527540629 -0.10950391983104307 -0.09072219943401598 -0.39413603720979806 -0.06346845436738162 -0.002740403786690156 -0.0645097687692329 0.1849850630197812 0.08154750712679584 0.15328401736342212 0.03451561991590839 0.0632283762578639 -0.12346455949222637 0.009781719071935696 0.28428566319632087 0.0490608400144946 -0.047229024520328844 -0.007966494341435806 0.007919649832261616 -0.2582957439501152 -0.11498277554987445 0.01390501180653894 -0.16891642044575933 -0.06714965204665345 -0.05683898039195918 -0.27247401539350363 -0.07142226165424942 -0.041083610473039704 0.06414769975040738 0.03391640056938853 0.039504560142959694 0.11668967235290902 0.09345284394796151 0.1346613731121324 -0.22831818586045652 -0.13713046911652202 -0.12199871672598399 -0.12779670066356455 -0.009799285762876015 0.20158948966748289 -0.0360195238458548 -0.13546553718628934 -0.16129150065038533 -0.18868480331726784 -0.024729021207600378 0.3445608835216618 -0.11713176740824045 -0.14714153109795636 0.14140210279684354
eddie -0.16634907947466304 0.11975852824901545 -0.04049495907629944 -0.002574317287099969 0.24272287760886005 -0.09251918626211726 0.036245576405955604 -0.1112031124236684 -0.01590387816700398 -0.23839716586444887 0.1933731496198556 -0.22596626056750976 0.13673518769920054 -0.003729987174151102 -0.07317453655317054 -0.04056472862056414 -0.09757777638175336 0.03204389940690385 -0.08472050164764114 -0.08280332998258987 0.009445126594944732 -0.006084262052416258 0.22202577211878227 0.30395012510781516 -0.20261075654467972 0.0641539904327255 0.22572415428570236 0.09496112031138165 -0.08998005190759521 0.03188289276629302 0.09414833493674249 0.06534484325235455 -0.03883837964068125 -0.04652972649475015 -0.15275833004443476 0.17150844782490368 -0.2825010589739957 -0.15623905508608463 -0.006044308552709123 0.14760909914934367 0.18872423195244042 -0.07298013594265523 0.1615033759131679 0.10499243034232807 -0.0033769652065895584 -0.044790854776153084 -0.10655121315179746 -0.062140811104198855 -0.353786450943999 -0.08514508212214084
just -0.031176227839825748 -0.16467372822565313 -0.2936572879554265 -0.1069845653975147 -0.3049079304334731 -0.02616500277877949 0.02270820866823759 -0.11734326655184193 0.2408675446341918 0.12660560577972646 0.13393053831567803 -0.028672284048916686 0.03214493118579223 -0.10067172343749539 -0.018543868961330853 0.250121540164006 -0.09537013768360131 -0.03752327896193345 -0.009256498639235297 0.08322505077241427 -0.1417460802981656 -0.14475481782233024 0.025260545907954624 -0.11976460773185463 -0.08740107165661948 -0.09551364929041116 -0.18157722614635513 -0.11444466584220579 -0.0634788549191474 -0.10814016758025681 -0.052477689013404 0.024942651011474665 0.18029730286236495 0.13069234909457902 0.23110708663150797 -0.11174547951645075 -0.2419422129456516 -0.06998860815362674 -0.10095624354169398 -0.07746456162465146 0.08422462580124102 -0.12974533936359545 -0.024172527679582275 -0.18304321389731387 -0.16531702734687634 0.010963619264426879 0.04118282493558462 -0.17272956871256648 -0.25263466202279244 0.26077894570925136
not -0.17679137616803292 -0.14922729254804795 -0.3965216151910216 -0.043683503222448454 -0.1117443762126501 -0.03776788685873118 0.19103246832104714 -0.11676481343241811 0.3368413535913706 0.10064973033791841 0.12565465475814258 -0.13301680627834533 -0.09282976747696929 0.08927259194440414 -0.03337252628688343 0.10238867003138939 -0.1637725597596636 0.0745712104460928 -0.07175433877305663 0.0817152975658318 0.06904897730480306 -0.24489685324014762 0.02047637110377498 0.1350816035702366 0.04508915130384698 -0.03425903241490516 0.05799831601084674 -0.018575122112231536 -0.13167744481867869 -0.26891924885600943 -0.04967965473406429 -0.04948637037910777 0.14755897598427262 0.0940384141965852 0.08389656107160712 0.174469485904004 -0.01727664772765185 -0.11272628551587471 -0.07917100639337533 -0.12456433275582376 -0.08345795426612888 -0.05174445202595556 0.13137017225438885 -0.16628153936727225 -0.20812078770284395 0.007963687124891155 -0.2159227850308003 -0.026646602435079214 -0.15846653251542459 0.1888784628653298
you -0.2254217672947324 0.04609416390724312 -0.1219857948088086 0.024489335301323953 0.08407960719186945 -0.12509208417093465 0.12838086137294547 -0.10401207460818775 -0.06541456444453185 -0.25235803808414625 0.13752922987169408 -0.20998289643207288 0.008371130144202904 -0.20772044682591032 -0.05873377786831263 0.04206877520555147 0.05114921027485392 -0.0964854502339625 -0.12625694268173193 0.0976889375575821 -0.03483253294150782 -0.04251433858103653 0.14718843111931718 0.1607438143498814 -0.16317809557170188 -0.03289576418827829 0.13907305035655862 -0.10915636685369838 -0.15441468317314813 0.11340287220809711 -0.03669137805507854 0.04025255498888814 0.045311597440584 -0.16450213143188766 -0.03399468731167194 -0.03516154386451174 -0.2695352055238102 0.08070025208393043 -0.03427041711354162 0.1600145290043565 0.3878732415769661 -0.21988785685092763 0.11199225452606817 0.03148115042216428 -0.13425244092193847 -0.009075106957189017 -0.06287238895241454 -0.06831372344824854 -0.35319788794280427 0.11972334520264605
we 0.04951926609543775 -0.0656643341672941 -0.3306720919975311 0.03724538461701391 -0.3226882760302469 -0.11290366743018286 0.17509705907628295 -0.310541597627413 0.18863081815051835 0.06757562114383393 -0.19986519933606361 0.07670912605546319 -0.23776685459784105 0.011995169007067458 0.06850169194255584 0.1480587085120239 -0.07933906989855276 -0.05261508107524219 -0.027674365942208925 0.16148795040950065 -0.06489625444971896 -0.16728824861426903 -0.05633475827290829 -0.011646778417871982 0.011449087013770363 -0.06363961769659761 0.059248275851389524 -0.11167781868261831 -0.030433133282233557 -0.017689329613732103 -0.2557186924694786 -0.035853442681577107 0.24636400004424383 -0.07409619663649715 0.1594024681383631 0.08759916770517572 -0.029260758439057157 -0.01945396845854081 0.0106040372823032 -0.042088824017503565 -0.061156321985239154 -0.06408118251313605 -0.009388721273481775 -0.232252560760482 -0.13129058843297844 0.21303112276496233 -0.07518917083376386 0.04451297434976603 0.04333816887457199 0.27088178520620726
yes -0.2811523300785289 0.15348199344148805 -0.0011538703817944437 0.04680606632111661 0.23135280661883043 -0.01744591702953304 -0.05583239150440096 0.07556738057946026 -0.06872098724379752 -0.25668625702982706 0.3191891251035313 -0.20354934120262358 0.030617415650340304 -0.20210036146991592 -0.08679805054937122 -0.021253617486692928 0.26825511800771884 -0.03690446547174177 0.051264299799997574 0.006672630652156667 0.027459530187283702 -0.03889124789017688 0.09348432372626596 0.12241222039193773 -0.006722174557784432 0.024911250171733935 0.004209795923124346 -0.05302418549120988 -0.26014212395426806 0.11218463500408454 -0.13719784509754518 -0.08104018708228368 -0.1693166564966921 -0.029205773353757934 -0.10161885860825057 -0.1029874192477653 -0.1716229612050454 -0.07244467846967555 -0.07761663140064343 0.08563628186378103 0.2426854365104681 -0.15818866447612565 0.10628029390296713 0.12396172399113649 -0.005685342677690357 -0.19667853492795587 -0.020185192391415932 0.048860343335624334 -0.3110545902215467 -0.1018055457888769
thats -0.252558893093645 -0.16455641137866608 -0.25059502517181204 -0.05156433560436632 -0.25471807595737034 -0.03142665052839731 -0.13330840256541432 -0.05385094955822878 0.23405280234933826 0.09414061104737843 0.37571210962542106 -0.12792771410523168 0.05582910881727335 -0.07708628197482086 -0.10130057099041027 0.280101872734779 0.13097653271038165 -0.08555151738318252 -0.06677984595569282 0.03981804736116551 0.1295700269398027 -0.10855461557008543 0.1642348562914042 -0.16264613597137684 0.014135323447080022 -0.025718452257114593 -0.03801257509342828 -0.018032094726787313 -0.11914211455437573 -0.04427218079212678 0.035816472941906194 -0.09755743158572813 0.14644095051814424 0.1502031450391086 -0.056738990619747784 -0.11611116012074031 0.0029571158580419324 -0.1176581973739004 -0.027092802518967344 0.04046592131475988 -0.0044064956402558 -0.13222583377163255 0.03599987843612225 -0.22458717333616174 -0.2866687421835278 -0.11153316843394483 -0.0005132971948514189 -0.06322963960336782 -0.18619111402755445 0.1289733636112167
let 0.0228535428604319 -0.011015564876790791 -0.17187403883795913 -0.09531209513207288 -0.11304249767626516 -0.007137700042710152 0.05539388690293467 -0.1789981855994094 0.0753627493800109 0.02669128998198326 -0.009936181557252897 -0.0164206134432362 -0.0010381813445078185 -0.143773207604947 0.23344171642040035 -0.018571790244806447 -0.22308917806284354 -0.02826943405188522 0.018733345357424373 0.024916894399438044 -0.1717759130816375 0.0021289494203040227 0.16598595132741112 0.13349873614744714 -0.014076980047775465 0.12666300321120744 -0.10202151148697042 -0.09075060279124322 -0.07672783586850734 -0.13089325335804528 -0.04159989936786577 0.08889217686488668 0.24996696119496292 -0.034559240818976454 0.20641213653817017 0.033055368730378704 -0.32466885258074146 0.2921854323195302 -0.02743997323877976 -0.0008663257381323729 0.23111055204369874 -0.20308290852949 0.07425951228545559 0.043163405894007044 0.09842175998434279 0.09797721235901828 -0.21140028617306125 -0.19519869375498491 -0.16670915441543901 0.325180624481115
will -0.16354829655805847 -0.045415357119155474 -0.1872379546777487 -0.009291283024869588 -0.0469402196881107 -0.0986234804873015 0.11204706123830314 -0.1350501320232806 0.029328456195360814 -0.10889115457072199 0.06706521216885589 -0.10881131883412748 -0.002430998179302964 -0.2531798780327198 0.13732704723095615 0.08795343429144464 -0.019909435991940005 -0.06306224833600695 -0.07119671153762201 0.14767136362150737 -0.120985470307425 -0.06446975237216823 0.18967374300124737 0.17919450421585137 -0.05622830928351651 -0.0439639434278672 0.031151904419179526 -0.14199105096280767 -0.18141792948000862 0.003741900974184891 -0.042771995880511095 0.11954283854716212 0.16536855135241338 -0.1345535537416627 0.13279956260868123 -0.010561469594088312 -0.31872421941945017 0.15747998221950943 -0.0628442967751039 0.08544978559184067 0.2940653554575025 -0.2201135126500038 0.10436047651898331 0.011307135373881077 -0.1830250228576562 0.029150422502755048 -0.1163366353655264 -0.1270146651350427 -0.31818373148270535 0.26101735229420325
its -0.2862359238920624 0.03523141400869976 -0.15069285866692841 -0.02355781561896911 -0.0398660126780566 -0.1475522758778187 -0.05233681321732622 0.003434858644309918 0.06483025036084201 -0.08191399716540693 0.24158079311566424 -0.13646132399738073 0.04500058504119839 -0.18812691268879883 -0.22190761562537456 0.1975043720478203 0.18325216917439566 -0.16299240837407486 -0.0390058217167022 -0.03136153888278955 -0.025828365444878276 -0.14447271350015517 0.02517485652229324 -0.23402508829836702 -0.1304891972771307 -0.11347532868567353 -0.09070684161476647 -0.0423658811469813 -0.1606224543295195 0.08034518207112899 -0.09331792470455277 0.016962690181857146 0.005600099050465167 0.11118607905625666 0.004640503870464545 -0.2176224080215564 -0.16481416291579912 -0.1595231027233034 -0.08361666348479266 0.019751913505058952 0.22063110798592758 -0.11646139204579854 0.032526831901374925 -0.17092899866281844 -0.19599559316480394 -0.2150723453432163 0.1271232326457439 -0.057045226900529274 -0.3302946293565832 0.08748752281088747
mr -0.02756511243826876 0.11529100712063366 0.2885376927458504 0.11239516384457861 0.19084212408606285 -0.12234576025384912 -0.0361809369240691 -0.00821716909613897 -0.1949924819299137 -0.03311734261771099 0.060372609035302345 -0.07993895764041493 0.07369993500749668 -0.07060476403661094 -0.001765003977659183 -0.28179146993895704 0.07555045911825153 0.1595549123165993 0.02043404903244485 -0.030931974293527686 -0.01864075762614633 0.21469434705362403 0.045393428800006186 0.20287414896544656 -0.06529856870161319 0.08089349389519819 -0.008906592938325636 0.11738690822865533 0.05455723998479651 0.2426239068283159 0.06060811832490428 0.08052312593417615 -0.10475097964018065 -0.04006552450814568 -0.1483017784955639 0.13786634871635867 0.008976982586335152 0.07682339340702175 0.2283262562690745 0.2036872480770331 0.25916876334644057 -0.04017012220939347 0.03428831059394407 0.3748156657901877 0.24979707245350996 -0.038876136810938156 0.02728750092929665 -0.07990672312870965 -0.10958286716008624 -0.18103625405587734
queenie -0.24784539234545114 0.11994899258322907 -0.031682339813840256 -0.07030050572943186 0.055745707863376376 -0.13266747155293535 -0.08836956253265799 -0.19888224072363797 0.02229711537498721 -0.16829176619951886 0.12560538028064808 -0.15439091973693272 0.17183521939577298 -0.1251725753897359 -0.0634245278588016 0.02923878032855524 -0.1358992760334736 -0.0283870378197955 -0.15196560666357486 -0.08811046348329234 -0.046508644289371855 -0.006542433460601812 0.3625525557102462 0.317959784673226 -0.019667442488045184 0.08947529509544376 0.17647491702061074 0.07458695281935983 -0.10847126962456953 -0.05814109682117369 0.057331685988084954 0.09133715896849098 0.041932444178040595 0.0067504425565714146 -0.06153419958314801 0.10774506242986864 -0.31637234683556326 -0.05883665004383696 -0.054382335964179115 0.0359176969503722 0.23662676843615724 -0.06113350837722762 0.1326820686824771 0.14098491596581111 -0.05841552285655815 -0.08894833871898744 -0.08135856121376675 -0.08223000984740783 -0.357409986972696 0.015769279043927126
cant -0.13816760990719643 0.07178139328513747 -0.1378073408579925 -0.04453309341409697 -0.0772275096293534 -0.07870992817607775 -0.06954373859633192 -0.2843895954840954 0.14813849879766416 -0.05452612999201574 0.02570829733694338 -0.06619500825373148 0.12993162320039517 -0.1300682006063434 0.16082100288839013 0.05943184276242579 -0.2004336184071097 0.03037998287662054 -0.13167095492155184 -0.052523240790191446 -0.09202142659041385 -0.11965361971060608 0.3452440580371277 0.3270519475648261 0.03256743614053701 0.07306817392604412 0.0909140422178608 0.04185617625751205 -0.14584399837773424 -0.19873267601086816 0.033123343095558644 0.13169974691523822 0.22833158377671461 -0.041316510939954525 0.09779901999014734 0.1500121931560239 -0.28847289079382277 0.08427416552003268 -0.042625439268312235 -0.02331487057973204 0.10655030955830996 -0.049941558689646094 0.13098732963556242 0.09737009310984512 -0.08164228199459825 0.058073451265427366 -0.18756876502303665 -0.04548544397449259 -0.22786131454650374 0.19927455609717082
give 0.0031202573709655434 -0.1994364502942143 -0.20516607782575844 -0.009058024136371022 -0.3308986553106104 -0.03340115881337568 0.0012714194256105687 -0.07742840537540925 0.10546128101631976 0.1584684232046532 -0.05494204357056366 0.1326609893427999 -0.03952142889527543 -0.2535801181524887 0.15082891982926105 0.18009170912480685 0.00018799672735864386 -0.10208771636660799 0.08575702662478814 0.19074221203286196 -0.16306091468727155 -0.049380880638860404 0.015970566140710768 -0.1745250527822392 0.09498656725592468 -0.037682967392664274 -0.21968638349827396 -0.20331174646953912 -0.05114121363140044 0.013688359116055024 -0.06280128338053087 0.07013498688447277 0.2142112840034459 -0.030606233441378177 0.24127121554237693 -0.14529705508883448 -0.12249756886471946 0.11959033375949471 -0.021497547849257913 0.0031721395846846497 0.18419833893542034 -0.1570663826762675 -0.0648722992764006 -0.11401879438504763 -0.1605229588679298 0.06690303015926491 0.03243309774327565 -0.16103750835222638 -0.10855346095397848 0.31174130048957666
but 0.02776351572828447 0.010083579189901633 -0.2183694469384624 -0.14411894422770963 -0.27915992104051884 -0.11659473533274796 0.088089760727447 -0.20352980789722216 0.2355576929340618 0.06115401125868887 0.12273825174231323 0.01710978473877227 0.02777397722919476 0.1907929305389493 0.002474144965282569 0.17748197831822454 -0.22920233113106328 0.1701550046181832 -0.16589063530962797 -0.13294475356791072 -0.1781266683118209 -0.13801596613417172 -0.005608672175526923 0.1969181393219216 -0.04460653219384446 -0.1219170239208558 -0.09428166157872232 0.06795921760082972 -0.04633398753165538 -0.17732374811695645 0.12527124265021616 -0.00044069072584578526 0.3243169897197671 0.043918688508993164 0.14815577589146614 0.10099925285073953 -0.24266759049021477 -0.14866054331038742 -0.1210382578443918 -0.011913034161587845 0.06616899325755707 -0.09179051667446056 0.041061391072871385 -0.14870631237686993 -0.11069183344411924 0.042424001566436095 0.0667992986874018 -0.18793432541521374 -0.09304328140846727 0.12904653679121553
right -0.1915553688459122 0.009566661636989509 -0.05578696551001615 -0.07931384478161445 0.04211759808368984 -0.014791895215929721 -0.14667617469091307 -0.015959442589707204 -0.19085519583941551 -0.004776814826048507 0.17764550206202442 -0.18245904339095176 0.05044503642999316 -0.3871903413261245 -0.22505112419731832 -0.039343562390437715 0.13615758579382187 -0.09714456192929377 0.10200845410894212 -0.05484273896826004 0.01477767850513791 0.16146747754389312 0.17718819786488785 0.1284148096788318 0.04584770757769126 -0.0737367476105769 0.0884184633178701 -0.10200786174599245 -0.030528609336565215 0.10502654333745366 -0.010795222394581845 -0.06094230026089663 -0.00022154374317238858 -0.009542967119003156 -0.05268772255740135 0.0039042642012011046 -0.13054316975695582 0.002709468131739319 -0.0025199119878485054 0.2393732755941686 0.3828234416612399 -0.12356987311357252 0.07182637709792729 0.22702132336788344 -0.06779475486254954 -0.20676369521545204 0.0004342020420998953 -0.16112094521834272 -0.3060768979034466 -0.0650094642732539
say 0.09984591932980735 -0.032011051977702945 -0.13706593145322166 0.04871843460956422 -0.4175736968756817 -0.11242108574218118 0.17013117774612807 -0.12723054277982584 0.10484253730507663 -0.05610719048724711 -0.10349707718085971 0.07193701742356466 -0.02690356508158339 0.04361846425045147 0.18741169632475774 0.26834976681396355 0.012381615584448766 -0.11601023216292744 -0.08038184675070274 0.12250076186829792 -0.1660177528691576 -0.011308629926728285 -0.1895031727468994 -0.14673219804396445 -0.17502820160605725 -0.15099407452681918 -0.11714898751945742 -0.23890749135833397 0.01039912894890567 0.20031946949968238 -0.07265860497621732 -0.07456404710744073 0.0718148736972042 0.01678818540468436 0.02568400695223034 -0.21281195400498143 -0.04029427575919485 -0.07262290142543504 -0.04962981472163854 -0.15609780315443533 0.03018265435079922 0.007574790168601148 -0.12227526575809397 -0.2979329773384706 -0.09787282836552276 0.17535141269734958 0.19622107769672553 -0.11968957702775529 0.10050549545215391 0.08569040101175415
me 0.057565107868807426 -0.06767440514175277 0.021735446939365733 0.03444506260112544 -0.00508160811898581 -0.10734452065561316 0.004263667592926833 -0.0754743429692331 -0.11362964076754396 0.1717298689307631 -0.0835713437738393 0.08533642687422777 -0.02632161098348746 -0.09447518277670015 0.20894921488333484 -0.24461813625666048 -0.12313769071349819 0.09924243315619315 0.12341033755551785 0.140397863555683 -0.18489118309198824 0.12560066834233996 0.09511203696738788 0.21903409602117396 0.08005745499646653 0.1045692199652041 -0.19704126232422997 0.04389003753138855 0.04484124946156908 0.11406506184360521 -0.03148053686364302 0.21186490835060479 0.09654343288799107 -0.05908602961813351 0.1723005960888714 0.1256912115100256 -0.1639167056967669 0.15639857076197108 0.17442785186000243 0.14536451237187695 0.18582408292083907 -0.1383530122405356 0.07651915008398753 0.3047408342778464 0.263489774015857 0.1472221733178766 -0.06741600104521175 -0.2354692069645605 -0.08890932131144062 0.2118822031129717
you 0.009030614441379476 0.18997392661546106 0.1128209390840775 -0.09599007562850485 0.13578875222180672 -0.05812546802594323 -0.0506748391754608 -0.13751007362356554 -0.003258906249397322 -0.06964061724773518 0.0014200529628165914 0.032252088165971166 0.18445215964689765 0.2174741560457212 0.0038718573449242322 -0.09868140701638879 -0.29619225171422686 0.261104520858755 -0.10545585559280089 -0.18921740809100612 -0.04546029162734958 0.02971771391541269 0.17159803958536246 0.28587473752131637 -0.12400580883206612 0.16792405237564473 0.17437863569589593 0.2262607802451919 0.01924770582130922 -0.12011907403336698 0.14493615467531937 0.09098753179668632 0.04242380331188739 0.03026222872357495 -0.07532529233513403 0.29672188906861424 -0.17699483594221652 -0.15134164239811332 0.005078418846070649 0.06554634196887582 -0.13289062422645134 0.08377866157004642 0.10681714261320653 0.23666904690612944 0.18644127521660517 -0.022131700235578432 -0.16678592716186297 0.010463313239904754 -0.05123646305546421 -0.050163798638292116
dont -0.17346586023155913 -0.016819512909011434 -0.30557826088352624 0.05665927077649439 0.01766783926421505 -0.05173048376282098 0.1705560681633896 -0.1554647887918726 0.18537183204342203 -0.07962071005694153 0.12106128915953274 -0.15677049264282142 -0.010749460144049974 -0.10915313935959489 0.08960351839859954 0.09221819308260966 -0.033241542994339526 -0.1082155154933172 0.02979923284183806 0.11538871921825461 -0.1333854346817912 -0.09179893037817655 0.10414158879907234 0.1962530604660081 -0.1853435181984473 0.004593376850126917 -0.1023981093450531 -0.13914076816991847 -0.09714698009628306 -0.028378095622915437 -0.16752757574513383 0.09416095844548933 0.16633621626812128 -0.0035664554727751663 0.11478323853341095 -0.0009256449318653103 -0.2979313447522812 0.10064265095662148 -0.03639744771498149 0.06200514250652593 0.2723334509070742 -0.09803777721894874 0.1162000197761836 -0.08353455462767556 -0.03258379059569641 0.12516026271663983 -0.1897495880741262 -0.10278688021643652 -0.3227201160276343 0.2787149559667574
hank -0.30482720904427413 0.042937627477580426 -0.05740296593242271 0.047889393896760925 0.2852710426764586 -0.15217006296422492 0.0035648303567502983 -0.0065557561359432725 -0.046156643537597464 -0.21250067801728942 0.22695939449623678 -0.3135409935468528 0.11584190320484633 -0.05937925784949831 -0.1515350890534147 -0.06026586684431443 0.052552736476963895 -0.13067954386000144 -0.05528687674645494 -0.06794368000689222 0.09308437937940016 -0.011127862603816617 0.20741058587941558 0.22725885496170578 -0.10790436143216889 0.06802093639233263 0.16891851155260615 0.029419967350807156 -0.06208543866521092 0.02617446338721055 0.033627129369362 0.07295577998422617 -0.09361045857549437 -0.011762836514626836 -0.10986520207215641 0.06389912428531196 -0.21603092694436635 -0.12227772799958211 -0.01591334385052538 0.10764095394657207 0.28164219988605765 -0.13070308866318328 0.1906694950420287 0.13493600281021825 -0.003346305152218856 -0.10746951834840429 -0.11098063712289602 -0.02394653638612904 -0.30162143693604687 -0.04327534824821993
ive -0.19584166430732491 -0.007207211438223566 -0.42035920721175846 -0.046652250958279434 -0.21095673138839757 -0.07536637134433444 0.13080057597852396 -0.16089686387935673 -0.06427898410622587 0.1581489181879211 -0.08494730525358939 0.05274225584799686 0.07255833141312587 -0.20545947422734964 0.12160069418055656 0.1371104711546833 -0.15048690261687048 -0.06354965855989057 0.061943503424140914 0.12074298548561542 0.02651385174345918 -0.1773981958097371 0.0391295447612479 -0.06506294077962749 0.045763129365275164 -0.1959618527868708 -0.13252555381564285 -0.1849564122393617 -0.1923575641786707 0.10743620871043782 -0.12967107742642792 -0.09126402932063203 0.14251622117789514 -0.1168150074495474 -0.007196285212810303 -0.048194214519726164 -0.1588099548254235 -0.26876192693726514 -0.10914752876579013 -0.11649404957803279 0.09100589724524367 0.08834126402258419 0.09627780100714305 -0.26855979176711975 -0.052288817493346455 0.024302656875450093 -0.0007798593388716423 -0.19214450278311207 -0.07267442255814179 0.13439940147401744
youre -0.09497818146618056 0.08428137994505785 -0.13540245204569246 0.0002476731265841928 0.23871226823858813 0.05262942375442663 0.21693153648046562 0.07109557506623546 0.2709153529181049 -0.14412902500128505 0.20409604404194698 -0.2120740193942153 -0.12780714283044387 0.03101046047988389 0.055721990902586005 -0.23202174688667188 0.032933831967411585 0.06529868513050813 0.0066871744177732055 0.05351970823647251 0.15715975526481377 -0.13794723763910932 -0.12520657500130986 0.24584123796324125 -0.046534656679969665 0.20390303750636563 0.08761269506208669 0.14891625647053175 -0.12878444760020855 -0.1574185848385414 -0.020334856208333703 -0.30800049886758757 -0.2187176836681291 0.04083371218967586 -0.12738208219427913 0.07487426371371592 0.0899287734890632 -0.12419691653482925 -0.03136077292018766 -0.14274674120021383 -0.09626563546653263 0.08796858572596218 0.0167201673338617 0.02939946951237229 0.00019189089086703225 -0.02177180660040776 -0.14317961134937898 0.0493550065178293 -0.16293656359568293 -0.2756523803752062
about 0.02728602825084026 -0.03740850405544952 -0.38841964581735694 -0.012179216932675627 -0.18927534135748467 -0.03361005641253788 0.19557815506711354 -0.2600690286335432 0.11404252998603792 0.04519102579687446 -0.005752298678444516 -0.017495558621107108 -0.0660193748379839 -0.08607551782379044 0.009999431982610446 0.14226623701831742 -0.18834084474385576 0.05009368566996509 -0.046781048979428086 0.14892757496790834 -0.133773031132589 -0.26081047373334637 0.055452456262534096 0.15101613777407785 -0.07162423307455053 -0.15760216441882466 0.02442525938936785 -0.13092499094235785 -0.1506523099210986 -0.16719958253473208 -0.03122449127740572 0.07300635462683029 0.27152907564108786 -0.05686852093812389 0.18818173635334007 0.0981688162255876 -0.16131045064044405 0.01281246832692814 -0.07422724634338748 -0.01115880178816823 -0.0007934205073716574 -0.026643230353156806 0.1390087579031592 -0.09035341208345608 -0.15811237199107836 0.168117107586706 -0.15741229507280927 -0.05789530041825191 -0.21410367533615898 0.2615890441242699
as 0.13884358656444987 0.010745682057049144 0.07654264765907086 -0.08890754208088084 -0.1266859358304741 0.020055184725976095 0.05711016242504525 0.0833013097964308 0.11800203793884112 -0.09111749579881398 -0.08915836504886711 -0.13400628646757168 -0.08609909958219279 0.22398103669795394 -0.025648827440604417 0.12197065771802168 0.10345914793787618 0.026329632639424307 -0.18716719768239284 -0.07756337124307679 -0.1440576053275314 -0.010823156332875021 -0.43953674589984376 -0.3825108367497592 -0.21186793367257808 0.0677406014968034 -0.13504637862053406 0.09249556948006676 0.14259140465752668 0.1860225152570655 -0.058797164781153724 -0.022802616232451257 -0.04448669760766641 0.17036012197041664 0.04332748875562173 -0.2582207928992003 -0.044354991338762424 -0.05728738483099694 -0.11892882396340818 -0.10320929339833773 -0.1481772999445724 -0.034972856536248716 -0.211253950036658 -0.030478380109900022 -0.009833422459199442 -0.02534086719419655 0.1732683125992305 0.04320352991430033 0.1852874780651675 0.07509678398647043
if 0.06764403134806143 0.05064245445103173 -0.19465243524869144 -0.00261968065537584 -0.14815969045649863 -0.07413206946545238 0.1922472974056093 -0.2981552275217035 0.17286881198290455 -0.07013479812061166 -0.0798447423313959 0.027991250163600975 -0.07548707670099161 0.06984874103755338 0.23962361983264338 0.032156015458390294 -0.2741715994526592 0.15778682866955546 -0.12869181219533815 0.07833259189562398 -0.15640265113936225 -0.10195300274736405 0.03289185966546785 0.26173564415759915 -0.1382342624561738 -0.04088546137790239 0.07867040272726189 -0.094541865950762 -0.12497777500181499 -0.20956598363484508 0.00746853640866309 0.08906914228277857 0.18717919395379387 -0.10907243659742641 0.17883084381927716 0.0945437479052558 -0.2911411831232942 0.06016702614417622 -0.13422852231611093 -0.1266564784102886 -0.033944813204751456 -0.03147851184062068 0.12390223800860574 -0.0030111271900871727 -0.0013907643709215128 0.16841893058230387 -0.21178292602854676 -0.05042697066149111 -0.048595828939019356 0.23260581152524645
so -0.09398590685000002 -0.21544007726163342 -0.11696144411981614 -0.12059697911288184 0.1650504782219083 0.07932331845168314 0.0016401060681030806 0.0856669355571981 -0.0873251088892093 0.00991290546425093 0.11879828261714089 -0.11998269214000602 0.023208404226853996 0.1171963185506216 -0.21133278593318924 0.06301660903772803 -0.09279346743206462 0.08328406419509486 0.005540627598487762 -0.08532566501671154 0.19667019753487233 -0.007210845773104364 -0.10488648940789444 0.09940006360113102 0.136949860423491 0.08468528088485734 0.1213216771429739 0.17474055409795916 0.23155005424636685 -0.10823294817843034 0.014118563007305955 -0.045633893684356455 0.18976248030067075 0.06305475103931182 -0.30161891862956136 0.33437085314743376 0.11154126494738245 -0.17521833285464036 0.034566690803753915 0.05456915942380176 -0.26375595589946077 0.004575032716287541 0.2550013627990966 -0.1376906182437236 -0.1098549869826253 -0.12255225856249309 -0.24814583988285174 -0.09812130281119016 0.10603476440294334 -0.04544719862397263
queenie -0.22024439351138075 0.04784898846113572 -0.13354809899072415 -0.03764229774134221 0.13669435427469262 -0.10562787918846939 0.07725752866875114 -0.1388173310332472 0.041692542250858514 -0.1778370474089808 0.08064329450010704 -0.1851528365023317 0.09275581817479261 -0.05436982620459767 0.006215158912555053 -0.008132175239309552 -0.1623546010130778 -0.029265952216369222 -0.10799502623268738 0.015312831922655885 -0.04457039661012827 -0.04515845558056195 0.2973211243350223 0.36010736981376673 -0.07382702934994545 0.036220145619500994 0.1353467579652677 -0.02602370632391473 -0.13321446173016113 -0.16621286430562213 0.016512248554903353 0.12400681889674624 0.06980660716539568 -0.05573699341478184 0.05899881020799562 0.09533731317970752 -0.3508167836390387 0.010125611273790771 -0.0702380989297551 -0.002872262673338533 0.21640849696256134 -0.16082341101557773 0.17628721845837667 0.056802209584679936 -0.05264292719950477 -0.003905792622959699 -0.2271463978458211 -0.08417444416567477 -0.32821518910503283 0.1272751593235464
her 0.16863955705362985 -0.11196759940262298 -0.10283122737362048 -0.07775324634120609 -0.17373515162176478 0.11368261804287941 0.013311555339419894 0.019201757290093737 0.005770849556273552 0.24841211687847328 -0.19080684500819206 0.24049830045697648 -0.07519093322538722 0.15330653773697978 0.10507419219090884 -0.018485642923691988 -0.30942807158693214 0.10463119051079245 0.05836224561494612 -0.03889382711934543 -0.019401753194223957 -0.06912116505971473 -0.09156049045376594 -0.08871646267729051 0.17272657012674253 -0.08461547139582465 -0.184509124521683 0.07726293380204814 0.07946073825388773 -0.21333756637993717 0.021315692491814215 0.06509221531360761 0.1967153261544047 0.07271141411289107 0.2004346048231489 0.14728300518355245 0.08153381407734506 -0.11533527236894471 0.03692612548193522 -0.10256456616811352 -0.37300526416441354 0.09914850709595383 -0.025624206404985098 -0.11560623456163727 0.08048329795726321 0.051234434601617 -0.09650555047040503 -0.05372470618207714 0.30434000374637205 0.14520347787931673
over 0.04865454569618228 -0.11041634479753683 -0.2504861351842455 0.0002810174077259794 -0.16877961899475377 -0.04823442937091969 -0.17619791464418907 -0.045666738541798035 -0.19034183092802945 0.21585802357803816 -0.13258194527850506 0.2307763824838391 -0.0015855396884071145 -0.2932280370275711 -0.048302099114586154 0.13115994080395854 0.11231767662305407 -0.2021182460410947 0.1648538340045484 0.1925467367424948 -0.007007577899681948 -0.043752248710567876 -0.031353647898791547 -0.23905934708012355 0.24305562138664816 -0.16204178021218674 -0.2526543865542249 -0.1634083330912288 0.06497799164061309 -0.030294428438901316 -0.15434528672767822 0.001986858862651239 0.16539331223877818 0.0057039954765517355 0.24215993714061856 -0.08970658366294836 0.11825193719958194 -0.06858516492105558 0.1270978764688693 0.07692076154019174 -0.0735325750691143 -0.02671075159723189 -0.03343261280143324 -0.0989810979754566 -0.12055646791444516 -0.1066324782975208 0.10463528100180941 -0.06405693124070853 0.0026532178662556517 0.15520431652922187
that 0.03799776136761136 0.020161987717914373 -0.30664338537205377 -0.010393647583437821 -0.2322704958904647 0.003986664790634933 0.08131283474143909 -0.2625191940614548 0.19535361054925757 0.05439471225148467 -0.09139866571849654 0.035759494901216944 -0.08766968740120289 -0.09681096113468171 0.2098051604808069 0.1442437412258606 -0.11409882122502163 -0.042392503030704846 0.007189716449027263 0.09927789136581583 -0.16059056197669483 -0.11360015832268544 0.11805998121112792 0.06889287441200019 -0.05945169935630507 -0.00013543930680736372 -0.06898873729798723 -0.15599178187737206 -0.10740600872629412 -0.09960505644459726 -0.1193774362864359 0.03890538061842434 0.33077532783625674 0.004585587959049314 0.1955295057529035 0.052444913919069566 -0.19663236867976347 0.2403273756934664 -0.02016638509800552 -0.05850450368467175 0.02105729430447214 -0.05737965385735604 0.07617757427099625 -0.10383093871219065 -0.07099570157158726 0.2397310909531067 -0.14920750387274864 -0.09072938446862379 -0.13908209647487088 0.32648612329535076
them 0.09025343065767892 -0.18915629172799342 0.015891258379621243 -0.07964991684990601 -0.24827941599038703 0.07753532856051351 -0.2382351216157727 0.14946317660903566 -0.0037527572894881104 0.3558024089608936 -0.09442910560504554 0.34630204783903273 -0.06379687392129789 -0.06341726710790092 0.09933214797002848 0.16429204545049222 -0.034563327744630314 -0.08411730307333941 0.24421966124442687 -0.00896916635277861 -0.049185833150616066 0.07807544026816557 -0.05116411966472843 -0.19495994488851878 0.3332922344658005 -0.12051752016333356 -0.24303370841465316 0.012274802865413251 0.06421851773080928 -0.04307008714015021 0.023455369983484242 0.05609773439052187 0.03701293815457113 0.13006246597804313 0.14580977949218163 -0.03476969118010115 0.18602644629001908 -0.039691841270590646 0.041528730615954475 0.008478734731443605 -0.128773331430534 0.023984017055832366 -0.0624669762260414 -0.03985489386157995 -0.07488827165367161 -0.10462626178371232 0.15911894723168327 -0.026791578856929375 0.1935268654755269 0.09624688722490281
want -0.02834313114910003 -0.013948125833445572 -0.2324161898340291 -0.067278220357972 -0.13083339745943395 -0.004972820018135176 0.11819848012997303 -0.20814869099581623 0.1786780749127032 0.06949147385489657 -0.07314994245477033 0.020030715614304088 -0.04657204240610922 0.08135835279038209 0.20924931744432557 0.04195238289948951 -0.3236441788612777 0.1174653006214385 -0.009553048982207048 0.019350681619638398 -0.08727350562969687 -0.12269813363753411 0.16201552767197863 0.2739874108222228 0.013870407662626635 -0.030518097017753498 0.011633152965890344 0.010485667032034284 -0.09581621839125776 -0.23630552711780614 -0.03863107401125672 0.13087054217342828 0.24555170361670609 0.03629495722958164 0.1779963265466224 0.1741727068337584 -0.21937668085059903 0.050265369891423814 -0.08051145331131104 -0.0642534977245556 -0.08664433132034652 -0.03540576992227087 0.14189795057264162 -0.0657009986560583 0.05202545787761737 0.156227238317383 -0.30893315774810215 -0.0679851128381413 -0.03426914167404392 0.3077553845859123
the 0.04869044359307184 0.0761868647990325 0.15577152204199993 0.12702136993426646 0.19824522544926265 0.023942885792861426 0.1235755567415059 0.15100838290172447 -0.3018532356858264 -0.126271207966125 0.05695131024916264 0.09198828687882911 0.09931988715223947 0.030350411115896817 -0.08678387599258809 -0.06627642052787629 0.21442951566158822 -0.019199214523731523 0.11528873292388774 -0.00997923074920379 0.013889677133304586 0.12706419925078666 -0.1651446530695392 -0.1405800932580969 -0.136883793456597 0.05061257140417482 0.04501231380464115 -0.07195325175391575 0.17247884905910232 0.18977021221057092 0.08351976293051923 -0.07774169877452296 -0.23256967799500236 -0.10522254568356718 -0.11262942172540695 -0.06824527122972855 0.250774733232235 -0.282081665750416 -0.00026086947335023563 0.13724978943413318 -0.04210381385549748 0.13857490253010626 -0.08849964436954835 0.007618426908287976 0.06944708780844656 0.00518494301509548 0.26496810915540997 0.10547303229230648 0.22672023164480581 -0.30225167811527176
take -0.023735177456506426 -0.16475488202599176 -0.16468590861587715 -0.12563149893357206 -0.3003482819342196 0.056334627309465514 0.042223618957398526 -0.08057997016147479 0.2444144139214544 0.2164659124643266 -0.054112018628358724 0.0028457477655904543 -0.11879956374204796 -0.12040616851902779 0.24048649713510034 0.12319602403849086 -0.1837213806107816 -0.01740627248012849 0.13005055396781112 0.16207562180205723 -0.20579406104418088 -0.09806472962552679 0.044994447329243806 0.010103415385063309 0.17054627008216625 -0.04068717678725942 -0.1532815120124453 -0.05201308640676777 -0.0999282008953472 -0.10839528158527784 -0.14950581240703378 0.13012666255828242 0.22196356892915098 0.1127857958980902 0.2564930850685928 -0.0325055033115961 -0.1361321060251574 0.1753327869047745 -0.07589096747040786 -0.10870804032424577 0.15045003460756817 -0.0775760592313112 -0.02637638338520529 -0.11106621743212958 -0.09019343649537918 0.09014586862633463 -0.09057160105428338 -0.1288732492089584 -0.011579208522170602 0.2978331308584887
hank -0.25890001308931354 -0.07129265978371777 -0.25195377821084974 -0.009215325581431389 -0.0031418911117852737 -0.16697709282454587 0.059581715148938605 -0.20835182976162728 0.022937423175678068 -0.09781551277402628 0.08905514749293823 -0.17561372413273718 0.011229333940273449 -0.2193041899625704 -0.004611469989881748 0.07603833354420288 0.0015238314662127303 -0.0874313770486166 -0.05197207581579008 0.07174190928531202 -0.007933251262263028 -0.08604174935300725 0.2392482027939392 0.22444105343736745 0.012549480251102342 -0.040862668649247307 0.16492501247404326 -0.0631338319708661 -0.12610680977696645 -0.025528222208177166 -0.05215386957596912 0.100737538133972 0.112401844578967 -0.06155003711778803 0.0456787755943044 0.10572972804045905 -0.31203709184991585 -0.04518193610313448 -0.052620251473810616 0.067039066515445 0.2666419525934824 -0.24812088045042585 0.18404476668596165 0.03424385289906409 -0.18585318628983682 -0.0008594752117364744 -0.1082815032815061 -0.09621744092407551 -0.33257217235181447 0.15289331130952413
was 0.18713537403596997 -0.10990332473522345 -0.1547213746788 -0.013040274820902207 -0.258044190360883 0.02771708555593758 0.022377445958689235 -0.08352463205798387 0.04749297811196677 0.24213022534796716 -0.1681025170822714 0.2482602690671947 -0.10791384690998324 0.17796259952519858 -0.005112084944034597 0.13302287750174036 -0.1926719180678359 0.05748587816881055 0.019983013730178842 0.0009427264204569615 -0.012705908799853432 -0.06527846404825283 -0.09869927664658076 -0.14441268449096573 0.08561906366205328 -0.10030051836960323 -0.16211643651099542 0.02033781323029171 0.09969494435370378 -0.12846806925945373 -0.04125055025788673 -0.020859795740928964 0.2122945595308844 0.021154223598352468 0.17093441152165392 0.0704862148260875 0.12121325539719825 -0.12568168575071395 0.033625147388968844 -0.05948371514457699 -0.432254460094312 0.09714168826519522 -0.05133540097051893 -0.23075063509827384 0.06322675699131743 0.050439114275207635 -0.07209953087764784 0.051471933762447186 0.2887900747908207 0.16977899116002984
no -0.2907450602500519 0.02427397868381668 -0.13664838831285359 0.008709461879687012 0.2521794569724469 -0.10862013528246457 0.02962031538573416 -0.03278265697080103 -0.008662107258766575 -0.16113262151355703 0.3053890032234882 -0.29100266938785907 0.08887136417380499 -0.17647930706145268 -0.18600610969822645 -0.03968411942374571 0.06399029924978829 -0.03519300717565134 -0.022555005944404766 -0.062045918514795094 0.10231060559102537 -0.10799316010147797 0.13197448722800634 0.18882749801266616 -0.010640583320822489 0.0017142372773198667 0.16587850162220336 -0.023707617417608233 -0.1920760250078082 -0.009665078129861459 -0.008627064839285452 -0.004110381095894045 0.020232735334466474 0.03698490603128073 -0.07986735655199284 0.1134199996589602 -0.1574133895864658 -0.01686392760218649 -0.04300462544268685 0.06991625651177194 0.22396841510530502 -0.16082576356999256 0.1709274513047405 0.1066028284312539 -0.10725348092270072 -0.1780912583575844 -0.14125599292841226 -0.00868199619955316 -0.39557019621195255 0.016293777966304414
from 0.2570609288707984 0.022313187760888614 -0.010331534296571743 0.062120890166216025 -0.05495953555151917 0.11033688452777773 0.193211884344668 -0.1327866338749625 0.046715442645474274 0.055287933651898 -0.27164700687376325 0.23565652595204725 -0.0999419466375685 0.10278860541857514 0.42174282181176265 -0.16138490607181435 -0.16080126786371535 0.1432579812241708 0.024940372563919292 0.17248378642471685 -0.1963430464304583 0.05976357706943727 -0.18892320024170087 0.11693898693192846 -0.027993499457540337 0.03533531045412853 -0.06571863767185147 -0.014981131163321573 0.0030449982277700825 -0.10249759918111073 0.06507159587011495 0.03112791300967099 -0.0296354899594345 -0.25070756364168706 0.13412136080769035 0.032395984882420945 -0.0325731897979719 0.18420369684863278 0.02808616624824129 -0.06741102590202161 -0.1826234842072059 0.07702561187053855 -0.09604668996178788 0.07446995932699635 0.09551995241464559 0.27312804979180844 -0.04849399473366459 -0.017587181435139747 0.21078280844810582 0.04204145978117156
tell 0.16159989312404846 -0.02246413035502676 -0.0620792105202727 -0.11855311720660854 -0.13471024551772812 0.07406153564009879 0.06501474841799196 -0.06838847124940513 0.07623664951199181 0.14000912105610924 -0.17500744862099243 0.15619260069485646 -0.05361290540104905 0.10975704404450183 0.2937284614293428 -0.13428034242986 -0.34035977079921703 0.10526000176107606 0.058763460609640335 0.055770702686215354 -0.17240167876615622 0.09183964704785583 0.04403532715101402 0.1482141715842817 0.0004539957302705077 0.14133572217839224 -0.1340168291535836 0.0337635796417594 0.051217946167234 -0.14526282288998588 -0.026700670942476426 0.12524033126342884 0.16307632036627148 -0.03573842342368236 0.16965135305690554 0.08100774560274507 -0.21446667950569773 0.24703917913868775 -0.024558684453886717 -0.024940402256949983 -0.010712944023248846 -0.0676709622428582 0.022862411849741686 0.12275201304030442 0.2598293606740698 0.20238948960641218 -0.19432071308682833 -0.16063694032302694 0.08494538684538977 0.27841758718260806
thats 0.0008277667425980998 0.16649444047102616 0.10283154083159521 0.06391049058476163 0.20803921566091624 -0.014426791799566884 0.061172208637149166 0.0028565343394121928 -0.11719427925227058 -0.26211258540283794 0.1840056488233693 -0.18503419827287734 -0.08223837951797165 0.06736814124915577 -0.1471219887435852 -0.2477091977224814 0.09698051102900447 0.1965022166859552 -0.0839518074033198 0.008227163800316531 0.03949876245260516 0.06322807574041736 -0.04838000979506395 0.21791082678469773 -0.2307276615417412 0.010316289388778403 0.391651921640701 -0.11699719193260436 -0.2251377724377082 0.017170000930171004 0.01833035252470584 -0.10235237228565672 -0.2080367520694204 -0.036537525474620296 -0.13274446877393486 -0.0012761403948387375 -0.1487319457861086 -0.06801852940405428 -0.11359866746411007 0.00644598714883312 0.058193726518693506 -0.06639625440405175 0.21918203999654481 0.14765658809817983 0.0922393291952841 -0.053425445178519035 -0.05803605666296053 0.049901277543737535 -0.08917831676171822 -0.26089557120389906
when 0.10260760789284479 -0.11110547765944673 -0.2535608941887255 -0.04562324415885255 -0.3364233636216471 0.008275161462694048 0.1066523102732347 -0.19655156315608896 0.13985182662664264 0.24224471575114576 -0.12528091113778117 0.16583080021209526 -0.13181834861482622 0.045965795496253466 0.1683425104557201 0.14045803263772824 -0.11256756266806174 0.1102655777330497 0.14801513459140989 0.0847190377601178 -0.03084060597748671 -0.07356165134191626 -0.004832670325606626 0.024628742074764412 0.06645495945577931 -0.05050984384953104 -0.03587201600030262 -0.13030233424113935 -0.06405410401813551 -0.13010259585198428 -0.12697169660197874 0.018473803612951305 0.24609167712627217 0.02918976819112016 0.1814173854098102 -0.00665927789442963 -0.10255967067944756 0.07087916477556383 -0.07511761339343417 -0.03670592377502499 -0.15689949814102683 -0.11937065220268302 0.05892881695241673 -0.19596433229197308 0.054123111309346036 0.1543797983618358 -0.2734408560613285 -0.0076160247784823575 0.12441005176106514 0.34663798484303676
wont 0.04579217795467663 0.055779652725618134 -0.10314348705936552 -0.07386937940890777 -0.003928758549531088 0.0249277703257575 0.08485108935882345 -0.18031678644763366 0.049114453045033465 -0.004824335006899378 -0.05617887638979084 -0.011110195726890815 0.02235117161963131 -0.04603385358279652 0.2850716992932289 -0.09469860640841704 -0.33459302396535023 0.05911875333438837 -0.021909119363133556 -0.03477834656051717 -0.1367524600901507 0.002928405000224749 0.18181578717901012 0.25147802218827403 0.004719557914961328 0.14432011939472736 -0.036592443363999305 -0.0006516064403738538 -0.06747338802293765 -0.18990580235069396 0.015964357789159417 0.08436697330629217 0.22425050941392005 -0.05856121683787131 0.1644411450282904 0.13215756397070694 -0.2988036167074455 0.2815268684820401 -0.026623323704054253 -0.039782408695923414 0.1256460883447175 -0.12000648049105929 0.10425167688577597 0.08812747667168916 0.1568092428352262 0.11764861352430742 -0.28172495072154347 -0.1606515794038157 -0.07574924869346049 0.26500497419636365
hello -0.1880705503645597 0.14038501039940127 0.09178408321729067 0.04369322489163642 0.31431660305469655 -0.08621956700619922 -0.02176120776217473 0.017397075612901023 -0.13968667375966454 -0.2786108394045895 0.21194469831101895 -0.234723212691621 0.11328860507945407 -0.07994774902283387 -0.15654489772217411 -0.07424356548379508 0.100498192043411 -0.06952554652384398 -0.05042981421969142 -0.0811467175374089 0.06362365821990672 0.060986965555819644 0.16132756000620896 0.14936288286174648 -0.16310879028661854 0.06355335270685215 0.2162253131729728 0.06237042706102783 -0.07817265278047603 0.15066613002320112 0.07992887505959774 0.006709222081362616 -0.16871530106591037 -0.05850079274854067 -0.23840835401347502 0.04340303770688095 -0.13433118669141322 -0.10886266070058204 0.027746613353431836 0.16010122424494155 0.23007078075391543 -0.05814926518326779 0.09033361914259423 0.1036699615652423 -0.013393436161437363 -0.12146291855702113 0.030425300585719305 -0.015349250601781132 -0.314865363535787 -0.21708690959470203
an 0.007273297069405532 -0.202437886660181 -0.11471640839185049 -0.03594284652731583 -0.23879440403498015 0.11142033224162194 -0.08394029413631429 0.14982859056679018 0.18636951542781682 0.1657873141046407 0.21180944188368866 0.025665867159718154 0.07975208447163376 -0.013069672920286279 -0.08188689185724046 0.2814124692979907 0.14392755100751004 -0.05408621731191561 0.07328619315273784 0.018900936673966823 0.0908381309184458 -0.08454667911354888 -0.11884148756575043 -0.37762167591890067 0.005999057952860525 -0.11618003898073725 -0.22108630137102547 -0.17986375222000686 -0.04006460304380626 0.03060167474153721 -0.012312107030919233 -0.1805448969889553 -0.07595262572386527 0.15187368620234024 0.043550070666376575 -0.23822124563184058 0.08835776716225063 -0.1214680482479638 -0.1046039005660233 -0.11510515930876253 -0.11042021236136106 0.026451675637065984 -0.11891790868616904 -0.26785270440980247 -0.19423756817352367 -0.0783964402485559 0.1724907754283162 -0.07462688541747295 -0.037987942162865905 0.014727678967629065
go -0.0714663592881028 0.11374925727204761 -0.026630152719369055 -0.08604360164918867 0.07339835604518644 -0.04022353904092158 0.00952453511148242 -0.1677454331184367 -0.05513771840184764 -0.1454732235550006 0.006919338228718089 -0.1042617852305476 0.0590771858039791 -0.20588535375234654 0.16077892370974098 -0.12015240801701052 -0.1441834287196124 -0.03754488989219209 -0.056087206867397287 -0.012558315858043467 -0.1284632960550686 0.06712526298216183 0.25109690813890223 0.22942781580518012 -0.028935475672275616 0.19493153188754206 0.028403789086527804 -0.04593596893621212 -0.11281661565648997 -0.07233902611768889 -0.007184844584592157 0.07905013728050574 0.11745691201828903 -0.0765925188036714 0.060170209431460675 0.031116805809240995 -0.3582779155360652 0.28751979782162657 0.0013902020613406135 0.02108349582799989 0.31178600055011685 -0.2253764853191017 0.09117784765275345 0.16301955475867821 0.15702679327952065 0.04902433347674727 -0.19557777705323554 -0.15973307126223704 -0.24281230118683172 0.14388557641175365
good -0.06066082736831251 -0.00921722884506152 -0.02409022676662336 -0.031734761033503193 -0.19887041317991022 -0.07691985506509938 0.006704232128621449 0.0833981704462172 0.17726614290126122 -0.05157007701123566 0.10006018477368621 -0.08794092882845249 -0.008076305656896434 0.020686647041684398 -0.17751212175375553 0.2384023549313092 0.1850310497980851 -0.12038658619097292 -0.12276874309225645 -0.011970098555955261 -0.1332045267491426 -0.10198353005648744 -0.2499842953689667 -0.362962731225776 -0.18152367048645526 -0.10822807830119223 -0.2097004608131348 -0.005711594064300448 0.025519869813567228 0.150307035120972 -0.08479292287578598 -0.0034096855829796047 -0.0455898251931471 0.15327099306698497 0.05450437793247981 -0.3152611514160022 -0.05155786529515438 -0.11259463906568337 -0.11736593099172545 -0.05043613194654559 0.1414369679187925 -0.024256829464589364 -0.17343166405174004 -0.19496615309563886 -0.18417099607978937 -0.09178761939405496 0.29101130007488785 -0.028470743778064547 -0.12732981904861365 0.06124960653651698
